{
  "arch": "4-80-1",
  "xi": 0.005,
  "transition_guard": "paper: x in X only",
  "num_grid_points": 1258,
  "num_transition_grid_points": 1258,
  "eta": 0.015,
  "lambda1": 0.1,
  "lambda2": 0.1,
  "lip_reg": 0.01,
  "L_T": 0.3619524671922729,
  "L_f": 5.685370052800001,
  "L1": 2.419786184704296,
  "L2": 4.839572369408592,
  "L3": 0.7962954278230004,
  "L": 4.839572369408592,
  "max_lprime_sampled": 0.08949340879917145,
  "max_lprime_grid": 0.08949340879917145,
  "min_g1_grid": -0.03242979571223259,
  "min_g2_grid": -0.074493408203125,
  "min_g3_grid": 0.0108760641887784,
  "certification_sample_check": "exhaustive_grid",
  "theorem_margin": -0.002901069076478519,
  "certified": false,
  "state_dict": {
    "fc1.weight": [
      [
        0.04118868708610535,
        0.026645328849554062,
        0.06624560058116913,
        -0.28986695408821106
      ],
      [
        0.16565191745758057,
        0.6371884346008301,
        -0.02660301700234413,
        -0.07245556265115738
      ],
      [
        0.09135084599256516,
        -0.3679518699645996,
        -0.0025275754742324352,
        -0.021097831428050995
      ],
      [
        -1.621872414148129e-08,
        0.01839086040854454,
        -6.5199987631103795e-09,
        0.24539664387702942
      ],
      [
        0.10369084030389786,
        -0.19029615819454193,
        -0.078467957675457,
        0.4783160984516144
      ],
      [
        -1.064986832886861e-42,
        -0.06682884693145752,
        1.4265218366826638e-42,
        0.3230926990509033
      ],
      [
        -9.939400769098938e-08,
        0.10626072436571121,
        2.971537469420582e-07,
        -0.2542824149131775
      ],
      [
        0.0012673859018832445,
        -0.22100625932216644,
        -0.0003118598833680153,
        -0.29935547709465027
      ],
      [
        -1.5242619635078255e-33,
        0.07637123763561249,
        -9.817995508348588e-33,
        -0.249099463224411
      ],
      [
        -0.013046495616436005,
        -0.2563769817352295,
        -0.08678799122571945,
        -0.045099638402462006
      ],
      [
        -0.01597006618976593,
        -2.596447229385376,
        0.5413228869438171,
        0.2589685320854187
      ],
      [
        9.367113854450232e-25,
        0.17446455359458923,
        -1.677327529854981e-24,
        -0.0002571780059952289
      ],
      [
        1.9213057811384715e-08,
        -0.090330109000206,
        -3.860693986723618e-09,
        0.32007652521133423
      ],
      [
        0.03789954259991646,
        0.33940139412879944,
        -0.08463430404663086,
        0.22037693858146667
      ],
      [
        0.0027147785294800997,
        0.13104774057865143,
        0.0027091912925243378,
        0.5117326378822327
      ],
      [
        -2.601545467939559e-08,
        -0.1595499962568283,
        1.0271185857391174e-07,
        0.485593318939209
      ],
      [
        -0.002152384025976062,
        -0.36707499623298645,
        -0.0009199262713082135,
        -0.2504230737686157
      ],
      [
        -0.10648287832736969,
        0.45731985569000244,
        -0.04305056855082512,
        0.46127381920814514
      ],
      [
        -0.05060045048594475,
        -0.363736093044281,
        -0.07385480403900146,
        0.19027554988861084
      ],
      [
        0.0495535247027874,
        -1.288924217224121,
        0.001048943493515253,
        -1.1783525943756104
      ],
      [
        -0.00988538283854723,
        -0.15258045494556427,
        -0.04442574083805084,
        0.2942059636116028
      ],
      [
        -5.168072902961285e-07,
        -0.5876661539077759,
        1.5128046015888685e-07,
        0.3776829242706299
      ],
      [
        -1.2905958856431565e-42,
        -0.27688491344451904,
        1.0902102052447077e-42,
        -0.3720797300338745
      ],
      [
        0.0010050410637632012,
        -0.2863049805164337,
        -0.0007083209347911179,
        0.1455461084842682
      ],
      [
        1.3620621073237222e-42,
        -0.34307578206062317,
        -1.0607829374938865e-42,
        -0.20150098204612732
      ],
      [
        6.68570282869041e-05,
        -3.127076706732623e-05,
        5.632835745927878e-05,
        0.29767847061157227
      ],
      [
        1.867991095139132e-08,
        0.0036878178361803293,
        3.2062217325545816e-09,
        0.4196688234806061
      ],
      [
        -0.014821701683104038,
        -0.17011231184005737,
        0.07358746230602264,
        -0.29043638706207275
      ],
      [
        0.004801290575414896,
        0.003991531673818827,
        0.01218471396714449,
        -0.06364552676677704
      ],
      [
        -0.0009439062559977174,
        0.22393998503684998,
        -0.0009615723975002766,
        0.30424991250038147
      ],
      [
        0.09806317836046219,
        0.4306786060333252,
        -0.017462290823459625,
        0.5312836170196533
      ],
      [
        0.1426527351140976,
        -0.31235337257385254,
        -0.003231184324249625,
        -0.03632861748337746
      ],
      [
        1.0523751467079376e-42,
        -0.4630115032196045,
        -1.3676673011810215e-42,
        0.12781821191310883
      ],
      [
        -0.03357276692986488,
        -3.0064291954040527,
        0.5019217133522034,
        0.8140982389450073
      ],
      [
        0.0066733593121171,
        -0.5545414090156555,
        0.005375709850341082,
        0.07453951984643936
      ],
      [
        -0.1006203219294548,
        -0.34536227583885193,
        0.062216904014348984,
        0.14208374917507172
      ],
      [
        0.014924396760761738,
        0.5028883218765259,
        -0.23839983344078064,
        0.8534620404243469
      ],
      [
        0.013814322650432587,
        0.04187006130814552,
        0.016120029613375664,
        0.03342726081609726
      ],
      [
        -0.0782436653971672,
        -0.34155166149139404,
        -0.12329957634210587,
        -0.23227527737617493
      ],
      [
        0.05683444067835808,
        -0.003858730895444751,
        0.039161812514066696,
        0.12677451968193054
      ],
      [
        -0.11888986825942993,
        0.8676238656044006,
        -0.18204398453235626,
        -1.2677123546600342
      ],
      [
        -1.2710836017504334e-05,
        0.28077009320259094,
        -1.8706028640735894e-05,
        -0.031830575317144394
      ],
      [
        1.1770907100328463e-42,
        -0.422642320394516,
        1.3732724950383207e-42,
        0.015223302878439426
      ],
      [
        0.246938556432724,
        0.6655154824256897,
        -0.012355449609458447,
        -0.03822511434555054
      ],
      [
        2.000912324717774e-09,
        -0.011444581672549248,
        2.261465015251929e-09,
        0.08879534900188446
      ],
      [
        -0.12453684210777283,
        -0.39941611886024475,
        0.04012088477611542,
        0.10474234819412231
      ],
      [
        -0.13035936653614044,
        -1.3620383739471436,
        -0.18591183423995972,
        0.9250872731208801
      ],
      [
        0.028456691652536392,
        0.0996413305401802,
        0.04308806732296944,
        -0.2498195320367813
      ],
      [
        -1.195307590069069e-42,
        0.025319339707493782,
        1.348049122680474e-42,
        -0.4113445281982422
      ],
      [
        0.08294998854398727,
        -0.07959765940904617,
        0.03607971593737602,
        0.166418194770813
      ],
      [
        -2.029485557386579e-07,
        -0.2845812737941742,
        -4.464666503167791e-08,
        -0.39568284153938293
      ],
      [
        0.017082471400499344,
        0.20345504581928253,
        0.09122735261917114,
        -0.2874082624912262
      ],
      [
        -0.053428974002599716,
        -0.08104322850704193,
        -0.11931975185871124,
        0.2565310299396515
      ],
      [
        0.05752602592110634,
        -0.30894842743873596,
        -0.14642047882080078,
        0.16677945852279663
      ],
      [
        0.08312589675188065,
        -0.0008529861806891859,
        0.0626969188451767,
        0.18500210344791412
      ],
      [
        0.0019450088730081916,
        -0.32272395491600037,
        0.00037422540481202304,
        0.22522376477718353
      ],
      [
        0.00010282233415637165,
        -0.25386983156204224,
        0.00017350494454149157,
        0.47683918476104736
      ],
      [
        0.513893187046051,
        0.05990077555179596,
        0.004159707110375166,
        0.03148756921291351
      ],
      [
        0.0522460862994194,
        -0.16995534300804138,
        -0.09240961819887161,
        0.3504047989845276
      ],
      [
        -3.5267711774798885e-23,
        -0.0010685729794204235,
        7.109220788739e-23,
        -0.2970421612262726
      ],
      [
        -0.02055327594280243,
        0.19948750734329224,
        0.0030323201790452003,
        -1.0690646171569824
      ],
      [
        0.06967879086732864,
        0.23027031123638153,
        0.09855755418539047,
        0.17672914266586304
      ],
      [
        -1.1812946054258208e-42,
        -0.3019971251487732,
        1.3368387349658755e-42,
        -0.010387260466814041
      ],
      [
        0.08959780633449554,
        -0.2006612867116928,
        -0.15877652168273926,
        0.43182048201560974
      ],
      [
        -1.165151974902301e-08,
        0.16633659601211548,
        9.521108346177698e-09,
        0.36669814586639404
      ],
      [
        -4.618183811544441e-05,
        -1.1736247539520264,
        0.22979798913002014,
        0.45792442560195923
      ],
      [
        1.6969724402973535e-42,
        0.026922911405563354,
        3.1669345293740866e-43,
        -0.7293940782546997
      ],
      [
        0.10297586023807526,
        0.3456553518772125,
        0.14225448668003082,
        -0.033516183495521545
      ],
      [
        -3.9672475374286087e-13,
        0.007801944389939308,
        7.964900982683487e-13,
        -0.312956303358078
      ],
      [
        0.26401469111442566,
        1.143845558166504,
        -0.02273240126669407,
        1.1851335763931274
      ],
      [
        0.13059474527835846,
        0.5049201250076294,
        -0.02264045551419258,
        -0.4340808689594269
      ],
      [
        -0.0020336199086159468,
        -0.5096041560173035,
        -0.0014328593388199806,
        -0.18591685593128204
      ],
      [
        0.43470674753189087,
        -0.00716962618753314,
        -0.008127703331410885,
        -0.025753354653716087
      ],
      [
        -9.209765762518973e-12,
        -0.21693719923496246,
        -1.0805961681015219e-10,
        -0.3452794551849365
      ],
      [
        0.060392528772354126,
        0.6762171983718872,
        -0.16470839083194733,
        0.001850378466770053
      ],
      [
        0.02681761234998703,
        -0.03036016784608364,
        0.02466125227510929,
        -0.4168837070465088
      ],
      [
        -0.010002528317272663,
        0.5681578516960144,
        -0.00916320737451315,
        -0.40002021193504333
      ],
      [
        9.79927869954762e-33,
        -0.040317337960004807,
        1.4038826763862058e-31,
        -0.36054447293281555
      ],
      [
        -0.2369745373725891,
        0.4274841845035553,
        -0.015473821200430393,
        0.499182790517807
      ],
      [
        -0.23799271881580353,
        -0.3820318877696991,
        0.013750305399298668,
        0.025563731789588928
      ]
    ],
    "fc1.bias": [
      -0.18581707775592804,
      -0.9056784510612488,
      0.2106618583202362,
      -0.018391113728284836,
      -0.05260254815220833,
      -0.4858756959438324,
      -0.17299365997314453,
      -0.15159323811531067,
      -0.07637128233909607,
      0.50311279296875,
      -1.1074928045272827,
      -0.1744646579027176,
      -0.01900000125169754,
      0.13891761004924774,
      -0.4531838893890381,
      -5.5534878811158706e-06,
      0.3553759455680847,
      -0.2340793013572693,
      0.20792143046855927,
      -0.053530748933553696,
      0.25727418065071106,
      -0.2985973358154297,
      -6.844177278253483e-07,
      0.19957591593265533,
      -0.01816309057176113,
      -0.13875135779380798,
      -0.003688379656523466,
      0.05034859478473663,
      -0.22606171667575836,
      0.006487412378191948,
      -0.5902292728424072,
      0.06600126624107361,
      -0.461783230304718,
      -0.774945080280304,
      0.49661070108413696,
      0.41419729590415955,
      -0.029214847832918167,
      -0.05184147506952286,
      0.3428363502025604,
      -0.1722150295972824,
      0.5144861936569214,
      -0.4484430253505707,
      -0.2645159363746643,
      -1.0932849645614624,
      -2.51817169782953e-07,
      0.5566960573196411,
      0.541724443435669,
      -0.12213584780693054,
      -0.02531936578452587,
      -0.1613951474428177,
      -0.14497210085391998,
      -0.5525450110435486,
      0.31016188859939575,
      0.2470773160457611,
      -0.26220467686653137,
      0.25447699427604675,
      -0.34703555703163147,
      -1.09382963180542,
      0.09249738603830338,
      -3.950797466956146e-09,
      -0.15951789915561676,
      -0.28823497891426086,
      -0.3354276418685913,
      0.05712096393108368,
      -0.16633695363998413,
      -0.4870191812515259,
      -0.026922980323433876,
      -0.4221877157688141,
      -0.05245122313499451,
      -1.5926464796066284,
      -0.7129381895065308,
      0.2853354513645172,
      -0.8180438280105591,
      7.577167782102379e-10,
      0.28365230560302734,
      -0.09266533702611923,
      0.06605556607246399,
      -0.03483922779560089,
      -0.01393103040754795,
      0.7919859886169434
    ],
    "fc2.weight": [
      [
        -0.012594254687428474,
        0.06581037491559982,
        0.02831345424056053,
        -1.857189424470107e-08,
        -0.04147426784038544,
        -1.2751816025355835e-43,
        1.891752926838503e-43,
        -1.4153114489680652e-43,
        1.7516230804060213e-43,
        0.01545600313693285,
        -0.12667177617549896,
        -1.0534031841029172e-36,
        -2.3805613480476495e-08,
        -0.02491968497633934,
        -1.1849186194012873e-05,
        1.3095927009487696e-08,
        -0.004230666905641556,
        0.03240825980901718,
        -0.019207851961255074,
        -0.013247222639620304,
        0.006841888651251793,
        -4.4471553906078043e-07,
        -2.2981294814927e-43,
        -0.002346835331991315,
        -2.1579996350602183e-43,
        6.494559784187004e-06,
        -1.6748487041695626e-08,
        0.017801320180296898,
        2.865636092347511e-25,
        0.0011882181279361248,
        0.034898724406957626,
        0.0431828647851944,
        1.2611686178923354e-43,
        -0.1170247420668602,
        -0.006740718614310026,
        0.04114619642496109,
        0.05544294789433479,
        -0.003833914175629616,
        -0.027626892551779747,
        -0.015019145794212818,
        -0.0438375324010849,
        2.228064558276459e-42,
        1.1630777253895982e-43,
        0.08806487172842026,
        -9.204478956803541e-09,
        0.048117585480213165,
        -0.05129895731806755,
        -0.008782696910202503,
        1.8497139729087585e-43,
        -0.020596900954842567,
        1.2962010795004558e-42,
        0.01923336088657379,
        -0.01948612555861473,
        -0.04177061840891838,
        -0.02279403619468212,
        -0.0031413850374519825,
        -6.538524030474946e-05,
        0.1514086127281189,
        -0.0311899371445179,
        -2.0318827732709848e-43,
        0.00759566854685545,
        -0.023594021797180176,
        -1.317220556465328e-43,
        -0.05135524645447731,
        -1.0588796506283416e-08,
        -0.05196447670459747,
        1.7376100957627732e-43,
        -0.03569876402616501,
        4.81104253183544e-15,
        0.09366080909967422,
        0.05136633291840553,
        -0.0032894411124289036,
        0.13142424821853638,
        1.2159610991713254e-11,
        -0.045112889260053635,
        -0.005069915670901537,
        0.0052367341704666615,
        1.877739942195255e-43,
        0.07249470055103302,
        0.08355087786912918
      ]
    ],
    "fc2.bias": [
      -0.05732933059334755
    ]
  },
  "example": "ex1",
  "method": "NCC",
  "certificate_type": "neural_closure_certificate",
  "backend": {
    "train": "pytorch",
    "certify": "lipschitz_bound"
  },
  "automaton": {
    "states": [
      0,
      1
    ],
    "initial_state": 1,
    "accepting_states": [
      0
    ]
  },
  "seed": 2,
  "elapsed_sec": 891.9168016910553
}