{
  "arch": "4-80-1",
  "xi": 0.01,
  "eta": 0.01,
  "lambda1": 0.1,
  "lambda2": 0.1,
  "L_T": 1.6124807663080105,
  "L_f": 6.0,
  "L1": 11.287365364156074,
  "L2": 22.574730728312147,
  "L3": 3.5474576858776232,
  "L": 22.574730728312147,
  "max_lprime_sampled": 0.7594901323318481,
  "theorem_margin": 0.10287365364156074,
  "certified": false,
  "state_dict": {
    "fc1.weight": [
      [
        -0.14757223427295685,
        0.4579254984855652,
        0.2922288775444031,
        -0.3001593351364136
      ],
      [
        0.004156218841671944,
        0.482486367225647,
        0.21510465443134308,
        0.16918613016605377
      ],
      [
        -0.22927720844745636,
        0.08387129008769989,
        -0.27839958667755127,
        0.305509090423584
      ],
      [
        0.1666325181722641,
        0.10919825732707977,
        -0.2034592181444168,
        0.09569735825061798
      ],
      [
        -0.1405504196882248,
        -0.006592439953237772,
        0.03159118816256523,
        0.21758641302585602
      ],
      [
        -0.15485341846942902,
        -0.12403541803359985,
        -0.09559805691242218,
        0.11517684161663055
      ],
      [
        0.32944536209106445,
        -0.479287326335907,
        0.18333588540554047,
        0.2367263287305832
      ],
      [
        0.30545198917388916,
        -0.2839561700820923,
        0.3177372217178345,
        -0.434758722782135
      ],
      [
        -0.18406879901885986,
        0.2342955470085144,
        -0.40085524320602417,
        0.15528136491775513
      ],
      [
        -0.33931422233581543,
        0.47157949209213257,
        -0.1165577620267868,
        0.014951242133975029
      ],
      [
        0.2854379415512085,
        0.4461061358451843,
        -0.3891128897666931,
        -0.21764396131038666
      ],
      [
        0.06935502588748932,
        0.18525727093219757,
        -0.39037197828292847,
        0.05821162462234497
      ],
      [
        0.04402773454785347,
        0.25928419828414917,
        0.2791099548339844,
        -0.49317532777786255
      ],
      [
        0.2833685278892517,
        -0.42223137617111206,
        -0.4063742160797119,
        0.1623254269361496
      ],
      [
        -0.2635706663131714,
        -0.2694857120513916,
        -0.33894485235214233,
        -0.4590647220611572
      ],
      [
        0.3703765869140625,
        0.22606061398983002,
        -0.08675943315029144,
        -0.46510255336761475
      ],
      [
        0.35697346925735474,
        -0.45243096351623535,
        0.48755884170532227,
        -0.1126631647348404
      ],
      [
        -0.3292994499206543,
        0.2939527630805969,
        -0.22255562245845795,
        0.08143539726734161
      ],
      [
        -0.4521247148513794,
        -0.04455519840121269,
        -0.055740226060152054,
        -0.24410581588745117
      ],
      [
        -0.3212042450904846,
        0.2309679538011551,
        -0.04229794815182686,
        0.24752934277057648
      ],
      [
        -0.051379572600126266,
        -0.18263225257396698,
        -0.21535001695156097,
        0.47678714990615845
      ],
      [
        0.05900932475924492,
        0.09240354597568512,
        -0.10400013625621796,
        -0.008325708098709583
      ],
      [
        -0.016767608001828194,
        -0.41739988327026367,
        0.3289620876312256,
        -0.11122594773769379
      ],
      [
        0.21157874166965485,
        -0.05713038519024849,
        0.2002726048231125,
        0.12818573415279388
      ],
      [
        0.07478468120098114,
        0.15696685016155243,
        0.3711298704147339,
        0.19157661497592926
      ],
      [
        -0.02065408229827881,
        0.02572840452194214,
        -0.22034597396850586,
        -0.49232709407806396
      ],
      [
        0.03452695533633232,
        -0.43165671825408936,
        0.2812477946281433,
        0.20698343217372894
      ],
      [
        -0.018398059532046318,
        -0.2588995099067688,
        -0.09535406529903412,
        -0.3057718276977539
      ],
      [
        -0.11730676889419556,
        -0.124400794506073,
        -0.2740517258644104,
        -0.20777326822280884
      ],
      [
        0.30827611684799194,
        -0.16875620186328888,
        0.05710185691714287,
        -0.08904634416103363
      ],
      [
        0.17888350784778595,
        0.22544707357883453,
        -0.06377382576465607,
        -0.11371244490146637
      ],
      [
        0.26059257984161377,
        -0.2855476140975952,
        -0.486037015914917,
        -0.47468239068984985
      ],
      [
        -0.3701851963996887,
        -0.32929277420043945,
        -0.3578585982322693,
        0.21027928590774536
      ],
      [
        0.12539736926555634,
        0.2099679559469223,
        -0.3206391930580139,
        0.33795249462127686
      ],
      [
        -0.026624811813235283,
        0.04661900922656059,
        0.4240080714225769,
        0.07964707911014557
      ],
      [
        -0.17192275822162628,
        -0.0031797417905181646,
        0.18455253541469574,
        -0.2157219797372818
      ],
      [
        -0.1211317777633667,
        -0.09015852212905884,
        -0.09340792894363403,
        -0.22180217504501343
      ],
      [
        0.026545299217104912,
        0.08625234663486481,
        0.3098212480545044,
        -0.4258382320404053
      ],
      [
        0.032226335257291794,
        -0.06528986990451813,
        0.36361706256866455,
        -0.2874596118927002
      ],
      [
        0.40139418840408325,
        0.0727139562368393,
        -0.07163529098033905,
        0.20544017851352692
      ],
      [
        -0.16577030718326569,
        -0.46686357259750366,
        0.2792757749557495,
        0.4664682149887085
      ],
      [
        0.08966417610645294,
        -0.09651051461696625,
        -0.3892449140548706,
        0.15564973652362823
      ],
      [
        0.19988314807415009,
        -0.41439270973205566,
        -0.11277259886264801,
        0.12321163713932037
      ],
      [
        -0.05170028284192085,
        0.146208718419075,
        0.4221192002296448,
        0.489446222782135
      ],
      [
        -0.2821124792098999,
        0.48349541425704956,
        -0.4197327494621277,
        -0.058725595474243164
      ],
      [
        -0.3851081132888794,
        -0.4641229510307312,
        -0.3043896555900574,
        -0.27458643913269043
      ],
      [
        0.43600112199783325,
        -0.03702269867062569,
        0.48672449588775635,
        0.12872163951396942
      ],
      [
        -0.4758669137954712,
        0.0028056034352630377,
        0.4567071795463562,
        -0.1871633380651474
      ],
      [
        -0.37132447957992554,
        0.1841232031583786,
        -0.09477801620960236,
        0.40388578176498413
      ],
      [
        0.15915055572986603,
        -0.029449449852108955,
        0.07976089417934418,
        0.16201697289943695
      ],
      [
        -0.226617693901062,
        0.22685283422470093,
        -0.1472422480583191,
        -0.2337803840637207
      ],
      [
        0.03660453483462334,
        0.17170937359333038,
        -0.05150633305311203,
        -0.45675408840179443
      ],
      [
        -0.1706930547952652,
        -0.09306760132312775,
        0.4287586808204651,
        -0.020849691703915596
      ],
      [
        0.11475561559200287,
        -0.15403516590595245,
        0.3609674572944641,
        0.11201198399066925
      ],
      [
        -0.060910165309906006,
        -0.33499419689178467,
        -0.12757426500320435,
        -0.07047051191329956
      ],
      [
        -0.3876279592514038,
        -0.2425881028175354,
        -0.2684398889541626,
        -0.23640888929367065
      ],
      [
        -0.37571609020233154,
        -0.41144508123397827,
        -0.33974289894104004,
        0.20279072225093842
      ],
      [
        0.3350445628166199,
        0.4786915183067322,
        -0.4692809581756592,
        -0.12020383775234222
      ],
      [
        -0.22435180842876434,
        0.4044206738471985,
        -0.19945542514324188,
        -0.49736177921295166
      ],
      [
        0.5007261633872986,
        -0.27614831924438477,
        0.20035402476787567,
        0.3824373483657837
      ],
      [
        -0.3127203583717346,
        -0.22905182838439941,
        0.09158647060394287,
        -0.037831902503967285
      ],
      [
        0.32190799713134766,
        -0.054862093180418015,
        0.12805552780628204,
        0.19055981934070587
      ],
      [
        -0.3653390407562256,
        0.28997695446014404,
        0.45225226879119873,
        0.41868239641189575
      ],
      [
        0.47380077838897705,
        0.09373198449611664,
        -0.18940381705760956,
        0.26279979944229126
      ],
      [
        -0.17361660301685333,
        0.4887514114379883,
        0.4104776382446289,
        -0.11344246566295624
      ],
      [
        -0.021653221920132637,
        -0.22908012568950653,
        -0.3207140564918518,
        -0.2975768446922302
      ],
      [
        -0.3949205279350281,
        -0.13610929250717163,
        -0.16561436653137207,
        0.015435099601745605
      ],
      [
        -0.013417614623904228,
        -0.3035273551940918,
        -0.4131585359573364,
        -0.31101059913635254
      ],
      [
        -0.23034556210041046,
        -0.2892787456512451,
        -0.038040947169065475,
        -0.3820759057998657
      ],
      [
        0.4343593120574951,
        0.0713694840669632,
        -0.11237682402133942,
        -0.23598869144916534
      ],
      [
        0.3764100670814514,
        0.4149267077445984,
        0.4837226867675781,
        -0.3957262635231018
      ],
      [
        -0.030304444953799248,
        0.25674062967300415,
        -0.026488257572054863,
        -0.4234376549720764
      ],
      [
        -0.10078175365924835,
        -0.044608842581510544,
        -0.4013298749923706,
        -0.26047730445861816
      ],
      [
        0.15109853446483612,
        0.36377251148223877,
        -0.04691283777356148,
        0.37361329793930054
      ],
      [
        -0.3890186548233032,
        0.188906729221344,
        -0.11756628751754761,
        -0.29580819606781006
      ],
      [
        -0.4828157424926758,
        -0.4732365012168884,
        0.33039021492004395,
        -0.2345869094133377
      ],
      [
        -0.31997495889663696,
        -0.029646648094058037,
        0.4035751223564148,
        0.4283270835876465
      ],
      [
        0.22135533392429352,
        -0.3036080002784729,
        0.11291615664958954,
        -0.2563495635986328
      ],
      [
        0.3379865884780884,
        -0.18660108745098114,
        -0.3556531071662903,
        0.4617919921875
      ],
      [
        -0.38176459074020386,
        0.2964668869972229,
        0.41759032011032104,
        0.36625295877456665
      ]
    ],
    "fc1.bias": [
      -0.4207097887992859,
      -0.2885708808898926,
      -0.11432577669620514,
      0.33181798458099365,
      -0.04270784929394722,
      0.07244656980037689,
      -0.016100453212857246,
      0.15869446098804474,
      -0.21688330173492432,
      -0.07749055325984955,
      -0.2834322452545166,
      -0.3821278214454651,
      0.16791348159313202,
      -0.2856197953224182,
      0.00914311408996582,
      0.41177499294281006,
      -0.3681667447090149,
      0.14190985262393951,
      0.22567839920520782,
      -0.2579687237739563,
      0.3226954936981201,
      0.028715206310153008,
      -0.20813648402690887,
      -0.3915497064590454,
      0.463931679725647,
      -0.24845075607299805,
      0.04916791990399361,
      0.32765382528305054,
      -0.38388633728027344,
      -0.11265547573566437,
      0.43385815620422363,
      -0.4332548975944519,
      -0.33757054805755615,
      0.4126911163330078,
      -0.30231529474258423,
      -0.19168134033679962,
      -0.16389691829681396,
      -0.2046274095773697,
      -0.2678365707397461,
      -0.0557146780192852,
      -0.06914998590946198,
      0.009547067806124687,
      0.4530456066131592,
      0.2505623698234558,
      -0.4829457402229309,
      -0.013288915157318115,
      -0.44559091329574585,
      -0.027394520118832588,
      0.3391607403755188,
      0.007519496139138937,
      -0.16030573844909668,
      0.19415123760700226,
      0.3995235562324524,
      0.09676145017147064,
      -0.12187850475311279,
      0.1585976481437683,
      0.2973823547363281,
      0.16396616399288177,
      0.1374238282442093,
      0.04941130802035332,
      -0.39013028144836426,
      0.41998738050460815,
      -0.49643367528915405,
      0.3217567801475525,
      0.15959404408931732,
      0.3249592185020447,
      -0.3577551245689392,
      0.42479681968688965,
      0.07770471274852753,
      0.12011386454105377,
      0.20113088190555573,
      -0.04235274717211723,
      0.28171104192733765,
      0.15587256848812103,
      -0.3290708661079407,
      -0.2936704158782959,
      0.03746723011136055,
      -0.40655195713043213,
      0.26812225580215454,
      0.2653942108154297
    ],
    "fc2.weight": [
      [
        0.04933321103453636,
        0.03927397355437279,
        -0.09546831250190735,
        0.0656982958316803,
        0.06284491717815399,
        -0.07311663031578064,
        -0.029949503019452095,
        -0.0026112517807632685,
        -0.10912682861089706,
        0.01545560173690319,
        -0.033118944615125656,
        -0.024279922246932983,
        0.026013849303126335,
        0.05180441215634346,
        -0.026830337941646576,
        0.03999852016568184,
        -0.10642948746681213,
        0.10777345299720764,
        0.10465255379676819,
        0.10940049588680267,
        0.04623175784945488,
        -0.018643980845808983,
        0.0860736221075058,
        -0.037056487053632736,
        0.029689906165003777,
        -0.05594430863857269,
        -0.0247501153498888,
        0.05683499202132225,
        0.04447326064109802,
        0.04858127608895302,
        -0.06336329132318497,
        0.013304399326443672,
        0.10173985362052917,
        0.07892173528671265,
        0.017945049330592155,
        -0.10194893926382065,
        -0.04833276569843292,
        -0.08803704380989075,
        -0.010673517361283302,
        0.10247762501239777,
        -0.09426324814558029,
        -0.0727076455950737,
        0.07382245361804962,
        -0.0735766589641571,
        -0.007121607661247253,
        0.10161042213439941,
        -0.031119370833039284,
        0.10726772248744965,
        -0.057201728224754333,
        -0.010725082829594612,
        0.07010743021965027,
        -0.001105887582525611,
        0.022145060822367668,
        0.09848211705684662,
        0.04183228313922882,
        -0.030359767377376556,
        -0.005095081403851509,
        0.04356970265507698,
        -0.026417141780257225,
        -0.08940088748931885,
        -0.0311175137758255,
        0.10465502738952637,
        -0.04550227150321007,
        0.016426773741841316,
        0.04039817675948143,
        -0.02051127515733242,
        -0.10882317274808884,
        0.05301836505532265,
        -0.10846950858831406,
        -0.011360375210642815,
        -0.0015989713137969375,
        0.06201640143990517,
        0.0913761705160141,
        0.10901719331741333,
        -0.100080206990242,
        -0.07262533903121948,
        -0.06222962215542793,
        -0.0063983481377363205,
        -0.11042749881744385,
        -0.059072963893413544
      ]
    ],
    "fc2.bias": [
      0.02546207793056965
    ]
  }
}