{
  "arch": "4-80-1",
  "xi": 0.02,
  "transition_guard": "paper: x in X only",
  "num_grid_points": 316,
  "num_transition_grid_points": 316,
  "eta": 0.01,
  "lambda1": 0.1,
  "lambda2": 0.1,
  "lip_reg": 0.01,
  "L_T": 0.3462436890056466,
  "L_f": 5.685370052800001,
  "L1": 2.3147671894493467,
  "L2": 4.629534378898693,
  "L3": 0.7617361158124226,
  "L": 4.629534378898693,
  "max_lprime_sampled": 0.07323287427425385,
  "max_lprime_grid": 0.07323287427425385,
  "min_g1_grid": -0.021284278482198715,
  "min_g2_grid": -0.06323287636041641,
  "min_g3_grid": 0.004978475160896778,
  "certification_sample_check": "exhaustive_grid",
  "theorem_margin": 0.03629534378898693,
  "certified": false,
  "state_dict": {
    "fc1.weight": [
      [
        -0.045278385281562805,
        0.1111639216542244,
        -0.31267398595809937,
        -0.34383487701416016
      ],
      [
        0.002652059542015195,
        -0.8474324345588684,
        -0.1851644068956375,
        0.6912506222724915
      ],
      [
        -0.02939295582473278,
        0.11214017122983932,
        -0.07273099571466446,
        -0.11860033124685287
      ],
      [
        -0.31537139415740967,
        -0.3575575649738312,
        -0.156325101852417,
        -0.007858415134251118
      ],
      [
        0.13912057876586914,
        0.237545445561409,
        -0.13643744587898254,
        -0.07097163051366806
      ],
      [
        0.11020076274871826,
        0.38933002948760986,
        -0.07036900520324707,
        0.343229204416275
      ],
      [
        -0.034282077103853226,
        -0.07725399732589722,
        0.35933148860931396,
        -0.2742215096950531
      ],
      [
        -0.20869284868240356,
        -0.19591233134269714,
        -0.1841774582862854,
        0.33730730414390564
      ],
      [
        -0.21295179426670074,
        -0.2234708070755005,
        -0.22009840607643127,
        -0.43524783849716187
      ],
      [
        -0.29509690403938293,
        0.7300629019737244,
        0.0723031535744667,
        0.45336103439331055
      ],
      [
        0.09927858412265778,
        -1.9155569076538086,
        0.42636576294898987,
        -0.25130194425582886
      ],
      [
        -0.14239224791526794,
        -0.4155803322792053,
        0.24195638298988342,
        0.45212629437446594
      ],
      [
        -0.10080713778734207,
        -0.004162105266004801,
        0.2228323370218277,
        0.5295398235321045
      ],
      [
        0.14378945529460907,
        0.10112692415714264,
        0.21356511116027832,
        -0.2127997875213623
      ],
      [
        0.0034133605659008026,
        -0.4088438153266907,
        -0.21563102304935455,
        -0.2794828414916992
      ],
      [
        0.03323070704936981,
        0.17656660079956055,
        -0.10205887258052826,
        0.05723906680941582
      ],
      [
        0.1082688421010971,
        -0.07662423700094223,
        0.0645524114370346,
        0.10590258240699768
      ],
      [
        0.04481235891580582,
        0.791337251663208,
        -0.18810884654521942,
        -0.4453984200954437
      ],
      [
        0.185158371925354,
        0.45150819420814514,
        0.2975199222564697,
        0.5264589786529541
      ],
      [
        0.10971079021692276,
        -0.42189571261405945,
        0.0222010537981987,
        -0.2507956624031067
      ],
      [
        -0.2759876549243927,
        0.7067850232124329,
        0.20539861917495728,
        -0.550793468952179
      ],
      [
        0.21066468954086304,
        -0.43503710627555847,
        0.03147093579173088,
        -0.4601004123687744
      ],
      [
        0.11729701608419418,
        -0.26024338603019714,
        0.12919020652770996,
        0.3148421049118042
      ],
      [
        0.24993380904197693,
        -0.010860102251172066,
        -0.28136202692985535,
        -0.07894168794155121
      ],
      [
        0.2608798146247864,
        0.21696366369724274,
        -0.11209981143474579,
        -0.10347619652748108
      ],
      [
        0.3683483302593231,
        0.26634088158607483,
        -0.15760192275047302,
        -0.1453932821750641
      ],
      [
        -0.24184364080429077,
        -0.39525696635246277,
        -0.13362734019756317,
        -0.2519284188747406
      ],
      [
        -0.04094859957695007,
        -0.17262175679206848,
        -0.2222348004579544,
        0.287644624710083
      ],
      [
        -0.277341365814209,
        0.8016409277915955,
        0.39898452162742615,
        -0.27840787172317505
      ],
      [
        -0.37192943692207336,
        -0.016143091022968292,
        0.024443456903100014,
        0.02436482533812523
      ],
      [
        0.16083870828151703,
        -0.2629213035106659,
        -0.09568691998720169,
        0.11079022288322449
      ],
      [
        -0.2679665982723236,
        -0.33576005697250366,
        -0.04291663318872452,
        -0.10156630724668503
      ],
      [
        -0.10085666179656982,
        -0.43430808186531067,
        -0.09597197920084,
        0.0796787217259407
      ],
      [
        -0.00880324374884367,
        -0.07639241218566895,
        0.12786123156547546,
        0.30853915214538574
      ],
      [
        -0.0032104430720210075,
        -0.04312153160572052,
        0.03624757379293442,
        0.2937876582145691
      ],
      [
        0.26037606596946716,
        0.31172874569892883,
        0.27557241916656494,
        -0.04058690741658211
      ],
      [
        -0.15135014057159424,
        -0.7317442893981934,
        0.1949169933795929,
        0.24853457510471344
      ],
      [
        -0.20213744044303894,
        -0.3963538408279419,
        -0.34917211532592773,
        -0.4339975118637085
      ],
      [
        -0.012799718417227268,
        0.2513415217399597,
        0.16289064288139343,
        -0.5855861306190491
      ],
      [
        0.24764813482761383,
        -0.26980656385421753,
        0.003260344499722123,
        -0.19373415410518646
      ],
      [
        -0.10231774300336838,
        -0.11897002905607224,
        -0.3277052938938141,
        -0.4525011479854584
      ],
      [
        -0.0748111754655838,
        -0.013449183665215969,
        -0.15947392582893372,
        0.16940292716026306
      ],
      [
        -0.1001068502664566,
        -0.19933679699897766,
        0.3396361172199249,
        -0.150462806224823
      ],
      [
        0.3588157594203949,
        0.13657554984092712,
        -0.2830926179885864,
        0.40950220823287964
      ],
      [
        -0.01278824731707573,
        -0.3412400186061859,
        0.3746293783187866,
        0.018661607056856155
      ],
      [
        0.09016963094472885,
        -0.08674968779087067,
        0.2913953959941864,
        0.18028588593006134
      ],
      [
        0.10896135866641998,
        0.15320220589637756,
        -0.0049017504788935184,
        -0.11278513818979263
      ],
      [
        -0.09255371242761612,
        0.4447877109050751,
        0.1840096414089203,
        0.31835025548934937
      ],
      [
        -0.0009828791953623295,
        0.030012184754014015,
        -0.0023315344005823135,
        -0.26637202501296997
      ],
      [
        -0.25133153796195984,
        0.2013085037469864,
        -0.2383265644311905,
        0.08920124173164368
      ],
      [
        -0.006517141591757536,
        0.28795912861824036,
        -0.3016584515571594,
        -0.3198740482330322
      ],
      [
        -0.25687849521636963,
        0.3780023157596588,
        -0.10035952925682068,
        0.4913797080516815
      ],
      [
        0.3688434660434723,
        0.06195828318595886,
        -0.017316468060016632,
        -0.012023596093058586
      ],
      [
        0.0406000018119812,
        0.0035416744649410248,
        0.00278618186712265,
        0.160311758518219
      ],
      [
        -0.2767488658428192,
        -0.2966914772987366,
        0.32973405718803406,
        -0.2946169078350067
      ],
      [
        0.09987661242485046,
        0.533942461013794,
        0.1288621872663498,
        0.4729536473751068
      ],
      [
        -0.11101376265287399,
        -0.4203830361366272,
        -0.1093096062541008,
        0.19638904929161072
      ],
      [
        -0.15154901146888733,
        -0.36585918068885803,
        0.020209411159157753,
        0.5109865069389343
      ],
      [
        0.03965611755847931,
        0.4365385174751282,
        0.21203559637069702,
        -0.3430286943912506
      ],
      [
        0.19600285589694977,
        -0.519444465637207,
        -0.08841166645288467,
        -0.0715470016002655
      ],
      [
        0.11063148081302643,
        0.4994833767414093,
        -0.16570885479450226,
        0.05916498973965645
      ],
      [
        0.15373657643795013,
        -0.45743218064308167,
        0.25682348012924194,
        -0.43060603737831116
      ],
      [
        -0.0322444848716259,
        -0.16142797470092773,
        -0.13473311066627502,
        0.025904327630996704
      ],
      [
        0.26019248366355896,
        -0.07526672631502151,
        -0.19911375641822815,
        -0.2783183753490448
      ],
      [
        -0.20784547924995422,
        0.3586086928844452,
        -0.13882072269916534,
        -0.43124279379844666
      ],
      [
        -0.2790074944496155,
        0.24587561190128326,
        0.05426632612943649,
        0.35856232047080994
      ],
      [
        0.09997086226940155,
        -0.19421924650669098,
        -0.1007232740521431,
        0.25624293088912964
      ],
      [
        0.2850605249404907,
        0.23280228674411774,
        -0.14674030244350433,
        -0.3551785945892334
      ],
      [
        -0.3466058671474457,
        0.13610632717609406,
        -0.1878514140844345,
        -0.4092652499675751
      ],
      [
        0.18492750823497772,
        -0.32537326216697693,
        0.0008847470162436366,
        -0.023271868005394936
      ],
      [
        -0.016657404601573944,
        -0.19451238214969635,
        -0.2760970890522003,
        0.4040927588939667
      ],
      [
        0.07598494738340378,
        0.4062567949295044,
        -0.18660320341587067,
        0.4027116000652313
      ],
      [
        -0.07623343169689178,
        -0.001100017805583775,
        -0.22732454538345337,
        0.1887589693069458
      ],
      [
        0.30314087867736816,
        -0.45336440205574036,
        -0.0630490705370903,
        -0.6447156667709351
      ],
      [
        0.44964560866355896,
        -0.48973506689071655,
        0.07692401111125946,
        -0.15899084508419037
      ],
      [
        -0.2225237339735031,
        0.15518420934677124,
        -0.2409142702817917,
        0.07835980504751205
      ],
      [
        0.06050179526209831,
        -0.37800920009613037,
        0.07018351554870605,
        0.18978264927864075
      ],
      [
        0.16753752529621124,
        0.09740162640810013,
        -0.1403367966413498,
        -0.09304668009281158
      ],
      [
        0.16010521352291107,
        -0.9477515816688538,
        0.1998085230588913,
        0.34028923511505127
      ],
      [
        -0.4400855004787445,
        -0.025723516941070557,
        0.02806723117828369,
        0.028272021561861038
      ]
    ],
    "fc1.bias": [
      -0.029999900609254837,
      0.342841774225235,
      -0.4141921401023865,
      0.026686348021030426,
      0.4095664620399475,
      0.42212334275245667,
      0.25361987948417664,
      0.0037344794254750013,
      0.35155537724494934,
      -0.2690412104129791,
      -0.9092092514038086,
      -0.3542625308036804,
      0.6079707145690918,
      0.3135024309158325,
      -0.35161924362182617,
      0.15788303315639496,
      0.3543158173561096,
      0.3077324330806732,
      0.43312278389930725,
      0.4017031490802765,
      -0.04095752537250519,
      -0.2514268755912781,
      0.40929552912712097,
      0.23874038457870483,
      -0.5484639406204224,
      0.37370818853378296,
      0.5173777341842651,
      0.4412660598754883,
      -0.17974506318569183,
      0.6412736177444458,
      -0.15853558480739594,
      0.4005659818649292,
      -0.11539829522371292,
      0.016665194183588028,
      0.05585876852273941,
      0.1953865885734558,
      -0.23586711287498474,
      0.22390343248844147,
      -0.6176387071609497,
      0.14369720220565796,
      -0.3563845753669739,
      -0.514167308807373,
      -0.44674497842788696,
      0.4213838577270508,
      0.1197366714477539,
      0.46662575006484985,
      0.38028547167778015,
      -0.6159021258354187,
      -0.3329240381717682,
      -0.04049932211637497,
      -0.3123222589492798,
      0.1166609674692154,
      -0.6897425651550293,
      -0.24850615859031677,
      -0.47631117701530457,
      -0.7402157187461853,
      0.37519463896751404,
      0.6152037382125854,
      0.3423847258090973,
      0.3093644678592682,
      0.3637411296367645,
      -0.1434108316898346,
      0.10029321908950806,
      0.38180842995643616,
      0.082123301923275,
      0.49701082706451416,
      0.33904144167900085,
      0.24295523762702942,
      -0.11624600738286972,
      0.19666461646556854,
      0.06530190259218216,
      -0.18958868086338043,
      -0.25540342926979065,
      -0.38572609424591064,
      -0.3409274220466614,
      0.61272794008255,
      0.33758434653282166,
      -0.21301697194576263,
      -0.59344482421875,
      0.7676728963851929
    ],
    "fc2.weight": [
      [
        0.007039012387394905,
        -0.013465042226016521,
        -8.716076448100362e-43,
        -0.009592045098543167,
        -0.005806807894259691,
        0.0008586007170379162,
        0.011868148110806942,
        -0.003309893421828747,
        -0.005620464216917753,
        0.028117140755057335,
        -0.07404669374227524,
        -0.011087699793279171,
        0.0033705534879118204,
        0.00869556050747633,
        0.0028624827973544598,
        -0.0010247679892927408,
        0.005074255168437958,
        -0.023606687784194946,
        0.013732468709349632,
        0.0035864070523530245,
        -0.03434497117996216,
        -0.02817291021347046,
        0.006876782048493624,
        0.011018750257790089,
        0.030914949253201485,
        -0.017189187929034233,
        -0.016710402444005013,
        -0.0233532153069973,
        -0.046855319291353226,
        0.05609210580587387,
        -0.016717340797185898,
        -0.02143288403749466,
        -0.0011345334351062775,
        -0.0019530495628714561,
        0.0009250249131582677,
        0.010512075386941433,
        -0.031098563224077225,
        0.0015426580794155598,
        0.01680617220699787,
        -0.006485833786427975,
        0.002201089868322015,
        2.0780027004674295e-12,
        -0.01301108580082655,
        0.01431199163198471,
        -0.013114893808960915,
        0.01017894595861435,
        0.0022905697114765644,
        0.016175132244825363,
        -2.4929099680338496e-42,
        -0.003542813938111067,
        0.005188946146517992,
        0.01471218653023243,
        0.06895115226507187,
        0.0033593063708394766,
        -0.007956599816679955,
        0.0261254720389843,
        -0.010097585618495941,
        0.024015329778194427,
        0.0027856933884322643,
        0.023562325164675713,
        -0.011054176837205887,
        -0.008752965368330479,
        0.0032718079164624214,
        0.003379588481038809,
        0.008990718983113766,
        -0.026410933583974838,
        0.011366007849574089,
        -0.017528148368000984,
        -0.008131110109388828,
        -0.0029091378673911095,
        0.00782274454832077,
        0.019159840419888496,
        0.001106048352085054,
        -0.02730734460055828,
        0.0401647686958313,
        -0.022224459797143936,
        0.002541854279115796,
        0.015320830047130585,
        -0.04066641628742218,
        0.06714804470539093
      ]
    ],
    "fc2.bias": [
      -0.06695444881916046
    ]
  },
  "example": "ex1",
  "method": "NCC",
  "certificate_type": "neural_closure_certificate",
  "backend": {
    "train": "pytorch",
    "certify": "lipschitz_bound"
  },
  "automaton": {
    "states": [
      0,
      1
    ],
    "initial_state": 1,
    "accepting_states": [
      0
    ]
  },
  "seed": 0,
  "elapsed_sec": 58.03138709068298
}