{
  "arch": "6-80-1",
  "xi": 0.1,
  "xi_effective": 0.1,
  "transition_guard": "paper: x in X only",
  "num_grid_points": 841,
  "num_transition_grid_points": 841,
  "eta": 0.05,
  "eta_train": 0.05,
  "eta_cert": 0.047,
  "lambda1": 0.1,
  "lambda2": 0.1,
  "lip_reg": 0.05,
  "g2_weight": 20.0,
  "L_T": 0.29235786984721734,
  "L_f": 1.00012,
  "L1": 0.5847508226388163,
  "L2": 1.1695016452776326,
  "L3": 0.6431873136638782,
  "L": 1.1695016452776326,
  "max_lprime_sampled": 0.08926046800613403,
  "max_lprime_grid": 0.08926046800613403,
  "max_lprime_grid_train_eta": 0.0922604650259018,
  "min_g1_grid": 0.015932053327560425,
  "min_g2_grid": -0.04226046800613403,
  "min_g3_grid": 0.0010587461292743683,
  "certification_sample_check": "exhaustive_grid",
  "theorem_margin": 0.01147508226388163,
  "certified": false,
  "state_dict": {
    "fc1.weight": [
      [
        -0.07439202815294266,
        0.1094358041882515,
        -0.33000150322914124,
        0.0028001265600323677,
        0.02877499721944332,
        0.11837131530046463
      ],
      [
        0.04400741308927536,
        0.33586257696151733,
        -0.5193532109260559,
        0.1232638880610466,
        -0.2199936956167221,
        -0.07794016599655151
      ],
      [
        -0.004621025640517473,
        0.004472480155527592,
        -0.16828937828540802,
        0.015467964112758636,
        -0.015912318602204323,
        0.2449582815170288
      ],
      [
        -0.07376327365636826,
        0.01506860088557005,
        0.14783671498298645,
        0.3008155822753906,
        -0.0913248360157013,
        0.3528602123260498
      ],
      [
        -0.19518983364105225,
        0.17175835371017456,
        0.6602914333343506,
        -0.18679119646549225,
        -0.015934698283672333,
        1.2637768983840942
      ],
      [
        -0.2009844183921814,
        0.27446410059928894,
        -0.2845630347728729,
        -0.07038521021604538,
        -0.12549974024295807,
        -0.39133167266845703
      ],
      [
        -0.2042706459760666,
        0.2511744797229767,
        0.20024925470352173,
        0.1175597682595253,
        -0.06393780559301376,
        -0.36792826652526855
      ],
      [
        0.2722186744213104,
        0.050514113157987595,
        -0.4101389944553375,
        -0.21809829771518707,
        0.10340378433465958,
        0.1986323893070221
      ],
      [
        -0.1251685470342636,
        0.038881659507751465,
        0.24084055423736572,
        0.19833198189735413,
        0.06279168277978897,
        0.4211086630821228
      ],
      [
        0.0025930420961230993,
        -0.003048060927540064,
        0.08595076948404312,
        0.00017629035573918372,
        -0.001016393769532442,
        -0.2108943611383438
      ],
      [
        0.12374287843704224,
        0.12414565682411194,
        -0.798140823841095,
        0.24474696815013885,
        0.32730937004089355,
        0.1527123600244522
      ],
      [
        -0.0046056113205850124,
        0.0723535418510437,
        0.24480679631233215,
        0.25322088599205017,
        -0.18419668078422546,
        -0.017762441188097
      ],
      [
        0.07486078143119812,
        0.19459274411201477,
        0.3809272348880768,
        0.18864944577217102,
        -0.00428791344165802,
        -0.7998436689376831
      ],
      [
        0.13495703041553497,
        -0.06530849635601044,
        -0.49918580055236816,
        0.17784923315048218,
        0.1420077532529831,
        -0.43006134033203125
      ],
      [
        0.04183000698685646,
        -0.04025128483772278,
        0.008532032370567322,
        -0.07399655878543854,
        0.05673350393772125,
        -0.4975419044494629
      ],
      [
        0.07978300005197525,
        0.1218683049082756,
        0.6430655121803284,
        0.19586260616779327,
        -0.30418744683265686,
        -0.26933345198631287
      ],
      [
        0.2253117561340332,
        0.05489193648099899,
        -0.8305676579475403,
        -0.21365071833133698,
        0.2847645878791809,
        0.274099737405777
      ],
      [
        -0.0013534362660720944,
        0.0013825290370732546,
        -0.38889655470848083,
        0.0066903457045555115,
        -0.006765596102923155,
        -0.3149050772190094
      ],
      [
        -0.03570497781038284,
        0.045312825590372086,
        -0.1940016746520996,
        0.17537838220596313,
        -0.10415912419557571,
        0.5335838198661804
      ],
      [
        0.2613825500011444,
        -0.3344402611255646,
        -0.34387311339378357,
        -0.01796742156147957,
        0.04303230717778206,
        0.38222697377204895
      ],
      [
        0.049284785985946655,
        -0.010297559201717377,
        -0.3299299478530884,
        0.21925394237041473,
        -0.18852147459983826,
        -0.2328924536705017
      ],
      [
        0.39373812079429626,
        0.3571876585483551,
        -0.6962779760360718,
        -0.188042551279068,
        -0.17991627752780914,
        0.081850565969944
      ],
      [
        -0.09081234037876129,
        -0.02630128711462021,
        0.3315802812576294,
        -0.030018894001841545,
        -0.0313364714384079,
        -0.11599744856357574
      ],
      [
        0.016957443207502365,
        0.15061849355697632,
        0.3642634153366089,
        0.02194027788937092,
        0.163506418466568,
        0.37640178203582764
      ],
      [
        -0.21110151708126068,
        -0.15741479396820068,
        0.8742616176605225,
        0.09816769510507584,
        -0.0089191859588027,
        -0.8157045245170593
      ],
      [
        -0.19006288051605225,
        -0.22116144001483917,
        0.6198642253875732,
        0.07853689789772034,
        0.11127516627311707,
        -0.659212052822113
      ],
      [
        0.6054425835609436,
        0.47817879915237427,
        -0.9744622707366943,
        -0.3225926160812378,
        -0.19159811735153198,
        -0.025284988805651665
      ],
      [
        0.214478000998497,
        0.20484033226966858,
        -0.8585682511329651,
        0.055477410554885864,
        -0.12367119640111923,
        0.15487322211265564
      ],
      [
        -0.09538078308105469,
        0.1025579422712326,
        0.3735716640949249,
        -0.190353125333786,
        0.315722793340683,
        0.17850692570209503
      ],
      [
        -0.27292630076408386,
        0.24384717643260956,
        -0.2064090222120285,
        -0.22041495144367218,
        0.260814368724823,
        -0.26272451877593994
      ],
      [
        0.047730714082717896,
        -0.059267137199640274,
        0.33517810702323914,
        -0.0925813540816307,
        0.0856262743473053,
        -0.033035293221473694
      ],
      [
        -0.03978816792368889,
        -0.03596850484609604,
        -0.33743780851364136,
        -0.013791601173579693,
        0.11881175637245178,
        0.24103178083896637
      ],
      [
        -0.00029565850854851305,
        0.0003041956224478781,
        -0.28778815269470215,
        0.0013565877452492714,
        -0.0013564880937337875,
        0.13951683044433594
      ],
      [
        -0.05373084917664528,
        0.04534760117530823,
        -0.03369613736867905,
        0.21623386442661285,
        -0.21965721249580383,
        -0.2702677249908447
      ],
      [
        -0.2062532603740692,
        0.25469085574150085,
        -0.14879095554351807,
        0.14646875858306885,
        0.010115099139511585,
        0.41887354850769043
      ],
      [
        -0.03361353650689125,
        -0.05930589511990547,
        0.2831380367279053,
        -0.09142522513866425,
        -0.09910868108272552,
        0.31370627880096436
      ],
      [
        -0.22049590945243835,
        0.20464403927326202,
        0.7632237672805786,
        -0.19105298817157745,
        -0.017717355862259865,
        1.6155472993850708
      ],
      [
        0.10355431586503983,
        -0.019286006689071655,
        -0.42886507511138916,
        0.17742086946964264,
        -0.2519606649875641,
        -0.12450156360864639
      ],
      [
        -0.10441245883703232,
        -0.016489343717694283,
        -0.010440122336149216,
        0.19654183089733124,
        0.010666909627616405,
        0.695610761642456
      ],
      [
        -0.03185371682047844,
        -0.05494632199406624,
        0.3959317207336426,
        -0.07531511038541794,
        -0.1235736757516861,
        1.0031228065490723
      ],
      [
        0.11112834513187408,
        0.2522304356098175,
        -0.08476448804140091,
        0.005326811224222183,
        0.16201817989349365,
        -0.5681235194206238
      ],
      [
        0.15408994257450104,
        -0.12494325637817383,
        -0.775741696357727,
        0.27735549211502075,
        0.06872033327817917,
        0.049228768795728683
      ],
      [
        0.271302729845047,
        -0.1200404241681099,
        -0.460284024477005,
        -0.02179110422730446,
        -0.1190837025642395,
        0.19265803694725037
      ],
      [
        0.031942710280418396,
        0.037554044276475906,
        -0.6718145608901978,
        0.1957571655511856,
        0.21325422823429108,
        0.39097872376441956
      ],
      [
        0.15138719975948334,
        -0.09561564773321152,
        -0.14178770780563354,
        0.008573397062718868,
        0.20549623668193817,
        0.45683255791664124
      ],
      [
        -0.0014041418908163905,
        0.001449274248443544,
        -0.3859861195087433,
        0.007042876910418272,
        -0.007121320813894272,
        -0.3639843165874481
      ],
      [
        0.3098946213722229,
        -0.2518930733203888,
        -0.06575825065374374,
        -0.010455033741891384,
        0.039223674684762955,
        -0.2719852328300476
      ],
      [
        -0.288729190826416,
        0.29453912377357483,
        -0.022910458967089653,
        0.36296936869621277,
        -0.3545653820037842,
        -0.023501696065068245
      ],
      [
        -0.027642354369163513,
        0.040541525930166245,
        -0.31500887870788574,
        0.0641021728515625,
        0.07397010922431946,
        -0.006357075646519661
      ],
      [
        -0.056710727512836456,
        0.17043088376522064,
        0.1783648282289505,
        0.010911948047578335,
        0.15646910667419434,
        -0.16781003773212433
      ],
      [
        -0.2150411158800125,
        0.06576402485370636,
        -0.3727577030658722,
        -0.08643247187137604,
        -0.0056413933634757996,
        -0.3134903013706207
      ],
      [
        0.12849630415439606,
        0.24223817884922028,
        -0.2622762620449066,
        -0.07517777383327484,
        -0.20242604613304138,
        -0.05435663089156151
      ],
      [
        0.13571083545684814,
        -0.11421900242567062,
        0.17950311303138733,
        0.1800038069486618,
        -0.13484205305576324,
        0.014102735556662083
      ],
      [
        0.09989050775766373,
        -0.017510386183857918,
        0.06483370810747147,
        0.13053831458091736,
        -0.08385021984577179,
        0.040240734815597534
      ],
      [
        0.1388622224330902,
        0.21007616817951202,
        0.24761299788951874,
        0.10331857204437256,
        0.24628989398479462,
        0.17638078331947327
      ],
      [
        0.004764195531606674,
        -0.058537475764751434,
        0.4906271696090698,
        0.15806064009666443,
        -0.303530752658844,
        0.28833135962486267
      ],
      [
        0.1733497530221939,
        0.2695789039134979,
        0.333755224943161,
        0.36652734875679016,
        0.07088908553123474,
        0.22482731938362122
      ],
      [
        0.13473708927631378,
        0.10307321697473526,
        -1.1181527376174927,
        0.3172094225883484,
        0.4055945575237274,
        1.3967783451080322
      ],
      [
        -0.10703979432582855,
        0.17350411415100098,
        -0.28606927394866943,
        0.2554125487804413,
        -0.05497465655207634,
        0.23017007112503052
      ],
      [
        0.16026483476161957,
        0.2513717710971832,
        -0.4059588313102722,
        -0.0372927188873291,
        -0.17338012158870697,
        0.11603237688541412
      ],
      [
        -0.0781465545296669,
        -0.0013566657435148954,
        0.1563621312379837,
        0.10612712055444717,
        0.00046722256229259074,
        0.27631640434265137
      ],
      [
        0.09785698354244232,
        -0.1240929514169693,
        -0.31732258200645447,
        0.011717872694134712,
        -0.06904014945030212,
        0.2906526029109955
      ],
      [
        0.1456213742494583,
        0.029046587646007538,
        -0.5289495587348938,
        -0.17033657431602478,
        0.19470612704753876,
        0.33270809054374695
      ],
      [
        0.2488841414451599,
        0.24879318475723267,
        0.38521474599838257,
        -0.0646563321352005,
        0.1697089523077011,
        -0.05407651513814926
      ],
      [
        0.02477234974503517,
        0.2272566705942154,
        0.2356848120689392,
        0.23760101199150085,
        -0.0718783587217331,
        -0.2741711437702179
      ],
      [
        0.3645220398902893,
        0.35434550046920776,
        -0.674989640712738,
        -0.15859153866767883,
        -0.19352777302265167,
        0.1964820921421051
      ],
      [
        0.24169859290122986,
        -0.03878682479262352,
        -0.8817762136459351,
        0.2837841510772705,
        0.3687416613101959,
        0.18456704914569855
      ],
      [
        -0.18314631283283234,
        0.22466641664505005,
        0.024373671039938927,
        -0.13678057491779327,
        0.20248961448669434,
        0.5113304257392883
      ],
      [
        -0.13375690579414368,
        0.21700416505336761,
        -0.15592138469219208,
        -0.09584973752498627,
        0.23345990478992462,
        0.025746718049049377
      ],
      [
        -0.13651514053344727,
        -0.20148132741451263,
        1.0054824352264404,
        -0.2848993241786957,
        -0.40444502234458923,
        1.2922555208206177
      ],
      [
        0.09653471410274506,
        -0.011232351884245872,
        -0.11212489753961563,
        0.1165338009595871,
        0.15523377060890198,
        -0.32967257499694824
      ],
      [
        -0.061618078500032425,
        0.1418880671262741,
        -0.20482619106769562,
        0.16789980232715607,
        -0.1609683483839035,
        0.13143324851989746
      ],
      [
        0.22506070137023926,
        -0.04462972283363342,
        -0.2685476839542389,
        -0.03342742845416069,
        0.16825877130031586,
        -0.26877278089523315
      ],
      [
        0.009336733259260654,
        -0.0096410121768713,
        -0.392446368932724,
        -0.04125852510333061,
        0.04088412970304489,
        0.27451956272125244
      ],
      [
        -0.36194291710853577,
        0.39139190316200256,
        -1.171920895576477,
        0.12438684701919556,
        0.41659656167030334,
        -0.35171374678611755
      ],
      [
        0.17283301055431366,
        0.05499153584241867,
        0.42966464161872864,
        0.22879314422607422,
        -0.0986168384552002,
        -0.2199573516845703
      ],
      [
        -0.03434602543711662,
        0.1127726286649704,
        -0.3190616965293884,
        0.052640896290540695,
        -0.03536621108651161,
        -0.14963331818580627
      ],
      [
        0.06455494463443756,
        -0.1034960150718689,
        0.21103768050670624,
        0.10375883430242538,
        -0.01197943463921547,
        -0.30640262365341187
      ],
      [
        0.02464711107313633,
        0.10657327622175217,
        0.1693841964006424,
        0.26787668466567993,
        0.10299614071846008,
        -0.07217662036418915
      ],
      [
        0.29934483766555786,
        -0.26969626545906067,
        -1.5120601654052734,
        0.4788861870765686,
        0.12882909178733826,
        0.2678166329860687
      ]
    ],
    "fc1.bias": [
      -0.2768085300922394,
      0.09767096489667892,
      -0.3419332504272461,
      0.25133734941482544,
      -0.10571970790624619,
      0.30958592891693115,
      0.3323773443698883,
      0.1609533727169037,
      0.035778407007455826,
      -0.12067882716655731,
      -0.6656981110572815,
      0.06267284601926804,
      0.33385753631591797,
      -0.32996073365211487,
      0.5189475417137146,
      -0.10073290020227432,
      -0.17035500705242157,
      -0.22088594734668732,
      0.35872477293014526,
      0.3252324163913727,
      -0.3138522207736969,
      0.549382209777832,
      0.15639299154281616,
      0.1465616524219513,
      -0.26721158623695374,
      -0.44540056586265564,
      0.7587882876396179,
      0.07494650781154633,
      -0.07706137746572495,
      0.13276000320911407,
      0.012491731904447079,
      0.2943638265132904,
      -0.08433603495359421,
      -0.16436763107776642,
      0.137089341878891,
      0.21332985162734985,
      -0.19327925145626068,
      -0.002035292563959956,
      0.2250053882598877,
      0.12309382110834122,
      0.30328184366226196,
      -0.12747912108898163,
      0.2376474142074585,
      -0.3553121089935303,
      -0.08012983947992325,
      -0.15009020268917084,
      0.31516265869140625,
      -0.02293245680630207,
      -0.03658662736415863,
      -0.661710798740387,
      0.6657818555831909,
      0.46532052755355835,
      -0.3642350137233734,
      -0.32656195759773254,
      -0.3162629306316376,
      0.004421412944793701,
      -0.2007984071969986,
      -0.7172232866287231,
      -0.16848184168338776,
      0.3240126371383667,
      -0.3448456823825836,
      0.10456443578004837,
      -0.04974520206451416,
      -0.04034044221043587,
      0.19138507544994354,
      0.5268770456314087,
      -0.7739594578742981,
      0.09754510968923569,
      -0.05454029142856598,
      0.7902055382728577,
      -0.394122838973999,
      -0.022223779931664467,
      0.3537445664405823,
      -0.250440388917923,
      -0.2330358326435089,
      0.11556266993284225,
      -0.044872403144836426,
      -0.14357297122478485,
      0.2560632526874542,
      -0.06641668826341629
    ],
    "fc2.weight": [
      [
        -0.00013730014325119555,
        -0.028104247525334358,
        1.4993893568275543e-42,
        0.006751496810466051,
        0.018326610326766968,
        -0.007809358648955822,
        0.0006259284564293921,
        -0.024706467986106873,
        0.007792725693434477,
        5.1287523794288305e-43,
        0.030375711619853973,
        -0.00010155304335057735,
        -0.002252645790576935,
        0.016962537541985512,
        -0.0021475781686604023,
        0.001836261828429997,
        -0.01755811646580696,
        -3.7414668997472616e-43,
        0.004402664955705404,
        0.015890873968601227,
        -0.002164557809010148,
        -0.06252198666334152,
        -0.00711858831346035,
        0.0021797821391373873,
        -0.02483590878546238,
        -0.028592582792043686,
        -0.08932063728570938,
        -0.02959272265434265,
        -0.003750571748241782,
        0.010487222112715244,
        -0.004112422466278076,
        0.006028242874890566,
        -1.2135244701052916e-42,
        -0.002602212131023407,
        0.005509692244231701,
        0.007640632800757885,
        0.021232454106211662,
        -0.006337041035294533,
        0.008584745228290558,
        0.010592973791062832,
        -0.0023794386070221663,
        0.02469753846526146,
        -0.011168320663273335,
        0.02349703013896942,
        0.006591684650629759,
        3.5032461608120427e-43,
        0.0005662922631017864,
        -0.010257155634462833,
        0.008999357931315899,
        0.013755680061876774,
        0.014916641637682915,
        -0.028743170201778412,
        0.0067116450518369675,
        0.005557039752602577,
        0.003167897230014205,
        0.00606475118547678,
        0.00506711658090353,
        0.04103587940335274,
        0.007123150397092104,
        -0.03437264263629913,
        -0.0034719821996986866,
        -0.0027513415552675724,
        -0.010879459790885448,
        -0.007000430021435022,
        -0.00043408069177530706,
        -0.05988619476556778,
        0.03299703449010849,
        0.0047072977758944035,
        0.0036318751517683268,
        0.027846133336424828,
        0.005685809068381786,
        -0.008573832921683788,
        -0.00013654655776917934,
        -3.642675358012362e-41,
        0.04631727933883667,
        -0.0022077076137065887,
        -0.005030632019042969,
        -0.002997629577293992,
        0.006487078964710236,
        0.046241048723459244
      ]
    ],
    "fc2.bias": [
      -0.17705750465393066
    ]
  },
  "example": "ex2",
  "method": "NCC",
  "certificate_type": "neural_closure_certificate",
  "backend": {
    "train": "pytorch",
    "certify": "lipschitz_bound"
  },
  "automaton": {
    "states": [
      0,
      1
    ],
    "initial_state": 1,
    "accepting_states": [
      0
    ]
  },
  "seed": 0,
  "elapsed_sec": 117.352952003479
}