{
  "arch": "6-80-1",
  "xi": 0.1,
  "xi_effective": 0.1,
  "transition_guard": "paper: x in X only",
  "num_grid_points": 841,
  "num_transition_grid_points": 841,
  "eta": 0.05,
  "eta_train": 0.05,
  "eta_cert": 0.047,
  "lambda1": 0.1,
  "lambda2": 0.1,
  "lip_reg": 0.05,
  "L_T": 0.24102911068571586,
  "L_f": 1.00012,
  "L1": 0.482087144864714,
  "L2": 0.964174289729428,
  "L3": 0.5302640435085749,
  "L": 0.964174289729428,
  "max_lprime_sampled": 0.1628057153224945,
  "max_lprime_grid": 0.1628057153224945,
  "max_lprime_grid_train_eta": 0.16580571234226227,
  "min_g1_grid": 0.012540042400360107,
  "min_g2_grid": -0.1158057153224945,
  "min_g3_grid": 0.01100392360240221,
  "certification_sample_check": "exhaustive_grid",
  "theorem_margin": 0.0012087144864714044,
  "certified": false,
  "state_dict": {
    "fc1.weight": [
      [
        -0.005307616200298071,
        0.005893021821975708,
        -0.3295430839061737,
        0.010428661480545998,
        -0.009876629337668419,
        0.12227103114128113
      ],
      [
        0.1317233294248581,
        0.29162269830703735,
        -0.5562803149223328,
        0.04044189676642418,
        -0.1968453973531723,
        -0.07656008005142212
      ],
      [
        -0.001166146364994347,
        0.0012735654599964619,
        -0.16828937828540802,
        0.002261680318042636,
        -0.0021703371312469244,
        0.24096138775348663
      ],
      [
        -0.03368949517607689,
        0.04552941396832466,
        0.08719931542873383,
        0.11094467341899872,
        -0.09305825084447861,
        0.4136642813682556
      ],
      [
        -0.13176329433918,
        0.16916510462760925,
        0.5284700989723206,
        -0.08941276371479034,
        -0.004207616206258535,
        -0.10335427522659302
      ],
      [
        -0.083572156727314,
        0.11642814427614212,
        -0.42487967014312744,
        0.08383912593126297,
        -0.08688335120677948,
        -0.3945842683315277
      ],
      [
        -0.02272135205566883,
        0.025726713240146637,
        0.3144526481628418,
        0.045971792191267014,
        -0.04135144501924515,
        -0.41035541892051697
      ],
      [
        0.18001656234264374,
        0.046127330511808395,
        -0.37630751729011536,
        -0.13367752730846405,
        0.07777802646160126,
        0.17038217186927795
      ],
      [
        -0.022659488022327423,
        0.0679280087351799,
        0.13168253004550934,
        0.14675983786582947,
        -0.03667466342449188,
        0.26376983523368835
      ],
      [
        0.0032661426812410355,
        -0.0036042288411408663,
        0.09025687724351883,
        -0.006704264786094427,
        0.0064025032334029675,
        -0.2108943611383438
      ],
      [
        0.06412599235773087,
        0.06347130984067917,
        -0.6090323328971863,
        0.16052313148975372,
        0.1998528242111206,
        0.0473441444337368
      ],
      [
        -0.058512505143880844,
        0.07400619983673096,
        0.21749518811702728,
        0.1751451939344406,
        -0.1552364081144333,
        -0.022590521723031998
      ],
      [
        -0.023459255695343018,
        0.03881993889808655,
        0.5104407668113708,
        0.09038686752319336,
        -0.06014617905020714,
        -0.6015957593917847
      ],
      [
        0.06024783477187157,
        0.04823040962219238,
        -0.48961934447288513,
        0.14191438257694244,
        0.16178463399410248,
        -0.4677257239818573
      ],
      [
        0.020427469164133072,
        -0.024403220042586327,
        0.15064330399036407,
        -0.05021030455827713,
        0.044853899627923965,
        -0.5929137468338013
      ],
      [
        -0.03847260773181915,
        0.02423587441444397,
        0.3629423677921295,
        0.1365678608417511,
        -0.1305912435054779,
        -0.2761000990867615
      ],
      [
        0.20846505463123322,
        -0.009802478365600109,
        -0.6085899472236633,
        -0.21223220229148865,
        0.2584231495857239,
        0.26790833473205566
      ],
      [
        -0.00041709502693265676,
        0.0004765088378917426,
        -0.38889655470848083,
        0.0009306606953032315,
        -0.0008773535373620689,
        -0.3149050772190094
      ],
      [
        0.02440839819610119,
        -0.06150710955262184,
        -0.33246758580207825,
        0.1121905967593193,
        -0.12089470028877258,
        0.6164657473564148
      ],
      [
        0.19415728747844696,
        -0.24798019230365753,
        -0.4665699601173401,
        -0.01271273847669363,
        0.02188916690647602,
        0.32185059785842896
      ],
      [
        -0.01753975823521614,
        0.08478933572769165,
        -0.3126862943172455,
        0.12347973138093948,
        -0.08485329151153564,
        -0.2243107706308365
      ],
      [
        -0.0510554313659668,
        -0.06037009879946709,
        -0.18323169648647308,
        -0.036341115832328796,
        -0.049108024686574936,
        0.3806154131889343
      ],
      [
        -0.08427932858467102,
        -0.13089630007743835,
        0.6130627989768982,
        -0.029203414916992188,
        -0.019704358652234077,
        -0.2959040701389313
      ],
      [
        0.006580979097634554,
        -0.0018755043856799603,
        0.23615553975105286,
        -0.004731375258415937,
        0.018290366977453232,
        0.19386863708496094
      ],
      [
        -0.19228826463222504,
        -0.19224479794502258,
        1.025782823562622,
        0.009598983451724052,
        -0.04336250573396683,
        -0.9956492781639099
      ],
      [
        -0.09099685400724411,
        -0.11551447212696075,
        0.49015894532203674,
        0.022347355261445045,
        0.0446709580719471,
        -0.6859483122825623
      ],
      [
        0.3558028042316437,
        0.24522638320922852,
        -0.745611310005188,
        -0.22428959608078003,
        -0.038157105445861816,
        0.09158582985401154
      ],
      [
        0.002121413592249155,
        0.0019170165760442615,
        -0.013671881519258022,
        -0.0015293643809854984,
        -0.0012753844494000077,
        0.014329254627227783
      ],
      [
        0.0035498044453561306,
        -0.018383566290140152,
        0.401639848947525,
        -0.1549954116344452,
        0.1791275590658188,
        0.2261912226676941
      ],
      [
        -0.08473537117242813,
        0.066776804625988,
        -0.22859330475330353,
        -0.12494373321533203,
        0.14638036489486694,
        -0.20056800544261932
      ],
      [
        0.01724848710000515,
        -0.03188210353255272,
        0.36021843552589417,
        -0.05224758759140968,
        0.040528979152441025,
        0.05015905946493149
      ],
      [
        0.029284659773111343,
        -0.006028101313859224,
        -0.3006356656551361,
        -0.01364805269986391,
        0.08186639845371246,
        0.2055983543395996
      ],
      [
        -0.00017580087296664715,
        0.00020060471433680505,
        -0.28778815269470215,
        0.0003862937446683645,
        -0.0003571319975890219,
        0.13951683044433594
      ],
      [
        -0.08262639492750168,
        0.10232868045568466,
        -0.039665840566158295,
        0.14507229626178741,
        -0.11095771193504333,
        -0.26861098408699036
      ],
      [
        -0.054003383964300156,
        0.07474889606237411,
        -0.19712771475315094,
        0.12464160472154617,
        -0.07448501139879227,
        0.30675163865089417
      ],
      [
        -0.021567394956946373,
        -0.016471538692712784,
        0.2114015817642212,
        -0.05247187241911888,
        -0.06533948332071304,
        0.3534402847290039
      ],
      [
        -0.14839954674243927,
        0.1952347308397293,
        0.6208107471466064,
        -0.10093260556459427,
        -0.003070469945669174,
        0.814308226108551
      ],
      [
        0.02654865011572838,
        0.01803860254585743,
        -0.43071186542510986,
        0.0950489267706871,
        -0.0824795663356781,
        -0.12852907180786133
      ],
      [
        -0.025692615658044815,
        0.062141381204128265,
        -0.1171417161822319,
        0.14592348039150238,
        -0.05897479131817818,
        0.5592597126960754
      ],
      [
        0.10740391165018082,
        -0.09020945429801941,
        0.5005692839622498,
        -0.004898138344287872,
        -0.12175510078668594,
        1.1780441999435425
      ],
      [
        0.023221828043460846,
        -0.011396749876439571,
        -0.03159615397453308,
        -0.04414273798465729,
        0.08462046086788177,
        -0.5286481976509094
      ],
      [
        0.28159627318382263,
        -0.07669702172279358,
        0.4591163992881775,
        0.23452003300189972,
        0.017251892015337944,
        0.027065664529800415
      ],
      [
        0.36794424057006836,
        0.2945994734764099,
        -0.8037384748458862,
        -0.19390283524990082,
        -0.09653129428625107,
        0.2122047394514084
      ],
      [
        0.07709497213363647,
        0.0549219585955143,
        -0.5553255677223206,
        0.1691095530986786,
        0.18897639214992523,
        0.4813340902328491
      ],
      [
        0.04335048794746399,
        0.009260590188205242,
        -0.18686021864414215,
        0.0386517234146595,
        0.09949880838394165,
        0.1282966434955597
      ],
      [
        -0.00035872237640433013,
        0.00041042763041332364,
        -0.3859861195087433,
        0.0007913498557172716,
        -0.0007432483253069222,
        -0.3639843165874481
      ],
      [
        0.04374825209379196,
        -0.040657639503479004,
        -0.09255477786064148,
        -0.033266581594944,
        0.03302221745252609,
        -0.23232856392860413
      ],
      [
        -0.20726613700389862,
        0.1747434288263321,
        0.08603858947753906,
        0.23937484622001648,
        -0.24631492793560028,
        -0.09687084704637527
      ],
      [
        0.009769265539944172,
        0.02343073859810829,
        -0.25924307107925415,
        0.05911041051149368,
        0.0517524890601635,
        -0.006775797810405493
      ],
      [
        0.001986150396987796,
        -0.0022530443966388702,
        0.23613153398036957,
        -0.004279579035937786,
        0.004063698463141918,
        -0.13727492094039917
      ],
      [
        0.0017719808965921402,
        -0.00327087938785553,
        -0.015971655026078224,
        -0.006553273182362318,
        0.003205380868166685,
        -0.49185270071029663
      ],
      [
        0.04677100479602814,
        0.11178665608167648,
        -0.28658542037010193,
        -0.028441429138183594,
        -0.08284589648246765,
        -0.025075796991586685
      ],
      [
        0.08761496096849442,
        -0.01971004717051983,
        0.13360725343227386,
        0.11945867538452148,
        -0.02208562381565571,
        0.0276993066072464
      ],
      [
        0.15418431162834167,
        -0.037650980055332184,
        0.25581225752830505,
        0.12954041361808777,
        0.010696583427488804,
        0.042929913848638535
      ],
      [
        0.05490511283278465,
        0.039663128554821014,
        0.2961426377296448,
        -0.023626822978258133,
        0.05226832255721092,
        -0.1001644879579544
      ],
      [
        0.009157661348581314,
        -0.014714842662215233,
        0.45639050006866455,
        0.06170836463570595,
        -0.18337103724479675,
        0.43396079540252686
      ],
      [
        -0.027037741616368294,
        0.042101841419935226,
        0.26834654808044434,
        0.09951415657997131,
        -0.07749983668327332,
        -0.017190618440508842
      ],
      [
        0.10753420740365982,
        0.14989249408245087,
        -1.1824523210525513,
        0.3743392825126648,
        0.3405965566635132,
        1.095986008644104
      ],
      [
        -0.040316514670848846,
        0.0935152992606163,
        -0.23336711525917053,
        0.16970190405845642,
        -0.035461943596601486,
        0.2891513705253601
      ],
      [
        0.27749162912368774,
        0.4136483669281006,
        -0.808944821357727,
        -0.054776426404714584,
        -0.2449633777141571,
        0.4097493588924408
      ],
      [
        0.0372808538377285,
        0.05941716954112053,
        0.09948237985372543,
        0.05682184919714928,
        0.049646906554698944,
        0.15372750163078308
      ],
      [
        0.021637562662363052,
        -0.009100865572690964,
        -0.376413494348526,
        -0.02626669593155384,
        0.027876099571585655,
        0.29281553626060486
      ],
      [
        -0.2703305184841156,
        0.31254082918167114,
        -1.289271593093872,
        0.07913745194673538,
        0.42314407229423523,
        1.221753478050232
      ],
      [
        0.05282275751233101,
        -0.03950832784175873,
        0.4597572982311249,
        -0.0790950208902359,
        0.12006372213363647,
        0.21537981927394867
      ],
      [
        -0.04160988703370094,
        0.05287685990333557,
        0.32765403389930725,
        0.10534241050481796,
        -0.08817008137702942,
        0.018039336428046227
      ],
      [
        0.04015686735510826,
        0.03452407941222191,
        -0.10160962492227554,
        -0.03006327897310257,
        -0.02170274220407009,
        0.06063369661569595
      ],
      [
        0.09614335000514984,
        0.045518841594457626,
        -0.5323927998542786,
        0.17090420424938202,
        0.19807103276252747,
        0.21555355191230774
      ],
      [
        0.012049882672727108,
        -0.06770677119493484,
        0.1748824119567871,
        -0.08824101090431213,
        0.06112653762102127,
        0.2500593662261963
      ],
      [
        -0.013471291400492191,
        0.018210474401712418,
        -0.15897798538208008,
        -0.0979519933462143,
        0.16253268718719482,
        -0.0654495507478714
      ],
      [
        -0.1718919724225998,
        -0.19903194904327393,
        -0.6115242838859558,
        -0.1170511320233345,
        -0.1587454080581665,
        1.098427176475525
      ],
      [
        0.06395197659730911,
        0.03648297116160393,
        -0.25783833861351013,
        0.10438740253448486,
        0.14219726622104645,
        -0.3412815034389496
      ],
      [
        -0.0014904747949913144,
        0.0016934059094637632,
        -0.17419366538524628,
        0.003253307892009616,
        -0.003074064152315259,
        0.1517568826675415
      ],
      [
        0.028772806748747826,
        -0.033368706703186035,
        -0.2269669771194458,
        -0.06151454523205757,
        0.05420587211847305,
        -0.39325225353240967
      ],
      [
        0.012323901988565922,
        -0.013949365355074406,
        -0.392446368932724,
        -0.02660868503153324,
        0.025042526423931122,
        0.27451956272125244
      ],
      [
        -0.27314290404319763,
        0.2758466899394989,
        -0.8770936727523804,
        0.06997191160917282,
        0.2571788728237152,
        -0.3524811267852783
      ],
      [
        -0.038996338844299316,
        0.024616146460175514,
        0.4983157515525818,
        0.10369346290826797,
        -0.10885626822710037,
        0.10430247336626053
      ],
      [
        -0.00890588853508234,
        0.0215979665517807,
        -0.3199690282344818,
        0.03362220525741577,
        -0.026577679440379143,
        -0.145231693983078
      ],
      [
        -0.11923136562108994,
        -0.160904198884964,
        0.6028314828872681,
        0.011262319050729275,
        0.04560708627104759,
        -0.5513105988502502
      ],
      [
        -0.0005954050575383008,
        0.0280325748026371,
        0.23423118889331818,
        0.06632736325263977,
        0.005321511998772621,
        -0.1383267045021057
      ],
      [
        0.3565252423286438,
        -0.33286118507385254,
        -1.373206377029419,
        0.43729937076568604,
        0.05039580538868904,
        1.1011133193969727
      ]
    ],
    "fc1.bias": [
      -0.2558407783508301,
      0.2767891585826874,
      -0.33479127287864685,
      0.2521129250526428,
      -0.2683162987232208,
      0.22677507996559143,
      0.30805501341819763,
      0.11261511594057083,
      -0.030238309875130653,
      -0.16171124577522278,
      -0.3235865831375122,
      0.07817163318395615,
      0.2843370735645294,
      -0.2950018048286438,
      0.47022396326065063,
      -0.07368948310613632,
      -0.09436549246311188,
      -0.22088594734668732,
      0.3916357159614563,
      0.4501466155052185,
      -0.07991516590118408,
      0.41459381580352783,
      0.05258585885167122,
      0.1579318642616272,
      -0.06386526674032211,
      -0.33897864818573,
      0.4781515598297119,
      0.014789408072829247,
      -0.0572311170399189,
      0.19138586521148682,
      0.024146124720573425,
      0.2913932204246521,
      -0.05881454050540924,
      -0.12114642560482025,
      0.1116136983036995,
      0.09486851096153259,
      -0.3322601020336151,
      -0.017172103747725487,
      0.18033388257026672,
      -0.15871161222457886,
      0.18586017191410065,
      -1.184873104095459,
      0.5480248928070068,
      -0.3708624243736267,
      -0.17332932353019714,
      -0.17297734320163727,
      0.33614581823349,
      0.010447476990520954,
      -0.02557285875082016,
      -0.24394448101520538,
      0.51156085729599,
      0.34981125593185425,
      -0.4332078993320465,
      -0.6566122770309448,
      -0.3077019453048706,
      -0.06065071001648903,
      -0.12983189523220062,
      -0.6617190837860107,
      -0.13304772973060608,
      0.5437610745429993,
      -0.387465238571167,
      -0.0034418576397001743,
      -0.04529428109526634,
      -0.13922713696956635,
      0.1297043412923813,
      0.13342009484767914,
      -0.4226042628288269,
      0.05576246231794357,
      -0.04418345168232918,
      1.3728400468826294,
      -0.3809558153152466,
      -0.37180954217910767,
      0.43977516889572144,
      -0.24838842451572418,
      0.013190747238695621,
      -0.008552704937756062,
      -0.014856723137199879,
      -0.27536895871162415,
      0.2588707208633423,
      0.05221923440694809
    ],
    "fc2.weight": [
      [
        3.788835467588569e-09,
        -0.05185488238930702,
        1.7193932157265505e-42,
        0.0008861073292791843,
        0.022292228415608406,
        -0.004588011652231216,
        0.0010320113506168127,
        -0.026949530467391014,
        0.0035489369183778763,
        -3.29305139116332e-43,
        0.02667132206261158,
        -0.0004934366443194449,
        0.0025839407462626696,
        0.022266853600740433,
        -0.00028919242322444916,
        -0.0037542760837823153,
        -0.022864675149321556,
        1.9660217454477184e-42,
        0.011052940040826797,
        0.020658284425735474,
        -0.00745265930891037,
        0.013545386493206024,
        -0.022626642137765884,
        0.0010520215146243572,
        -0.040876854211091995,
        -0.02419489249587059,
        -0.07630818337202072,
        -0.0006366593297570944,
        -0.003559910226613283,
        0.01023294311016798,
        -0.001514635980129242,
        0.00048545407480560243,
        1.3130166610723536e-42,
        -0.00411614216864109,
        0.0014734023716300726,
        0.00691347336396575,
        0.025614317506551743,
        -0.004967175889760256,
        0.002135029761120677,
        0.016745585948228836,
        0.0005483875283971429,
        0.03737301751971245,
        -0.08386877924203873,
        0.02614416740834713,
        0.009762942790985107,
        -5.7873626576614945e-43,
        -0.0008820952498354018,
        -0.011201586574316025,
        0.008160297758877277,
        2.6243669708492234e-06,
        -0.0006368039757944643,
        -0.022008325904607773,
        0.01300000213086605,
        0.021014712750911713,
        0.010784292593598366,
        0.008931594900786877,
        0.00038856142782606184,
        0.05267811939120293,
        0.005801227409392595,
        -0.08694618940353394,
        0.014969229698181152,
        -0.0017238890286535025,
        0.056810520589351654,
        0.00038503948599100113,
        0.0016137176426127553,
        -0.010559450834989548,
        0.026522254571318626,
        -0.006204741075634956,
        0.005101225804537535,
        0.044223178178071976,
        0.016857286915183067,
        1.325628347251277e-42,
        -0.0015454827807843685,
        -7.609050661283757e-43,
        0.04201037436723709,
        -0.0028494594153016806,
        -0.0016219463432207704,
        -0.03169543668627739,
        0.0025247761514037848,
        0.061262376606464386
      ]
    ],
    "fc2.bias": [
      -0.188206285238266
    ]
  },
  "example": "ex2",
  "method": "NCC",
  "certificate_type": "neural_closure_certificate",
  "backend": {
    "train": "pytorch",
    "certify": "lipschitz_bound"
  },
  "automaton": {
    "states": [
      0,
      1
    ],
    "initial_state": 1,
    "accepting_states": [
      0
    ]
  },
  "seed": 0,
  "elapsed_sec": 116.6971185207367
}