{
  "arch": "6-80-1",
  "xi": 0.01,
  "xi_effective": 0.01,
  "eta": 0.01,
  "lambda1": 0.1,
  "lambda2": 0.1,
  "L_T": 1.4503081148174317,
  "L_f": 2.2,
  "L1": 4.640985967415782,
  "L2": 9.281971934831564,
  "L3": 3.19067785259835,
  "L": 9.281971934831564,
  "max_lprime_sampled": 0.5335955023765564,
  "theorem_margin": 0.036409859674157816,
  "certified": false,
  "state_dict": {
    "fc1.weight": [
      [
        0.3305892050266266,
        -0.03648928180336952,
        0.275166392326355,
        -0.13671520352363586,
        -0.18032900989055634,
        0.007761809974908829
      ],
      [
        0.06729433685541153,
        0.2192990630865097,
        -0.18851226568222046,
        -0.03313768282532692,
        -0.22123025357723236,
        -0.25993335247039795
      ],
      [
        0.1572575569152832,
        0.20395445823669434,
        -0.07446808367967606,
        0.06321725994348526,
        0.33749261498451233,
        -0.15302591025829315
      ],
      [
        -0.25026899576187134,
        -0.2871812582015991,
        -0.37148451805114746,
        0.21458134055137634,
        -0.07586248964071274,
        0.24104878306388855
      ],
      [
        0.1325223445892334,
        -0.3134927749633789,
        -0.3928956091403961,
        0.21955198049545288,
        -0.0059689972549676895,
        -0.06838009506464005
      ],
      [
        -0.3771124482154846,
        -0.34948983788490295,
        -0.14813151955604553,
        0.121187724173069,
        -0.0627347081899643,
        0.041616056114435196
      ],
      [
        -0.3595450222492218,
        0.2783869802951813,
        -0.22064833343029022,
        0.2822398543357849,
        -0.3899141550064087,
        0.02647928148508072
      ],
      [
        0.2760164141654968,
        -0.401465505361557,
        -0.31874388456344604,
        -0.11861059814691544,
        0.24725401401519775,
        -0.35554397106170654
      ],
      [
        -0.4067094624042511,
        0.28411558270454407,
        -0.12681791186332703,
        -0.07726133614778519,
        -0.05955570563673973,
        0.02576960064470768
      ],
      [
        -0.38671639561653137,
        -0.3751479983329773,
        0.0006377224926836789,
        -0.1256626546382904,
        -0.378994882106781,
        0.08644405007362366
      ],
      [
        0.0553811751306057,
        0.11659904569387436,
        0.17679767310619354,
        -0.20987460017204285,
        -0.002043633721768856,
        -0.3305758237838745
      ],
      [
        -0.13217778503894806,
        -0.1733648031949997,
        -0.33640995621681213,
        0.3219493329524994,
        -0.20374716818332672,
        0.28706276416778564
      ],
      [
        0.3307093679904938,
        0.1979316622018814,
        -0.3245396316051483,
        0.36077383160591125,
        -0.3207010328769684,
        -0.14319075644016266
      ],
      [
        -0.3227696716785431,
        -0.28326842188835144,
        0.3992782235145569,
        -0.18166935443878174,
        -0.15176329016685486,
        -0.1522396057844162
      ],
      [
        -0.29044368863105774,
        0.32978886365890503,
        0.06273972243070602,
        -0.2278740406036377,
        -0.021324843168258667,
        0.3192274570465088
      ],
      [
        -0.212640181183815,
        -0.2886625826358795,
        0.3812621831893921,
        0.010139369405806065,
        -0.045095719397068024,
        0.0029370621778070927
      ],
      [
        0.03034110553562641,
        -0.3887088894844055,
        0.16942079365253448,
        0.059663016349077225,
        -0.34840384125709534,
        -0.1788485050201416
      ],
      [
        -0.3500840961933136,
        -0.24187488853931427,
        -0.27007946372032166,
        -0.14702746272087097,
        -0.07571376860141754,
        0.0901447981595993
      ],
      [
        -0.3544931411743164,
        -0.14681941270828247,
        -0.1042632907629013,
        0.07447698712348938,
        -0.07337547093629837,
        0.34993991255760193
      ],
      [
        0.2491902858018875,
        -0.20051796734333038,
        0.1422877162694931,
        0.023940889164805412,
        -0.1982906460762024,
        0.1868281364440918
      ],
      [
        0.38849663734436035,
        0.2035873532295227,
        -0.13901200890541077,
        0.1597897857427597,
        -0.23794065415859222,
        -0.3239130675792694
      ],
      [
        0.2551213502883911,
        0.06533670425415039,
        -0.2301826924085617,
        -0.36803412437438965,
        -0.3606240451335907,
        -0.25009623169898987
      ],
      [
        0.08911335468292236,
        -0.29148852825164795,
        0.031557731330394745,
        0.12956877052783966,
        0.051248397678136826,
        0.3603288233280182
      ],
      [
        0.19679301977157593,
        -0.08732259273529053,
        0.09968694299459457,
        0.10572174191474915,
        -0.05611001327633858,
        0.13789533078670502
      ],
      [
        0.198455810546875,
        0.2762902081012726,
        -0.2685708999633789,
        -0.2623123824596405,
        -0.12719590961933136,
        0.23835518956184387
      ],
      [
        0.02811322547495365,
        -0.39608514308929443,
        -0.11968599259853363,
        0.242495596408844,
        -0.3099049925804138,
        -0.03206847235560417
      ],
      [
        0.05739917233586311,
        -0.1291460245847702,
        -0.27997690439224243,
        -0.3074229955673218,
        -0.048494212329387665,
        -0.30022865533828735
      ],
      [
        -0.17217324674129486,
        0.28681957721710205,
        0.08209887146949768,
        0.06038535758852959,
        -0.20939035713672638,
        0.1705748289823532
      ],
      [
        -0.06450599431991577,
        -0.2735486626625061,
        -0.32721561193466187,
        0.11473925411701202,
        -0.23942376673221588,
        -0.30603113770484924
      ],
      [
        0.11012978851795197,
        0.37525317072868347,
        -0.29787102341651917,
        0.3782949149608612,
        0.281819224357605,
        -0.30522215366363525
      ],
      [
        -0.3439987897872925,
        0.3532583713531494,
        0.012053927406668663,
        -0.24473315477371216,
        -0.14791537821292877,
        -0.010360432788729668
      ],
      [
        0.048906274139881134,
        0.2117624282836914,
        0.3705165684223175,
        0.08680351078510284,
        -0.09436208754777908,
        -0.04662228375673294
      ],
      [
        -0.29240602254867554,
        0.13538748025894165,
        0.064334936439991,
        -0.08455855399370193,
        -0.407399445772171,
        -0.04972880706191063
      ],
      [
        0.1096392273902893,
        -0.3560774028301239,
        -0.002946260152384639,
        -0.18685871362686157,
        -0.02944202907383442,
        0.24772344529628754
      ],
      [
        0.32906824350357056,
        -0.01693425327539444,
        0.21810001134872437,
        0.10076272487640381,
        0.36507919430732727,
        0.2270362228155136
      ],
      [
        0.33436253666877747,
        -0.337762713432312,
        -0.3445774018764496,
        0.1475263386964798,
        -0.1695629358291626,
        -0.15138591825962067
      ],
      [
        -0.3462958335876465,
        0.244321808218956,
        0.281078040599823,
        -0.2511235475540161,
        -0.2284693717956543,
        0.34383222460746765
      ],
      [
        -0.029964616522192955,
        0.0017832950688898563,
        0.1738211214542389,
        0.09849069267511368,
        -0.37014785408973694,
        -0.3921359181404114
      ],
      [
        -0.23358139395713806,
        -0.02256298065185547,
        -0.18105681240558624,
        0.043903280049562454,
        0.18328972160816193,
        -0.40506476163864136
      ],
      [
        0.33979496359825134,
        -0.3717976212501526,
        0.2386905997991562,
        -0.3004225790500641,
        0.2751533091068268,
        -0.30121278762817383
      ],
      [
        -0.011052459478378296,
        0.04157806932926178,
        -0.25343379378318787,
        0.06023295596241951,
        -0.27854326367378235,
        0.277508020401001
      ],
      [
        0.22491669654846191,
        0.27371111512184143,
        0.05713515356183052,
        -0.07466104626655579,
        0.05677944794297218,
        -0.28663817048072815
      ],
      [
        0.40922507643699646,
        0.3112443685531616,
        0.2641620635986328,
        -0.18385528028011322,
        0.13589346408843994,
        -0.18149389326572418
      ],
      [
        0.1403835415840149,
        0.1664128452539444,
        0.0064888764172792435,
        -0.006641380488872528,
        0.31422680616378784,
        -0.10172346234321594
      ],
      [
        0.2253212332725525,
        -0.3482571244239807,
        -0.30893272161483765,
        0.1279730200767517,
        -0.16249799728393555,
        -0.3293386399745941
      ],
      [
        -0.23576737940311432,
        -0.35952430963516235,
        0.024196360260248184,
        0.31120026111602783,
        -0.09828069061040878,
        -0.2852031886577606
      ],
      [
        0.22185805439949036,
        -0.034691449254751205,
        0.2326337993144989,
        0.2676660418510437,
        -0.2063194364309311,
        -0.04715961590409279
      ],
      [
        0.3071516156196594,
        -0.19508041441440582,
        -0.12561734020709991,
        -0.24954073131084442,
        -0.005453291814774275,
        -0.38643643260002136
      ],
      [
        0.07385219633579254,
        -0.36857202649116516,
        0.40845417976379395,
        -0.2910126745700836,
        -0.2977580428123474,
        0.33691275119781494
      ],
      [
        -0.013221790082752705,
        0.31956952810287476,
        0.32623744010925293,
        0.28790268301963806,
        0.19632503390312195,
        0.006242992356419563
      ],
      [
        0.32212167978286743,
        0.14791902899742126,
        -0.119074746966362,
        0.09220437705516815,
        0.21011894941329956,
        0.33997780084609985
      ],
      [
        0.25670310854911804,
        -0.0052553629502654076,
        0.036128852516412735,
        0.3729127049446106,
        -0.34140971302986145,
        -0.40581634640693665
      ],
      [
        0.10529360920190811,
        0.0759374350309372,
        0.14984269440174103,
        0.2364962100982666,
        -0.26963767409324646,
        0.13572941720485687
      ],
      [
        0.25194674730300903,
        -0.39170515537261963,
        0.25321316719055176,
        -0.14292289316654205,
        -0.30589333176612854,
        0.3080054223537445
      ],
      [
        -0.3206250071525574,
        0.21883073449134827,
        0.3947871923446655,
        0.2830756604671478,
        0.2918482720851898,
        -0.12121755629777908
      ],
      [
        -0.3895387053489685,
        -0.34887319803237915,
        -0.29007816314697266,
        0.07883623242378235,
        0.3775993585586548,
        0.2944795489311218
      ],
      [
        -0.0043390123173594475,
        -0.19025970995426178,
        0.4022024869918823,
        0.03978437930345535,
        -0.11201983690261841,
        0.3650362193584442
      ],
      [
        -0.1365310102701187,
        -0.1909654289484024,
        0.06352939456701279,
        0.1278449147939682,
        0.3433987498283386,
        -0.21520522236824036
      ],
      [
        0.3382033407688141,
        0.08361121267080307,
        0.405491441488266,
        0.3465014398097992,
        -0.3343121111392975,
        0.07742907851934433
      ],
      [
        0.3844718933105469,
        -0.20054008066654205,
        -0.3600189685821533,
        0.3137667179107666,
        -0.12513262033462524,
        0.2936592102050781
      ],
      [
        0.18515707552433014,
        -0.37354984879493713,
        -0.08119864016771317,
        0.4028843343257904,
        -0.02648807130753994,
        0.08438724279403687
      ],
      [
        0.1086585521697998,
        -0.38583582639694214,
        -0.38824567198753357,
        0.2640209197998047,
        0.294283390045166,
        0.13156990706920624
      ],
      [
        -0.3417454957962036,
        -0.07563342154026031,
        -0.18289142847061157,
        -0.38026854395866394,
        -0.28764161467552185,
        0.18977104127407074
      ],
      [
        -0.17622122168540955,
        -0.15181408822536469,
        -0.07758534699678421,
        0.21255022287368774,
        -0.1341565102338791,
        -0.135668084025383
      ],
      [
        -0.3116423189640045,
        -0.20215031504631042,
        -0.047150079160928726,
        0.37182119488716125,
        0.3215227425098419,
        0.22248196601867676
      ],
      [
        0.15873639285564423,
        0.07628823816776276,
        -0.3315011262893677,
        0.32585468888282776,
        0.38381823897361755,
        -0.20449475944042206
      ],
      [
        -0.395513117313385,
        -0.2816384434700012,
        0.2070995569229126,
        -0.31460249423980713,
        0.23951342701911926,
        -0.2284039705991745
      ],
      [
        0.32572856545448303,
        0.0028926292434334755,
        0.2705795466899872,
        -0.2622966170310974,
        -0.34068459272384644,
        0.11546769738197327
      ],
      [
        0.11588719487190247,
        0.16385599970817566,
        0.08476091921329498,
        -0.14961986243724823,
        0.07106148451566696,
        0.23127897083759308
      ],
      [
        0.3619944453239441,
        0.1642543077468872,
        -0.3660561442375183,
        0.3075331151485443,
        -0.1965806633234024,
        -0.11509529501199722
      ],
      [
        0.005676556844264269,
        0.2305358201265335,
        0.3583739995956421,
        -0.14829324185848236,
        -0.19065400958061218,
        -0.2758730947971344
      ],
      [
        0.005978262983262539,
        0.13713398575782776,
        0.07276630401611328,
        -0.26934903860092163,
        -0.2603892683982849,
        0.10918108373880386
      ],
      [
        -0.07173563539981842,
        -0.3776620924472809,
        0.060870371758937836,
        0.19272273778915405,
        0.13244254887104034,
        -0.35931506752967834
      ],
      [
        0.32639867067337036,
        0.06785795092582703,
        -0.28593796491622925,
        0.37892910838127136,
        -0.3387678861618042,
        0.025569189339876175
      ],
      [
        0.3952197730541229,
        0.15759487450122833,
        -0.26106518507003784,
        -0.22022473812103271,
        -0.1135021224617958,
        -0.0731465294957161
      ],
      [
        -0.18999913334846497,
        0.062236037105321884,
        -0.1071237176656723,
        -0.14318470656871796,
        0.04584168642759323,
        0.026892121881246567
      ],
      [
        -0.22036807239055634,
        -0.04350915551185608,
        -0.2717311978340149,
        0.05364062264561653,
        -0.24380667507648468,
        0.2754274606704712
      ],
      [
        -0.24454545974731445,
        -0.09668271243572235,
        0.3345790505409241,
        -0.2170267105102539,
        0.2788189649581909,
        0.21933826804161072
      ],
      [
        -0.30129575729370117,
        -0.21272501349449158,
        -0.13037292659282684,
        -0.10312306135892868,
        -0.09167249500751495,
        0.2683504819869995
      ],
      [
        0.3982466757297516,
        -0.13823726773262024,
        -0.07415009289979935,
        0.19373205304145813,
        -0.4067900776863098,
        -0.24923951923847198
      ]
    ],
    "fc1.bias": [
      -0.3151055574417114,
      0.33614301681518555,
      -0.0874815359711647,
      0.40512093901634216,
      0.06625352799892426,
      0.22924385964870453,
      -0.2919701039791107,
      -0.05846627429127693,
      -0.24212008714675903,
      0.12148603796958923,
      -0.19634376466274261,
      -0.22896504402160645,
      -0.3450709879398346,
      -0.06322519481182098,
      0.07418221235275269,
      0.037956614047288895,
      0.2943948805332184,
      0.13750843703746796,
      -0.12800689041614532,
      0.057678598910570145,
      0.3370237946510315,
      0.011134141124784946,
      0.2086808979511261,
      0.3798098564147949,
      0.035633958876132965,
      -0.18210923671722412,
      0.1942402422428131,
      -0.23316054046154022,
      0.20539222657680511,
      -0.3955971598625183,
      -0.12016341835260391,
      -0.0005428410368040204,
      -0.17258302867412567,
      0.37170735001564026,
      0.29444050788879395,
      0.27054014801979065,
      0.3196448087692261,
      0.2999829053878784,
      0.39204028248786926,
      0.20527522265911102,
      -0.27534881234169006,
      0.08790247142314911,
      0.18430690467357635,
      0.24760806560516357,
      -0.2413841336965561,
      -0.3353026509284973,
      0.019379332661628723,
      0.22385798394680023,
      0.17927055060863495,
      -0.14251431822776794,
      0.15782485902309418,
      -0.022832224145531654,
      0.3712939918041229,
      0.308662086725235,
      -0.07696187496185303,
      0.0815151259303093,
      0.39445769786834717,
      -0.027216633781790733,
      -0.3942166268825531,
      -0.19173531234264374,
      -0.20048269629478455,
      -0.2725520431995392,
      0.10187967121601105,
      0.2984418272972107,
      -0.314037561416626,
      0.34380394220352173,
      -0.230105459690094,
      -0.3381521999835968,
      -0.2541799247264862,
      0.11384198069572449,
      0.19981959462165833,
      -0.34007447957992554,
      0.2794494032859802,
      -0.031811702996492386,
      0.24234327673912048,
      -0.017248447984457016,
      0.40392741560935974,
      0.14957769215106964,
      0.3425919711589813,
      -0.15962357819080353
    ],
    "fc2.weight": [
      [
        0.05804383009672165,
        0.09079653024673462,
        0.007582060992717743,
        -0.0034359993878751993,
        0.06489894539117813,
        0.05899494141340256,
        -0.03674313426017761,
        0.09562765806913376,
        0.0418526865541935,
        0.024344664067029953,
        -0.07199320942163467,
        -0.047557637095451355,
        -0.003962695132941008,
        0.100413978099823,
        0.08732906728982925,
        -0.0303721334785223,
        -0.05439799651503563,
        -0.07835201174020767,
        0.0970853641629219,
        0.00657872948795557,
        -0.00888677965849638,
        0.0024694260209798813,
        0.10893730819225311,
        0.08252841979265213,
        -0.016043463721871376,
        -0.06430008262395859,
        -0.08054469525814056,
        0.10442318022251129,
        -0.10134679079055786,
        -0.05239373818039894,
        0.05845553055405617,
        -0.052768509835004807,
        -0.08671632409095764,
        0.06781512498855591,
        0.021990180015563965,
        -0.03214685246348381,
        -0.022553566843271255,
        -0.03642146289348602,
        0.07607854902744293,
        -0.0392070934176445,
        0.04895910248160362,
        0.034521717578172684,
        -0.02805299498140812,
        0.08226640522480011,
        0.10508572310209274,
        0.061653319746255875,
        -0.0539880096912384,
        -0.08238741010427475,
        0.05563276633620262,
        0.037280239164829254,
        -0.059289250522851944,
        -0.051081638783216476,
        -0.08196922391653061,
        0.028349343687295914,
        0.0786418542265892,
        -0.07365638762712479,
        -0.042132165282964706,
        -0.0486442930996418,
        0.08528190851211548,
        -0.015519367530941963,
        0.0171978697180748,
        -0.07474406808614731,
        0.021616728976368904,
        -0.08888878673315048,
        0.02204335853457451,
        0.0832001268863678,
        0.11010827124118805,
        0.011058404110372066,
        -0.03572913631796837,
        0.10890230536460876,
        -0.08600050210952759,
        0.03389320895075798,
        0.006236319430172443,
        0.023660751059651375,
        0.01599792204797268,
        0.03272983431816101,
        -0.05175713077187538,
        0.1064775362610817,
        -0.08537103235721588,
        0.01910553313791752
      ]
    ],
    "fc2.bias": [
      -7.041165372356772e-05
    ]
  }
}