{
  "arch": "6-80-1",
  "xi": 0.01,
  "xi_effective": 0.1,
  "eta": 0.01,
  "lambda1": 0.1,
  "lambda2": 0.1,
  "L_T": 2.373861245916558,
  "L_f": 2.2,
  "L1": 7.596355986932986,
  "L2": 15.192711973865972,
  "L3": 5.222494741016428,
  "L": 15.192711973865972,
  "max_lprime_sampled": 0.09975706040859222,
  "theorem_margin": 0.7496355986932987,
  "certified": false,
  "state_dict": {
    "fc1.weight": [
      [
        0.10600554943084717,
        0.057953473180532455,
        0.07508175820112228,
        -0.26380082964897156,
        0.048284683376550674,
        -0.6481148600578308
      ],
      [
        0.27258092164993286,
        -0.024314867332577705,
        0.3648879826068878,
        0.16198965907096863,
        0.3230610489845276,
        0.1617431342601776
      ],
      [
        -0.3819237947463989,
        0.0997534766793251,
        0.016244899481534958,
        0.004810790065675974,
        -0.0005035401554778218,
        0.017803944647312164
      ],
      [
        -0.08740051090717316,
        -0.048241738229990005,
        -0.39297062158584595,
        0.009591196663677692,
        0.010821002535521984,
        -0.31314608454704285
      ],
      [
        -0.20233167707920074,
        -0.02288128063082695,
        -0.3256791830062866,
        0.27599388360977173,
        -0.07310836762189865,
        -0.3045288920402527
      ],
      [
        -0.007457683328539133,
        -0.17415423691272736,
        -0.41980740427970886,
        0.35992497205734253,
        -0.2071676403284073,
        -0.01724349707365036
      ],
      [
        0.01971478946506977,
        0.2144002914428711,
        -0.3496801555156708,
        -0.4704534709453583,
        0.03762666881084442,
        0.1929076910018921
      ],
      [
        0.3126085102558136,
        0.18988096714019775,
        -0.3096071779727936,
        0.032026294618844986,
        -4.276246909284964e-05,
        -0.4817040264606476
      ],
      [
        -0.014802771620452404,
        0.266637921333313,
        -0.07084695249795914,
        -0.39260900020599365,
        -0.3181811571121216,
        0.2977129817008972
      ],
      [
        0.4519050121307373,
        -0.25723204016685486,
        -0.11198356002569199,
        -0.29424184560775757,
        0.4270080327987671,
        -0.07668779790401459
      ],
      [
        0.3232080042362213,
        0.37913453578948975,
        -0.00948285311460495,
        0.16035982966423035,
        0.31681564450263977,
        -0.28369924426078796
      ],
      [
        -0.5779987573623657,
        -0.6347500085830688,
        0.4336604177951813,
        -0.11498679220676422,
        0.09340258687734604,
        -0.4915314316749573
      ],
      [
        0.38226962089538574,
        0.16664466261863708,
        0.26292362809181213,
        -0.24614135921001434,
        0.03247738629579544,
        0.41156864166259766
      ],
      [
        -0.5744520425796509,
        -0.392572283744812,
        -0.2928023934364319,
        0.3154018223285675,
        -0.11569254845380783,
        -0.38943275809288025
      ],
      [
        -0.34101200103759766,
        -0.1543223112821579,
        0.2291884422302246,
        0.06220433861017227,
        -0.23854468762874603,
        0.15995894372463226
      ],
      [
        -0.25397825241088867,
        -0.2040095180273056,
        -0.46390974521636963,
        0.10423162579536438,
        -0.03557012602686882,
        0.07972270995378494
      ],
      [
        -0.4012262225151062,
        0.1619478017091751,
        0.27653470635414124,
        0.26249560713768005,
        -0.07138912379741669,
        0.2363874912261963
      ],
      [
        0.34072157740592957,
        0.17579323053359985,
        -0.1029285117983818,
        -0.24534566700458527,
        -0.018570736050605774,
        0.42453524470329285
      ],
      [
        -0.09415621310472488,
        0.17333988845348358,
        0.3492669463157654,
        0.3609161674976349,
        0.2703735828399658,
        -0.07404111325740814
      ],
      [
        0.2857692241668701,
        -0.22130508720874786,
        -0.23028138279914856,
        0.32561978697776794,
        -0.11841294169425964,
        -0.18799248337745667
      ],
      [
        0.17335465550422668,
        -0.0489085353910923,
        -0.3522171378135681,
        0.3734853267669678,
        0.3253292441368103,
        -0.1958351582288742
      ],
      [
        -0.3444485068321228,
        -0.20345786213874817,
        0.36646321415901184,
        -0.238443523645401,
        0.3277408182621002,
        0.2550103962421417
      ],
      [
        0.04295124486088753,
        0.3552452027797699,
        -0.2056465893983841,
        0.3272547423839569,
        0.10712693631649017,
        -0.1136716827750206
      ],
      [
        -0.15282991528511047,
        0.4397597312927246,
        -0.006854614242911339,
        -0.024052070453763008,
        -0.019791340455412865,
        0.008834480307996273
      ],
      [
        -0.18988682329654694,
        0.07580233365297318,
        0.2020404189825058,
        -0.29279229044914246,
        0.27663877606391907,
        -0.4019070565700531
      ],
      [
        0.022419560700654984,
        -0.3885350227355957,
        0.1897861659526825,
        0.021021319553256035,
        0.013685419224202633,
        -0.15853777527809143
      ],
      [
        -0.451957106590271,
        0.12499650567770004,
        -0.05228874087333679,
        0.055906012654304504,
        -0.010711004957556725,
        -0.04894690960645676
      ],
      [
        0.13966745138168335,
        0.03606424480676651,
        0.2675359845161438,
        0.06036560982465744,
        -0.33576592803001404,
        -0.4177136719226837
      ],
      [
        0.3180047869682312,
        0.06937803328037262,
        0.22578281164169312,
        0.39176657795906067,
        0.13034400343894958,
        -0.13364699482917786
      ],
      [
        -0.2774713933467865,
        0.3582928776741028,
        0.1989162266254425,
        0.00508455652743578,
        -0.04249278083443642,
        0.23011887073516846
      ],
      [
        0.14861734211444855,
        0.3124004602432251,
        0.22281312942504883,
        0.30186131596565247,
        -0.23744913935661316,
        -0.3946975767612457
      ],
      [
        0.037351466715335846,
        -0.007058631628751755,
        0.1885746270418167,
        -0.32085612416267395,
        0.3039363622665405,
        0.3470725119113922
      ],
      [
        -0.10324595123529434,
        -0.09677278995513916,
        -0.24709412455558777,
        -0.0221925787627697,
        -0.05205458775162697,
        0.2657029628753662
      ],
      [
        -0.027849745005369186,
        0.018963901326060295,
        0.2899411916732788,
        -0.21289372444152832,
        -0.26532894372940063,
        0.18619953095912933
      ],
      [
        0.11736108362674713,
        -0.027364756911993027,
        0.3600907623767853,
        0.37159982323646545,
        -0.26707181334495544,
        -0.14953157305717468
      ],
      [
        -0.03439168259501457,
        0.06968948990106583,
        -0.11736887693405151,
        0.15045273303985596,
        -0.2491750568151474,
        0.3064501881599426
      ],
      [
        0.11528363823890686,
        0.33105090260505676,
        0.09031332284212112,
        -0.26162996888160706,
        0.05412621051073074,
        -0.08307209610939026
      ],
      [
        0.22167086601257324,
        0.18391795456409454,
        -0.04952987655997276,
        0.073176309466362,
        0.35315999388694763,
        0.026776611804962158
      ],
      [
        -0.07604163885116577,
        -0.47072529792785645,
        0.18651294708251953,
        0.3504858911037445,
        0.3545628786087036,
        0.3135678470134735
      ],
      [
        -0.3886832892894745,
        -0.07698602229356766,
        0.21028855443000793,
        -0.25823959708213806,
        -0.1919834464788437,
        -0.09462025761604309
      ],
      [
        -0.6488034725189209,
        -0.6850464940071106,
        0.18648424744606018,
        0.15225574374198914,
        0.017424451187253,
        -0.1913997232913971
      ],
      [
        0.2975524961948395,
        -0.24311354756355286,
        -0.16971364617347717,
        0.1854461282491684,
        0.15777529776096344,
        -0.052304163575172424
      ],
      [
        -0.282249391078949,
        0.24091926217079163,
        -0.2787758708000183,
        -0.4596717357635498,
        0.4305216670036316,
        -0.2425600290298462
      ],
      [
        0.24241945147514343,
        0.12638971209526062,
        -0.21948082745075226,
        0.43775010108947754,
        -0.17045548558235168,
        0.06396219879388809
      ],
      [
        -0.012207811698317528,
        -0.41430988907814026,
        -0.21436387300491333,
        -0.32422980666160583,
        0.3151245713233948,
        0.251741498708725
      ],
      [
        -0.4913942515850067,
        -0.19328629970550537,
        -0.2730250954627991,
        -0.29630783200263977,
        0.3872733414173126,
        0.39446040987968445
      ],
      [
        0.20447000861167908,
        0.14153127372264862,
        -0.15563112497329712,
        -0.0831298902630806,
        -0.15568271279335022,
        0.08949655294418335
      ],
      [
        0.3807467818260193,
        0.2954014837741852,
        -0.0634865015745163,
        -0.37207669019699097,
        -0.34716299176216125,
        -0.21202366054058075
      ],
      [
        0.24167898297309875,
        0.40101516246795654,
        -0.27126550674438477,
        -0.29567819833755493,
        0.22027890384197235,
        0.10334200412034988
      ],
      [
        -0.12813134491443634,
        -0.026618190109729767,
        0.023913035169243813,
        -0.21923334896564484,
        -0.373753160238266,
        -0.16353029012680054
      ],
      [
        0.3528892993927002,
        0.36269405484199524,
        0.27134570479393005,
        -0.27580526471138,
        -0.37105029821395874,
        0.35411936044692993
      ],
      [
        -0.2653464078903198,
        -0.006499226670712233,
        0.3217446506023407,
        0.2550278902053833,
        -0.36948129534721375,
        -0.00039273127913475037
      ],
      [
        -0.17903831601142883,
        0.08980471640825272,
        0.10999610275030136,
        -0.10876478254795074,
        -0.08277459442615509,
        -0.2802904546260834
      ],
      [
        -0.3069423735141754,
        0.3345179259777069,
        -0.25952836871147156,
        -0.09150732308626175,
        0.09033135324716568,
        -0.012736027128994465
      ],
      [
        0.33459511399269104,
        0.4049564301967621,
        -0.17987331748008728,
        0.09355951845645905,
        -0.1371353566646576,
        0.31651780009269714
      ],
      [
        -0.31007707118988037,
        0.14852453768253326,
        0.3678021728992462,
        0.32292526960372925,
        0.12268495559692383,
        -0.2706204354763031
      ],
      [
        -0.1814945489168167,
        -0.11871630698442459,
        0.1670013964176178,
        0.280223548412323,
        0.38126176595687866,
        -0.22492867708206177
      ],
      [
        -0.4622597098350525,
        -0.34299135208129883,
        -0.30890965461730957,
        -0.14791585505008698,
        0.37462007999420166,
        -0.0059067001566290855
      ],
      [
        0.2746991515159607,
        -0.2153787612915039,
        -0.28476110100746155,
        -0.06875476241111755,
        0.10980602353811264,
        -0.10049351304769516
      ],
      [
        0.296655535697937,
        -0.18072755634784698,
        -0.36433127522468567,
        -0.4272405803203583,
        -0.27711620926856995,
        0.1299036741256714
      ],
      [
        0.2740137279033661,
        -0.25117066502571106,
        0.22685536742210388,
        -0.2161080539226532,
        0.23997563123703003,
        -0.2961494028568268
      ],
      [
        0.212847501039505,
        -0.06040569767355919,
        -0.1685984879732132,
        -0.3640650510787964,
        0.1564372032880783,
        0.05047226324677467
      ],
      [
        0.27527526021003723,
        0.37981176376342773,
        -0.18331359326839447,
        -0.1040332168340683,
        0.2506663203239441,
        -0.2300698459148407
      ],
      [
        -0.01605687290430069,
        0.20574736595153809,
        0.3200192451477051,
        0.3474484086036682,
        0.2305212914943695,
        0.2674497961997986
      ],
      [
        0.23306220769882202,
        -0.44172775745391846,
        -0.14893022179603577,
        -0.007975835353136063,
        -0.06687933206558228,
        0.2160336673259735
      ],
      [
        -0.18644003570079803,
        -0.32145780324935913,
        0.17836567759513855,
        0.19722014665603638,
        -0.040387026965618134,
        0.22265346348285675
      ],
      [
        0.35225266218185425,
        0.2873772978782654,
        0.3336157202720642,
        -0.12889952957630157,
        -0.003491326468065381,
        -0.1987016797065735
      ],
      [
        0.21122029423713684,
        0.32033780217170715,
        -0.17651796340942383,
        0.007776276208460331,
        -0.020134523510932922,
        0.022362466901540756
      ],
      [
        -0.2560546398162842,
        0.06135696917772293,
        -0.08677846193313599,
        -0.041475437581539154,
        0.28032994270324707,
        0.031326983124017715
      ],
      [
        0.07631094008684158,
        -0.21318094432353973,
        0.16458165645599365,
        0.30319511890411377,
        -0.092792809009552,
        -0.0062125809490680695
      ],
      [
        -0.34181809425354004,
        0.29176852107048035,
        0.01660439930856228,
        -0.11440405249595642,
        0.23326948285102844,
        0.3358447551727295
      ],
      [
        0.19922533631324768,
        0.39600223302841187,
        0.36446335911750793,
        -0.3379356563091278,
        0.02251521311700344,
        0.04979922994971275
      ],
      [
        0.34226617217063904,
        -0.3044542670249939,
        0.014843633398413658,
        -0.11756233125925064,
        0.12742401659488678,
        -0.0005792789743281901
      ],
      [
        0.2568618059158325,
        0.3317248523235321,
        -0.13909532129764557,
        0.292415976524353,
        -0.38665345311164856,
        0.09074530005455017
      ],
      [
        0.37507206201553345,
        0.289457768201828,
        0.35738295316696167,
        -0.37624335289001465,
        0.2925814092159271,
        0.3083112835884094
      ],
      [
        0.2928629219532013,
        -0.38130784034729004,
        0.1627831757068634,
        -0.17845802009105682,
        0.10600598156452179,
        0.03949946537613869
      ],
      [
        0.34883826971054077,
        -0.32326850295066833,
        0.10654956847429276,
        0.1642889380455017,
        -0.18652933835983276,
        0.42006972432136536
      ],
      [
        0.04251909255981445,
        0.06767649948596954,
        -0.13477133214473724,
        -0.05822855606675148,
        0.29359808564186096,
        -0.009144362062215805
      ],
      [
        -0.03637862578034401,
        0.1768093854188919,
        -0.4166144132614136,
        -0.20169810950756073,
        -0.433345228433609,
        -0.10528859496116638
      ],
      [
        -0.31478363275527954,
        -0.27028462290763855,
        -0.3465332090854645,
        -0.16114923357963562,
        -0.26828643679618835,
        -0.2425718605518341
      ]
    ],
    "fc1.bias": [
      0.0660383328795433,
      -0.38684502243995667,
      0.5365681648254395,
      0.2446747124195099,
      0.22611595690250397,
      0.2978051006793976,
      0.05698027461767197,
      0.18624530732631683,
      0.08476272970438004,
      0.010434725321829319,
      0.28949880599975586,
      0.1707175076007843,
      -0.18861982226371765,
      -0.045012831687927246,
      -0.13238157331943512,
      0.045971114188432693,
      -0.17577943205833435,
      0.4145995080471039,
      -0.31789982318878174,
      0.16827444732189178,
      0.17159521579742432,
      -0.003894593333825469,
      0.3098897337913513,
      -0.5359340310096741,
      0.2679741680622101,
      -0.3119594156742096,
      0.23693658411502838,
      0.24314138293266296,
      0.07851802557706833,
      0.18088817596435547,
      0.18033263087272644,
      0.028297945857048035,
      0.17307621240615845,
      0.28019529581069946,
      -0.03907708451151848,
      0.0673675537109375,
      0.20293310284614563,
      -0.3487669825553894,
      0.2641894221305847,
      -0.32653388381004333,
      0.18503819406032562,
      0.07489671558141708,
      0.10518768429756165,
      -0.021694550290703773,
      -0.2999911904335022,
      0.39338043332099915,
      -0.41825488209724426,
      0.03448907285928726,
      -0.11639215052127838,
      0.16811998188495636,
      0.35033881664276123,
      -0.4255431890487671,
      0.13704997301101685,
      0.20414051413536072,
      0.2999425530433655,
      -0.18077854812145233,
      0.35960057377815247,
      -0.027263084426522255,
      0.15207664668560028,
      0.20018838346004486,
      -0.04998273402452469,
      0.21980571746826172,
      0.08515971899032593,
      0.255980521440506,
      -0.05730229616165161,
      0.017075316980481148,
      0.32490891218185425,
      0.2210284322500229,
      0.15650883316993713,
      0.42464953660964966,
      -0.25898686051368713,
      0.010735692456364632,
      0.3326302766799927,
      0.08181864023208618,
      -0.09214809536933899,
      0.11783432960510254,
      -0.30595436692237854,
      -0.06465781480073929,
      0.5076817870140076,
      0.2803962826728821
    ],
    "fc2.weight": [
      [
        -0.1651761829853058,
        0.090086929500103,
        0.3129415810108185,
        0.043273985385894775,
        0.058743685483932495,
        0.053310804069042206,
        -0.06681480258703232,
        0.10455727577209473,
        -0.043356794863939285,
        0.05564703047275543,
        -0.09222745895385742,
        -0.10737145692110062,
        0.06294169276952744,
        -0.032857801765203476,
        0.08844783902168274,
        0.23169611394405365,
        0.011193361133337021,
        0.07399315387010574,
        0.10706544667482376,
        0.017394868656992912,
        -0.06642460823059082,
        0.031340092420578,
        0.027000904083251953,
        0.311767041683197,
        -0.11571592837572098,
        0.026408612728118896,
        -0.14675092697143555,
        -0.06496546417474747,
        0.050387222319841385,
        -0.09298893809318542,
        -0.041709091514348984,
        -0.09039875864982605,
        0.12880750000476837,
        -0.06664951890707016,
        -0.013122624717652798,
        -0.11690207570791245,
        0.06435143947601318,
        -0.04063999280333519,
        0.028986738994717598,
        0.11044798046350479,
        -0.14894714951515198,
        -0.036665864288806915,
        -0.07469911128282547,
        0.050079502165317535,
        0.033140748739242554,
        0.019460318610072136,
        0.09779807180166245,
        0.023255055770277977,
        -0.011598802171647549,
        0.11576398462057114,
        0.043834224343299866,
        0.06800303608179092,
        0.07628382742404938,
        0.08538218587636948,
        -0.02546999603509903,
        -0.03628198057413101,
        0.009654787369072437,
        0.05121655389666557,
        0.10024362802505493,
        -0.08447637408971786,
        -0.03207677975296974,
        -0.023382574319839478,
        -0.06865546852350235,
        -0.06358813494443893,
        -0.14580212533473969,
        -0.01739559695124626,
        0.07750967144966125,
        0.008999318815767765,
        0.01486649364233017,
        -0.09979141503572464,
        0.0746915265917778,
        -0.08909304440021515,
        -0.06458885967731476,
        -0.053259119391441345,
        0.057118792086839676,
        0.07137931138277054,
        0.10822144895792007,
        0.035674553364515305,
        -0.09451562911272049,
        -0.09208349138498306
      ]
    ],
    "fc2.bias": [
      -0.029512980952858925
    ]
  },
  "example": "ex2",
  "method": "NCC",
  "elapsed_sec": 203.02788543701172
}