{
  "arch": "4-80-1",
  "xi": 0.01,
  "eta": 0.01,
  "lambda1": 0.1,
  "lambda2": 0.1,
  "L_T": 2.1670440834934652,
  "L_f": 6.0,
  "L1": 15.169308584454257,
  "L2": 30.338617168908513,
  "L3": 4.767496983685624,
  "L": 30.338617168908513,
  "max_lprime_sampled": 0.04777257889509201,
  "theorem_margin": 0.14169308584454257,
  "certified": false,
  "state_dict": {
    "fc1.weight": [
      [
        -0.010237526148557663,
        -0.14029178023338318,
        -0.09755455702543259,
        -0.009743582457304
      ],
      [
        -0.049381084740161896,
        0.23742058873176575,
        -0.24302051961421967,
        -0.17558827996253967
      ],
      [
        0.2949357330799103,
        0.15671825408935547,
        -0.005284241400659084,
        0.08510179072618484
      ],
      [
        -0.08810992538928986,
        -0.12461578100919724,
        0.3754262626171112,
        0.19349811971187592
      ],
      [
        0.3004361391067505,
        -0.002922471845522523,
        0.45568016171455383,
        0.32540789246559143
      ],
      [
        -0.4291892349720001,
        -0.23586992919445038,
        -0.1934516876935959,
        0.2241220921278
      ],
      [
        0.1889156848192215,
        0.25356435775756836,
        -0.4042947292327881,
        -0.13153155148029327
      ],
      [
        0.22732602059841156,
        0.4279344975948334,
        0.06052711233496666,
        0.07129348814487457
      ],
      [
        0.00023133846116252244,
        0.061069317162036896,
        -0.11431612819433212,
        0.34379005432128906
      ],
      [
        0.41097497940063477,
        0.09220915287733078,
        -0.16061724722385406,
        -0.35509583353996277
      ],
      [
        -0.20425377786159515,
        0.3459949493408203,
        -0.4686071574687958,
        0.19612257182598114
      ],
      [
        -0.20938827097415924,
        -0.27841219305992126,
        0.31727221608161926,
        -0.3844853639602661
      ],
      [
        -0.17708219587802887,
        0.4543233811855316,
        0.0006873091333545744,
        0.4079486131668091
      ],
      [
        0.39958953857421875,
        -0.21355339884757996,
        0.09417984634637833,
        0.08981483429670334
      ],
      [
        -0.4460112154483795,
        -0.4436658024787903,
        0.48925915360450745,
        -0.10808035731315613
      ],
      [
        0.0006183012737892568,
        0.2208375334739685,
        0.10516238212585449,
        0.10902325063943863
      ],
      [
        -0.5827018022537231,
        0.2766720652580261,
        0.18575415015220642,
        -0.03329750522971153
      ],
      [
        0.35457801818847656,
        0.5522598624229431,
        -0.087543785572052,
        0.48742175102233887
      ],
      [
        0.26571986079216003,
        0.5448285341262817,
        -0.3050575256347656,
        0.3581712543964386
      ],
      [
        0.009751725010573864,
        -0.05754607170820236,
        0.10564623773097992,
        -0.015765108168125153
      ],
      [
        0.2534621059894562,
        -0.4334973692893982,
        0.3781663775444031,
        0.38792940974235535
      ],
      [
        -0.22092357277870178,
        -0.33161744475364685,
        0.33212703466415405,
        0.13759157061576843
      ],
      [
        0.3068726062774658,
        -0.11045048385858536,
        -0.3328102231025696,
        -0.31529903411865234
      ],
      [
        0.2161765992641449,
        -0.28648456931114197,
        0.39840537309646606,
        -0.33446118235588074
      ],
      [
        -0.5275840759277344,
        0.2908966541290283,
        0.4518885016441345,
        0.3574846386909485
      ],
      [
        -0.4182496666908264,
        -0.28637269139289856,
        -0.39047253131866455,
        -0.21977385878562927
      ],
      [
        0.4469422698020935,
        -0.1887694150209427,
        0.47227174043655396,
        0.17159608006477356
      ],
      [
        0.34918177127838135,
        0.3475296199321747,
        0.2874482572078705,
        0.406933456659317
      ],
      [
        -0.20071224868297577,
        -0.19171832501888275,
        0.4860943555831909,
        0.12908312678337097
      ],
      [
        -0.26787248253822327,
        -0.5022796988487244,
        0.417911559343338,
        0.1439167708158493
      ],
      [
        0.03636641427874565,
        0.047439586371183395,
        0.39742574095726013,
        -0.153420552611351
      ],
      [
        0.10385588556528091,
        0.2227843850851059,
        -0.29619890451431274,
        0.1464332938194275
      ],
      [
        0.2694719433784485,
        -0.16890613734722137,
        -0.02993973344564438,
        -0.46022137999534607
      ],
      [
        -0.43317657709121704,
        0.08447647094726562,
        -0.4782201051712036,
        0.03487183898687363
      ],
      [
        0.33210819959640503,
        -0.11754952371120453,
        -0.436212420463562,
        -0.5755888223648071
      ],
      [
        0.12567050755023956,
        -0.2287798523902893,
        -0.08951901644468307,
        0.4080381989479065
      ],
      [
        -0.08383457362651825,
        -0.2621498703956604,
        -0.17309881746768951,
        0.06060735881328583
      ],
      [
        0.46409541368484497,
        0.23807308077812195,
        -0.373782753944397,
        0.2905471920967102
      ],
      [
        0.07622961699962616,
        -0.028412582352757454,
        0.37210097908973694,
        0.5191456079483032
      ],
      [
        -0.23495693504810333,
        0.3526485562324524,
        0.18784284591674805,
        0.4504004418849945
      ],
      [
        -0.059041719883680344,
        0.21678322553634644,
        -0.12154243141412735,
        -0.3190394639968872
      ],
      [
        -0.0038326967041939497,
        0.2604422867298126,
        0.3252788484096527,
        -0.22022540867328644
      ],
      [
        0.4312199354171753,
        -0.3310340344905853,
        -0.44838446378707886,
        -0.43348997831344604
      ],
      [
        0.39468327164649963,
        0.4039257764816284,
        0.24456803500652313,
        0.28892549872398376
      ],
      [
        -0.37194618582725525,
        0.20033201575279236,
        -0.0176291074603796,
        0.1194223165512085
      ],
      [
        0.4551139771938324,
        -0.14281482994556427,
        -0.020332109183073044,
        -0.12777304649353027
      ],
      [
        -0.47461625933647156,
        -0.4543672204017639,
        -0.18596531450748444,
        0.12220148742198944
      ],
      [
        0.15827038884162903,
        0.025997361168265343,
        -0.2793910503387451,
        0.2827518582344055
      ],
      [
        -0.3199993968009949,
        -0.19758155941963196,
        -0.05700624734163284,
        0.39806225895881653
      ],
      [
        -0.22389906644821167,
        -0.4762589633464813,
        -0.19393883645534515,
        0.25331997871398926
      ],
      [
        0.22945824265480042,
        0.33486688137054443,
        -0.38514813780784607,
        0.004495758097618818
      ],
      [
        0.28562989830970764,
        -0.43983685970306396,
        -0.16884702444076538,
        0.11052016913890839
      ],
      [
        -0.2681396007537842,
        0.013625080697238445,
        0.3465021848678589,
        -0.18926365673542023
      ],
      [
        0.24629497528076172,
        0.09381070733070374,
        -0.1536952704191208,
        0.07948700338602066
      ],
      [
        0.2075718343257904,
        0.20496214926242828,
        -0.33433157205581665,
        -0.5033735036849976
      ],
      [
        -0.11662424355745316,
        -0.4601396322250366,
        0.43949052691459656,
        0.21247383952140808
      ],
      [
        -0.13996529579162598,
        0.7123563885688782,
        -0.12765000760555267,
        -0.3930482268333435
      ],
      [
        0.4554676115512848,
        -0.21656569838523865,
        -0.47231170535087585,
        -0.1930602490901947
      ],
      [
        0.13667148351669312,
        0.11074307560920715,
        -0.5111014246940613,
        0.02539733424782753
      ],
      [
        0.04996664077043533,
        -0.21415598690509796,
        0.3767341673374176,
        -0.3943651020526886
      ],
      [
        -0.33724451065063477,
        -0.39021170139312744,
        -0.16067127883434296,
        -0.49090635776519775
      ],
      [
        -0.5558796525001526,
        0.03993726149201393,
        0.030940081924200058,
        0.04168923199176788
      ],
      [
        0.11500512063503265,
        -0.14748041331768036,
        0.20640668272972107,
        0.45893752574920654
      ],
      [
        0.4914213716983795,
        -0.1620083749294281,
        0.390225887298584,
        0.23499640822410583
      ],
      [
        0.18798455595970154,
        -0.16535009443759918,
        0.5026134252548218,
        0.054786473512649536
      ],
      [
        -0.42002934217453003,
        -0.1028839573264122,
        -0.10642452538013458,
        0.31002315878868103
      ],
      [
        -0.11952625960111618,
        0.0366852805018425,
        0.4329300820827484,
        0.18783797323703766
      ],
      [
        -0.29979121685028076,
        0.3994622230529785,
        -0.3686116933822632,
        -0.33937981724739075
      ],
      [
        0.43744149804115295,
        0.275093674659729,
        -0.015672653913497925,
        -0.13956312835216522
      ],
      [
        0.39627450704574585,
        0.2576352655887604,
        0.24698711931705475,
        -0.1827147901058197
      ],
      [
        -0.2667796015739441,
        -0.180968776345253,
        0.49620261788368225,
        -0.12286511063575745
      ],
      [
        -0.41297611594200134,
        0.6556736826896667,
        -0.2197161614894867,
        0.4095161557197571
      ],
      [
        -0.055935852229595184,
        0.20049571990966797,
        0.4553028643131256,
        -0.027836162596940994
      ],
      [
        0.21458445489406586,
        -0.2725295424461365,
        0.2823250889778137,
        -0.1702549308538437
      ],
      [
        0.0767853707075119,
        -0.3596607446670532,
        0.07686138898134232,
        -0.2963503301143646
      ],
      [
        -0.4212832450866699,
        -0.2871135473251343,
        -0.3599759638309479,
        -0.3885533809661865
      ],
      [
        -0.281295508146286,
        0.3793798089027405,
        0.12883315980434418,
        0.3422289192676544
      ],
      [
        -0.2948233485221863,
        0.5081847310066223,
        0.02304980531334877,
        -0.18879815936088562
      ],
      [
        0.34583181142807007,
        0.055301323533058167,
        0.10903079062700272,
        -0.25409188866615295
      ],
      [
        0.5222629308700562,
        -0.34123894572257996,
        -0.43294671177864075,
        -0.14214226603507996
      ]
    ],
    "fc1.bias": [
      0.02446858584880829,
      0.0998353660106659,
      -0.14530473947525024,
      0.00912425760179758,
      -0.0141337551176548,
      -0.21413223445415497,
      0.4296358823776245,
      0.17613904178142548,
      0.004502556752413511,
      0.21357405185699463,
      -0.019378013908863068,
      -0.19593356549739838,
      0.3733605146408081,
      -0.17866243422031403,
      -0.1483651101589203,
      0.2888163626194,
      0.35918164253234863,
      0.33018872141838074,
      -0.12769268453121185,
      -0.1829846203327179,
      0.12027937918901443,
      0.30635198950767517,
      0.5245873928070068,
      -0.1055317372083664,
      -0.4958020746707916,
      -0.2748861014842987,
      -0.36443305015563965,
      -0.16204705834388733,
      -0.23258249461650848,
      -0.36189785599708557,
      -0.05499611794948578,
      -0.24271263182163239,
      0.41512244939804077,
      0.5594457387924194,
      -0.2550168037414551,
      -0.11513954401016235,
      -0.21817032992839813,
      -0.21204903721809387,
      -0.18172980844974518,
      0.1515190452337265,
      -0.3169170022010803,
      0.4413391351699829,
      0.271038681268692,
      0.4979066848754883,
      -0.3474133312702179,
      -0.6311576962471008,
      0.11540098488330841,
      -0.4586653411388397,
      0.3866005539894104,
      -0.47756925225257874,
      -0.24669186770915985,
      -0.30725806951522827,
      -0.3764818608760834,
      -0.39907246828079224,
      0.41209253668785095,
      -0.22498516738414764,
      0.43941572308540344,
      0.41063907742500305,
      -0.332989901304245,
      0.25512635707855225,
      0.049521397799253464,
      -0.016256233677268028,
      -0.12706483900547028,
      0.16579259932041168,
      -0.12552960216999054,
      0.19068725407123566,
      0.22936004400253296,
      0.05426141247153282,
      -0.30988967418670654,
      -0.08221793919801712,
      -0.3133687674999237,
      0.20030681788921356,
      -0.10581841319799423,
      -0.1315978616476059,
      -0.266456663608551,
      0.09974250942468643,
      0.3537827730178833,
      -0.027915600687265396,
      -0.0344400592148304,
      -0.18613508343696594
    ],
    "fc2.weight": [
      [
        0.06585602462291718,
        -0.07788020372390747,
        -0.04875040799379349,
        -0.09048863500356674,
        0.047123268246650696,
        0.09941971302032471,
        0.05466961860656738,
        -0.04730779677629471,
        -0.06795267015695572,
        -0.060774803161621094,
        0.03964084014296532,
        -0.0666857436299324,
        0.041993748396635056,
        -0.03917911276221275,
        -0.03429829701781273,
        -0.06887036561965942,
        0.05150916799902916,
        0.01576107367873192,
        0.06095392629504204,
        -0.055122923105955124,
        -0.04615739732980728,
        -0.005214115139096975,
        0.110496386885643,
        0.067254438996315,
        -0.08155130594968796,
        0.004190654959529638,
        -0.05475883185863495,
        0.05198971554636955,
        0.06582964956760406,
        0.00859343633055687,
        -0.025998320430517197,
        -0.03639077767729759,
        -0.029196275398135185,
        -0.012843400239944458,
        -0.0644458755850792,
        -0.08597651869058609,
        0.052691780030727386,
        0.026889532804489136,
        0.09168142825365067,
        -0.07222098112106323,
        0.08449438214302063,
        0.09145481884479523,
        -0.07796549052000046,
        0.0433083213865757,
        0.03984403237700462,
        0.1604563295841217,
        -0.07200134545564651,
        -0.07871625572443008,
        0.10413819551467896,
        -0.02817995660007,
        0.04239106550812721,
        -0.04112637788057327,
        0.07103578746318817,
        0.06235874816775322,
        -0.1012665182352066,
        0.0344361886382103,
        -0.15583956241607666,
        -0.015822898596525192,
        0.11946208029985428,
        -0.09244261682033539,
        0.03866993263363838,
        -0.0788722038269043,
        0.08181905001401901,
        -0.09443911164999008,
        0.10725923627614975,
        -0.09112364053726196,
        0.0198203232139349,
        -0.04358639568090439,
        -0.04722708836197853,
        -0.0370810329914093,
        -0.042911749333143234,
        0.07448281347751617,
        0.0015336525393649936,
        -0.09435690194368362,
        -0.35805544257164,
        -0.02376486547291279,
        -0.11537211388349533,
        0.10663767158985138,
        0.061681799590587616,
        0.08204302936792374
      ]
    ],
    "fc2.bias": [
      0.09298354387283325
    ]
  },
  "example": "ex1",
  "method": "NCC",
  "elapsed_sec": 136.85005044937134
}