{
  "arch": "6-80-1",
  "xi": 0.1,
  "xi_effective": 0.1,
  "transition_guard": "x in X and f(x) in X",
  "num_grid_points": 841,
  "num_transition_grid_points": 144,
  "eta": 0.05,
  "eta_train": 0.05,
  "eta_cert": 0.047,
  "lambda1": 0.1,
  "lambda2": 0.1,
  "lip_reg": 0.05,
  "L_T": 0.031368824238293236,
  "L_f": 1.00012,
  "L1": 0.06274141273549506,
  "L2": 0.12548282547099013,
  "L3": 0.06901141332424512,
  "L": 0.12548282547099013,
  "max_lprime_sampled": 0.0,
  "max_lprime_grid": 0.0,
  "max_lprime_grid_train_eta": 0.0020359642803668976,
  "min_g1_grid": 0.04946504533290863,
  "min_g2_grid": 0.04796403646469116,
  "min_g3_grid": 0.04919552803039551,
  "certification_sample_check": "exhaustive_grid",
  "theorem_margin": -0.040725858726450494,
  "certified": true,
  "state_dict": {
    "fc1.weight": [
      [
        -6.579654865390694e-08,
        5.934378322081102e-08,
        -0.3360067903995514,
        5.935160141135043e-10,
        5.689069659808865e-09,
        0.11547723412513733
      ],
      [
        -0.022676942870020866,
        0.023244807496666908,
        -0.026927152648568153,
        0.001859803800471127,
        0.0005626670317724347,
        -0.06604276597499847
      ],
      [
        -5.8123063354287297e-05,
        5.760609928984195e-05,
        -0.16828937828540802,
        1.621420580022459e-07,
        3.0690100629726658e-06,
        0.23895715177059174
      ],
      [
        -0.022072717547416687,
        -0.016730407252907753,
        -0.2413042187690735,
        0.03505784273147583,
        -0.008261719718575478,
        0.9467935562133789
      ],
      [
        0.016309577971696854,
        0.014327037148177624,
        0.9826115965843201,
        0.010209926404058933,
        0.006985207088291645,
        -0.9468474388122559
      ],
      [
        -0.027329934760928154,
        0.0331878587603569,
        -0.4157218933105469,
        0.0083730174228549,
        0.008333132602274418,
        -0.46013760566711426
      ],
      [
        -0.018438352271914482,
        0.03642008453607559,
        0.9507577419281006,
        0.012879452668130398,
        -0.023473285138607025,
        -0.9438498020172119
      ],
      [
        -0.010511307045817375,
        -0.014974207617342472,
        -0.36347272992134094,
        0.01251268107444048,
        0.014301043935120106,
        0.697719156742096
      ],
      [
        -0.017603645101189613,
        0.00643906369805336,
        -0.07131346315145493,
        0.027305398136377335,
        -0.004229741636663675,
        0.5233086943626404
      ],
      [
        0.0001564309059176594,
        -0.0001549310691189021,
        0.06761133670806885,
        1.5449151078428258e-06,
        -8.53146229928825e-06,
        -0.2108943611383438
      ],
      [
        0.0037833009846508503,
        0.00528477830812335,
        -0.4879505932331085,
        0.0027269083075225353,
        0.03219052404165268,
        0.4052095115184784
      ],
      [
        0.002559223212301731,
        0.002947805682197213,
        0.36054155230522156,
        0.005992434918880463,
        -0.011416574008762836,
        -0.24497699737548828
      ],
      [
        0.0236043743789196,
        0.015422127209603786,
        1.1379097700119019,
        0.06650728732347488,
        -0.03166022524237633,
        -1.1004505157470703
      ],
      [
        0.012213023379445076,
        -0.01165724266320467,
        -0.25048524141311646,
        0.0015611277194693685,
        -0.0006029715877957642,
        -0.5900374054908752
      ],
      [
        0.021457890048623085,
        -0.002118379343301058,
        1.0847305059432983,
        -0.03329933434724808,
        0.009148908779025078,
        -1.3747053146362305
      ],
      [
        0.001195435062982142,
        0.014783242717385292,
        0.4559696614742279,
        0.013310357928276062,
        -0.004571870435029268,
        -0.49560487270355225
      ],
      [
        0.0015232758596539497,
        -0.0015050829388201237,
        -0.24387086927890778,
        -0.00035246775951236486,
        0.0003327181620988995,
        0.1684863269329071
      ],
      [
        -5.038755870878653e-11,
        4.93746155072472e-11,
        -0.38889655470848083,
        -1.234689217186058e-12,
        3.5854576686117356e-12,
        -0.3149050772190094
      ],
      [
        -0.032416246831417084,
        -0.01173949521034956,
        -0.39904648065567017,
        0.03693820908665657,
        -0.007870637811720371,
        1.0904771089553833
      ],
      [
        0.05950860679149628,
        -0.08776890486478806,
        -0.39567112922668457,
        0.002108180895447731,
        0.013982783071696758,
        0.5043306350708008
      ],
      [
        2.4555261916248128e-05,
        -2.4509810828021728e-05,
        -0.1017577275633812,
        2.6233544758724747e-07,
        -1.597426717125927e-06,
        -0.23597638309001923
      ],
      [
        -0.01289777085185051,
        -0.012331017293035984,
        -0.36289864778518677,
        0.00987146608531475,
        0.0093515170738101,
        0.6056622862815857
      ],
      [
        0.006115288473665714,
        0.003340056398883462,
        0.6979901194572449,
        -0.010626896284520626,
        -0.003906370606273413,
        -0.49590298533439636
      ],
      [
        0.049478475004434586,
        0.05241396650671959,
        0.981414258480072,
        0.0061125080101192,
        0.009868545457720757,
        -0.35773274302482605
      ],
      [
        -0.005085008218884468,
        0.022793272510170937,
        1.2563717365264893,
        0.009094366803765297,
        -0.044660381972789764,
        -1.2745975255966187
      ],
      [
        0.005735608749091625,
        0.019411936402320862,
        0.44412368535995483,
        0.020307065919041634,
        0.022981978952884674,
        -0.585614800453186
      ],
      [
        -0.010360893793404102,
        -0.009706254117190838,
        -0.13717472553253174,
        -0.00015328697918448597,
        0.00013293373922351748,
        -0.07416557520627975
      ],
      [
        -0.012903179973363876,
        -0.012371432036161423,
        -0.3417361080646515,
        0.01042386144399643,
        0.010029278695583344,
        0.6502308249473572
      ],
      [
        -0.0199626125395298,
        0.03243584558367729,
        0.2845097482204437,
        -0.019731469452381134,
        0.029604902490973473,
        0.26217079162597656
      ],
      [
        -0.04252186045050621,
        0.03168247640132904,
        -0.1990061104297638,
        -0.026630809530615807,
        0.03116733208298683,
        -0.10772444307804108
      ],
      [
        0.026180529966950417,
        0.011679141782224178,
        1.2091290950775146,
        0.008664065040647984,
        0.026303119957447052,
        -0.7169851064682007
      ],
      [
        -0.008108487352728844,
        -0.010572439059615135,
        -0.24905747175216675,
        -0.003200531704351306,
        0.01395045593380928,
        0.2752338945865631
      ],
      [
        -5.669518188256006e-09,
        1.1022164292384673e-09,
        -0.28778815269470215,
        -1.7982738631516781e-09,
        -1.237494329231481e-09,
        0.13951683044433594
      ],
      [
        0.00010691414354369044,
        -1.9967032130807638e-05,
        -0.014122392982244492,
        0.0006458992138504982,
        -0.0002912982308771461,
        -0.28026747703552246
      ],
      [
        -0.044822584837675095,
        0.024413779377937317,
        -0.29259181022644043,
        0.027795448899269104,
        0.006319914944469929,
        0.7170194983482361
      ],
      [
        -0.01940331980586052,
        -0.01659415476024151,
        0.06589461117982864,
        -0.006422123406082392,
        -0.00222806166857481,
        0.3779148459434509
      ],
      [
        0.010201438330113888,
        0.009122672490775585,
        0.7016394138336182,
        0.006867901887744665,
        0.0034101498313248158,
        -0.5581353902816772
      ],
      [
        0.01534776110202074,
        -0.014690130949020386,
        -0.386890709400177,
        0.0013334304094314575,
        -0.000748234975617379,
        -0.12203571200370789
      ],
      [
        -0.02436087839305401,
        0.001700173714198172,
        -0.31547752022743225,
        0.0682729184627533,
        -0.014454687014222145,
        0.9013679623603821
      ],
      [
        0.011596962809562683,
        0.005791125353425741,
        0.7520816922187805,
        -0.0021851512137800455,
        -0.0015000586863607168,
        -0.7506625652313232
      ],
      [
        -0.0031146002002060413,
        0.022795680910348892,
        0.3717818856239319,
        -0.016237707808613777,
        0.035162560641765594,
        -0.7732412219047546
      ],
      [
        0.003991238307207823,
        0.004314493387937546,
        0.4207443296909332,
        -0.0023883203975856304,
        -0.0036579009611159563,
        -0.40501195192337036
      ],
      [
        -0.005352094303816557,
        -0.017580552026629448,
        -0.3660103976726532,
        0.008798891678452492,
        0.007589898072183132,
        0.46938958764076233
      ],
      [
        0.013219896703958511,
        -0.0033223177306354046,
        -0.5060420036315918,
        0.034754812717437744,
        0.044091902673244476,
        0.7687900066375732
      ],
      [
        0.006492357235401869,
        -0.006341123022139072,
        0.07988960295915604,
        -4.34605753980577e-05,
        -1.6281665011774749e-06,
        -0.12299858033657074
      ],
      [
        -1.0649771862991653e-11,
        1.0195906618992723e-11,
        -0.3859861195087433,
        -5.776961889544449e-14,
        7.863339970479166e-13,
        -0.3639843165874481
      ],
      [
        0.012640301138162613,
        -0.037644702941179276,
        -0.26882675290107727,
        -0.0008360091596841812,
        -0.0013427924131974578,
        -0.04020039364695549
      ],
      [
        -0.028086526319384575,
        0.046127356588840485,
        0.3038495182991028,
        0.048336707055568695,
        -0.02288588136434555,
        -0.29158535599708557
      ],
      [
        -0.007110079284757376,
        -0.005464603193104267,
        -0.22431714832782745,
        0.00696744117885828,
        0.007433109451085329,
        0.3391644060611725
      ],
      [
        0.012576142325997353,
        0.010967874899506569,
        0.7976980209350586,
        0.00837496668100357,
        0.005228896625339985,
        -0.6909470558166504
      ],
      [
        -0.01741369627416134,
        -0.013999616727232933,
        -1.0659024715423584,
        0.01803397573530674,
        0.01881543919444084,
        -0.1453528106212616
      ],
      [
        0.011658194474875927,
        0.049661196768283844,
        0.10395095497369766,
        0.006366105750203133,
        0.0027699300553649664,
        -0.39842677116394043
      ],
      [
        0.006649427581578493,
        -0.005946719087660313,
        0.13292516767978668,
        0.004252259619534016,
        -0.0021912837401032448,
        -0.032936662435531616
      ],
      [
        6.83410617057234e-05,
        -6.805342127336189e-05,
        0.04581934213638306,
        8.059949152539048e-08,
        -3.7217200770101044e-06,
        0.03837965428829193
      ],
      [
        0.010549026541411877,
        0.013571638613939285,
        0.5903955698013306,
        0.013890055939555168,
        0.014090139418840408,
        -0.5052199959754944
      ],
      [
        0.005466280970722437,
        0.004258847329765558,
        0.4118555188179016,
        0.009755215607583523,
        -0.001972172874957323,
        -0.14174211025238037
      ],
      [
        0.026586197316646576,
        0.03238220885396004,
        0.4570024013519287,
        0.010115575045347214,
        0.002098595956340432,
        -1.0917242434516083e-05
      ],
      [
        -0.005601410288363695,
        -0.0066028921864926815,
        -0.5428853631019592,
        0.04019840434193611,
        0.03611098602414131,
        1.1787811517715454
      ],
      [
        -0.016797972843050957,
        0.013257231563329697,
        -0.3213071823120117,
        0.036597877740859985,
        -0.0030324331019073725,
        0.5837638974189758
      ],
      [
        -0.00301351142115891,
        -0.002580228028818965,
        -0.24079866707324982,
        0.0008537188987247646,
        0.0006369003094732761,
        0.08620256930589676
      ],
      [
        0.0037421181332319975,
        -0.0038004680536687374,
        -0.23580807447433472,
        9.413935185875744e-05,
        -0.00034545655944384634,
        0.24470673501491547
      ],
      [
        -0.010350998491048813,
        -0.015333784744143486,
        -0.27254796028137207,
        0.012219954282045364,
        0.011485922150313854,
        0.8304938673973083
      ],
      [
        -0.027333954349160194,
        0.001544871600344777,
        -0.8449235558509827,
        0.014091354794800282,
        0.12194431573152542,
        1.2864494323730469
      ],
      [
        0.08170820772647858,
        0.06811374425888062,
        0.8181625008583069,
        -0.01302142534404993,
        0.055332574993371964,
        0.08310279250144958
      ],
      [
        -0.001138868392445147,
        0.01534503698348999,
        0.8775454759597778,
        0.028740499168634415,
        -0.03710430487990379,
        -0.438321053981781
      ],
      [
        -0.03792619705200195,
        -0.0364229679107666,
        -0.3288659155368805,
        -0.001128924312070012,
        0.0012378160608932376,
        0.3812011182308197
      ],
      [
        0.05075622349977493,
        -0.03484217822551727,
        -0.42960578203201294,
        0.02301614172756672,
        0.022586975246667862,
        0.4571073055267334
      ],
      [
        -0.008578667417168617,
        0.023520246148109436,
        1.082381248474121,
        -0.044982898980379105,
        0.027873635292053223,
        -0.6690957546234131
      ],
      [
        -0.03248729556798935,
        0.03306908532977104,
        -0.14449983835220337,
        -0.015903867781162262,
        0.02104426920413971,
        -0.13517211377620697
      ],
      [
        -0.038783133029937744,
        -0.007644151337444782,
        -0.750794529914856,
        0.030258918181061745,
        0.0379384309053421,
        1.2534369230270386
      ],
      [
        0.002619982697069645,
        -0.002568294992670417,
        0.12782910466194153,
        -0.0005520536797121167,
        0.0007124150288291276,
        -0.40557965636253357
      ],
      [
        3.867476152663585e-07,
        -3.8154880144247727e-07,
        -0.17419366538524628,
        -2.4116220131986665e-09,
        -2.766178397450858e-08,
        0.1517568826675415
      ],
      [
        -0.005532792303711176,
        -0.017212994396686554,
        -0.6225284934043884,
        0.012833173386752605,
        0.014914371073246002,
        0.19828875362873077
      ],
      [
        0.00033512033405713737,
        -0.0003743656852748245,
        -0.392446368932724,
        -2.14810006582411e-05,
        -3.3902586437761784e-05,
        0.28791865706443787
      ],
      [
        -0.0038442311342805624,
        0.006375268567353487,
        -0.30310922861099243,
        0.004187851678580046,
        0.003925388213247061,
        -0.30047711730003357
      ],
      [
        0.060937508940696716,
        0.03435488045215607,
        1.1329755783081055,
        0.0579572431743145,
        -0.019309740513563156,
        -0.12358172237873077
      ],
      [
        -2.821706402755808e-05,
        2.8000999009236693e-05,
        -0.31917330622673035,
        -1.6624479570737094e-08,
        1.6586412812102935e-06,
        -0.1530066877603531
      ],
      [
        0.040252409875392914,
        -0.009473367594182491,
        0.6297000050544739,
        0.03287319093942642,
        0.0039621018804609776,
        -0.6181796193122864
      ],
      [
        -0.0028909826651215553,
        0.016065409407019615,
        0.6475687026977539,
        0.01726432703435421,
        -0.013967303559184074,
        -0.5213695764541626
      ],
      [
        0.0010179613018408418,
        -0.029855959117412567,
        -0.8810858726501465,
        0.07713460922241211,
        0.04837559536099434,
        1.2232892513275146
      ]
    ],
    "fc1.bias": [
      -0.24888896942138672,
      -0.1096096932888031,
      -0.34063249826431274,
      0.3507039248943329,
      -0.085021011531353,
      0.3351186513900757,
      0.24023112654685974,
      0.28996381163597107,
      0.10080834478139877,
      -0.17273035645484924,
      -0.10804984718561172,
      0.07108622789382935,
      0.20052409172058105,
      -0.30314692854881287,
      0.3572503626346588,
      -0.04188108816742897,
      -0.3435194790363312,
      -0.22088594734668732,
      0.5196711421012878,
      0.45666590332984924,
      -0.2758955955505371,
      0.33040642738342285,
      0.12941648066043854,
      0.3377332389354706,
      0.3398846983909607,
      -0.2749747633934021,
      0.19133542478084564,
      0.2972767949104309,
      -0.04982108622789383,
      0.20334704220294952,
      -0.1718011349439621,
      0.2869854271411896,
      -0.051461052149534225,
      -0.1865852028131485,
      0.32638126611709595,
      0.03403786942362785,
      -0.051890913397073746,
      -0.016043424606323242,
      0.3448159396648407,
      -0.01026046834886074,
      0.14507237076759338,
      0.009075534529983997,
      0.3413435220718384,
      -0.19268417358398438,
      -0.23581650853157043,
      -0.17060184478759766,
      0.37949681282043457,
      -0.12648366391658783,
      0.15425114333629608,
      -0.0685446485877037,
      0.5513880848884583,
      0.38617807626724243,
      -0.3376860022544861,
      -0.3080650269985199,
      -0.22030328214168549,
      -0.03585423156619072,
      -0.013150044716894627,
      -0.06622935831546783,
      -0.03541120886802673,
      0.12481610476970673,
      -0.2517784535884857,
      0.21299958229064941,
      0.13275420665740967,
      -0.13535940647125244,
      0.040854718536138535,
      0.532163143157959,
      -0.2512649893760681,
      0.0651075690984726,
      -0.1586887538433075,
      0.5494189262390137,
      -0.39092695713043213,
      -0.37377575039863586,
      0.5338057279586792,
      -0.2236872911453247,
      0.14945600926876068,
      0.0834205225110054,
      -0.06357135623693466,
      -0.15969407558441162,
      0.22299204766750336,
      0.2403302639722824
    ],
    "fc2.weight": [
      [
        -1.5973359301924006e-09,
        1.963270908691972e-12,
        -5.198817302645071e-43,
        0.0207368191331625,
        -0.024462014436721802,
        0.007756432518362999,
        -0.022268027067184448,
        0.02054615691304207,
        0.009405797347426414,
        -1.5190075353281017e-42,
        0.0002805207041092217,
        -0.007217527367174625,
        -0.026404356583952904,
        5.988395059830509e-06,
        -0.028121624141931534,
        -0.011940465308725834,
        -4.8267309598842915e-27,
        -1.9968503116628643e-42,
        0.02601674571633339,
        0.018547939136624336,
        4.800848538776823e-42,
        0.019341234117746353,
        -0.014051545411348343,
        -0.03553443402051926,
        -0.02990340255200863,
        -0.011000978760421276,
        0.00906363409012556,
        0.019517650827765465,
        -0.0036538601852953434,
        0.005145740695297718,
        -0.02594011090695858,
        0.011235189624130726,
        2.455630143671783e-09,
        7.999711933920244e-38,
        0.016529971733689308,
        0.015804655849933624,
        -0.015699194744229317,
        -2.3259251520357793e-06,
        0.020915962755680084,
        -0.018211593851447105,
        -0.011304672807455063,
        -0.009838666766881943,
        0.01732380874454975,
        0.006850059609860182,
        -6.694072141044671e-08,
        -5.5351289340830274e-43,
        0.009552803821861744,
        -0.008875453844666481,
        0.010366709902882576,
        -0.018799707293510437,
        0.02382747456431389,
        -0.022082393988966942,
        2.064866681038608e-29,
        5.226843271931568e-43,
        -0.014232367277145386,
        -0.007145160809159279,
        -0.020571565255522728,
        0.02053813636302948,
        0.00776963634416461,
        0.003675640095025301,
        8.517144323150205e-09,
        0.020353417843580246,
        0.03554357588291168,
        -0.047124288976192474,
        -0.017010550945997238,
        0.029987001791596413,
        -0.000879468978382647,
        -0.02139120362699032,
        -1.1430227004893823e-06,
        0.03809676691889763,
        -2.8896366636305126e-12,
        -4.778427763347626e-43,
        0.01885029673576355,
        1.184019220090704e-05,
        0.0035497723147273064,
        -0.029259445145726204,
        5.724304226766878e-42,
        -0.016906926408410072,
        -0.01289666723459959,
        0.03670504316687584
      ]
    ],
    "fc2.bias": [
      -0.06639464199542999
    ]
  },
  "example": "ex2",
  "method": "NCC",
  "certificate_type": "neural_closure_certificate",
  "backend": {
    "train": "pytorch",
    "certify": "lipschitz_bound"
  },
  "automaton": {
    "states": [
      0,
      1
    ],
    "initial_state": 1,
    "accepting_states": [
      0
    ]
  },
  "seed": 0,
  "elapsed_sec": 119.64911270141602
}