{
  "arch": "6-80-1",
  "xi": 0.1,
  "xi_effective": 0.1,
  "transition_guard": "x in X and f(x) in X",
  "num_grid_points": 841,
  "num_transition_grid_points": 144,
  "eta": 0.05,
  "eta_train": 0.05,
  "eta_cert": 0.047,
  "lambda1": 0.1,
  "lambda2": 0.1,
  "lip_reg": 0.05,
  "L_T": 0.04085079574598227,
  "L_f": 1.00012,
  "L1": 0.08170649358745406,
  "L2": 0.16341298717490813,
  "L3": 0.089871750641161,
  "L": 0.16341298717490813,
  "max_lprime_sampled": 0.0,
  "max_lprime_grid": 0.0,
  "max_lprime_grid_train_eta": 0.0011032111942768097,
  "min_g1_grid": 0.04987071827054024,
  "min_g2_grid": 0.04889678955078125,
  "min_g3_grid": 0.049469199031591415,
  "certification_sample_check": "exhaustive_grid",
  "theorem_margin": -0.03882935064125459,
  "certified": true,
  "state_dict": {
    "fc1.weight": [
      [
        -0.0031343703158199787,
        -0.028361821547150612,
        -0.24710744619369507,
        0.007228602189570665,
        0.005352153442800045,
        0.3359335958957672
      ],
      [
        -0.013307025656104088,
        0.03626482933759689,
        0.3456321656703949,
        0.003448912175372243,
        0.013742408715188503,
        -0.2851101756095886
      ],
      [
        0.007843678817152977,
        0.0009383275755681098,
        0.5341047048568726,
        -0.005060043651610613,
        -0.006587307900190353,
        -0.45990869402885437
      ],
      [
        0.07812169194221497,
        0.04490252956748009,
        -0.2638247311115265,
        -0.014167213812470436,
        -0.00856513250619173,
        -0.15160048007965088
      ],
      [
        -0.022952958941459656,
        -0.029471607878804207,
        0.124848872423172,
        -0.011345082893967628,
        -0.010292679071426392,
        0.6564915776252747
      ],
      [
        0.008649577386677265,
        0.011774974875152111,
        0.7245993614196777,
        0.00010380874300608411,
        0.003184051951393485,
        -0.7220910787582397
      ],
      [
        0.08264994621276855,
        -0.031083693727850914,
        0.5547351837158203,
        -0.040649641305208206,
        0.08852537721395493,
        -0.49237585067749023
      ],
      [
        0.05564332753419876,
        -0.03440579026937485,
        0.004244641400873661,
        0.022942619398236275,
        -0.017297938466072083,
        -0.11098110675811768
      ],
      [
        -0.024878473952412605,
        -0.03567787632346153,
        -1.1981897354125977,
        0.03289095312356949,
        0.059655044227838516,
        -0.006728325039148331
      ],
      [
        -0.0034637812059372663,
        -0.0027278875932097435,
        -0.04779395833611488,
        -0.0005525829619728029,
        0.0010073180310428143,
        -0.15491275489330292
      ],
      [
        -0.04919011890888214,
        0.05946538224816322,
        0.3760158121585846,
        0.014510524459183216,
        -0.021831518039107323,
        -0.22302241623401642
      ],
      [
        -0.014302252791821957,
        -0.019168328493833542,
        -0.42206287384033203,
        0.010017790831625462,
        0.012498471885919571,
        -0.07996109873056412
      ],
      [
        0.07280793786048889,
        0.019481102004647255,
        0.4438352584838867,
        0.00426615122705698,
        0.007371378131210804,
        -0.1038689836859703
      ],
      [
        -0.020533684641122818,
        -0.026867926120758057,
        -0.6182292103767395,
        0.015177388675510883,
        0.018497029319405556,
        -0.05859210714697838
      ],
      [
        -0.0023129216860979795,
        -0.051015276461839676,
        -0.5731205940246582,
        0.07640992105007172,
        0.02820972539484501,
        0.8190994262695312
      ],
      [
        0.002356622600927949,
        0.002588748000562191,
        0.2177070826292038,
        -0.0012987316586077213,
        -0.0008796173497103155,
        -0.38271772861480713
      ],
      [
        -0.03228244185447693,
        -0.03416823595762253,
        -0.7345260381698608,
        0.04443540424108505,
        0.08496851474046707,
        0.9760782122612
      ],
      [
        -0.004752208944410086,
        0.006645408924669027,
        -0.37553590536117554,
        -0.002810076577588916,
        0.004484425764530897,
        0.015722686424851418
      ],
      [
        0.014831325970590115,
        -0.011920281685888767,
        -0.01007817406207323,
        0.001797349308617413,
        0.00046074308920651674,
        -0.024286583065986633
      ],
      [
        -0.0001748360227793455,
        0.04070005938410759,
        0.9418107867240906,
        0.0659363865852356,
        -0.10758629441261292,
        -0.9208160638809204
      ],
      [
        0.01784452237188816,
        0.020026303827762604,
        0.9471173286437988,
        0.011963609606027603,
        0.016981249675154686,
        -0.8683432936668396
      ],
      [
        0.02327202633023262,
        0.03097078949213028,
        0.9659262895584106,
        0.0870799869298935,
        -0.011338229291141033,
        -0.6203175187110901
      ],
      [
        0.026801977306604385,
        0.02121085114777088,
        0.8364336490631104,
        0.02736394852399826,
        0.02457098662853241,
        -0.4479752779006958
      ],
      [
        4.675828613187605e-09,
        -4.6941464049155e-09,
        -0.18706777691841125,
        1.9179963173243664e-10,
        1.7204242197532693e-10,
        0.14935916662216187
      ],
      [
        -0.005422140937298536,
        -0.02852611429989338,
        -0.16490483283996582,
        0.02394300512969494,
        0.03505898639559746,
        1.0345871448516846
      ],
      [
        -0.005232757423073053,
        0.006515800952911377,
        -0.03432895243167877,
        -3.974204446421936e-05,
        0.0002976233954541385,
        -0.24893684685230255
      ],
      [
        0.008036778308451176,
        0.011679721996188164,
        0.7305412292480469,
        0.00029978511156514287,
        0.0034208332654088736,
        -0.6159408688545227
      ],
      [
        -0.01109921932220459,
        0.036182232201099396,
        -0.22337891161441803,
        0.004088191781193018,
        0.002747585065662861,
        -0.10492059588432312
      ],
      [
        -0.02189149707555771,
        -0.020723991096019745,
        -0.4121532142162323,
        0.027028046548366547,
        0.011681794188916683,
        0.5227488875389099
      ],
      [
        0.05361657962203026,
        0.06719757616519928,
        0.47171705961227417,
        0.008531671948730946,
        0.006797902286052704,
        0.46646323800086975
      ],
      [
        -1.1015357376242818e-10,
        -1.6545156911185188e-10,
        -0.35170549154281616,
        1.3511880850303193e-11,
        2.4127644326910058e-11,
        0.36510375142097473
      ],
      [
        0.00016667961608618498,
        0.00033535173861309886,
        -0.06187066063284874,
        0.0007556777563877404,
        0.0004049361450597644,
        -0.14242435991764069
      ],
      [
        -0.01458281185477972,
        -0.018091823905706406,
        0.3642973303794861,
        -0.008216599933803082,
        -0.005115142557770014,
        0.7888935208320618
      ],
      [
        0.0270114503800869,
        -0.023283997550606728,
        0.08608916401863098,
        0.0010804285993799567,
        -0.001049382146447897,
        -0.1309327483177185
      ],
      [
        0.024942640215158463,
        0.02025839127600193,
        0.3735594153404236,
        -0.0003120965848211199,
        -0.0016789111541584134,
        -0.1829201579093933
      ],
      [
        0.014825591817498207,
        0.03346562013030052,
        -0.7308734059333801,
        0.08636756241321564,
        0.11120342463254929,
        0.8328127861022949
      ],
      [
        -0.0028559332713484764,
        -0.03644208610057831,
        -0.6081376075744629,
        0.10304246842861176,
        0.03313982114195824,
        1.0442416667938232
      ],
      [
        -0.025102490559220314,
        -0.03412794694304466,
        0.24620860815048218,
        -0.005460092332214117,
        -0.004361763130873442,
        1.2302887439727783
      ],
      [
        0.008731897920370102,
        0.013400779105722904,
        0.7994177937507629,
        -0.011889293789863586,
        0.01241280511021614,
        -0.7987239956855774
      ],
      [
        -0.04496867582201958,
        0.027189411222934723,
        -0.48913314938545227,
        0.025830546393990517,
        0.027214117348194122,
        -0.022430282086133957
      ],
      [
        7.820042356720958e-13,
        -1.1170758328765684e-12,
        0.17147469520568848,
        6.197979412689292e-13,
        -4.0799742057062716e-13,
        0.009333550930023193
      ],
      [
        0.017427142709493637,
        0.021779462695121765,
        0.5660871863365173,
        0.04059949144721031,
        0.03131317347288132,
        -0.540214478969574
      ],
      [
        -0.042133454233407974,
        0.040837861597537994,
        -0.17261284589767456,
        -0.030461033806204796,
        0.05188075453042984,
        0.5609368085861206
      ],
      [
        -0.0029268492944538593,
        -0.020121240988373756,
        -0.008166189305484295,
        0.019691772758960724,
        -0.008507498539984226,
        0.8486045598983765
      ],
      [
        0.03929396718740463,
        -0.001019743736833334,
        0.9985439777374268,
        -0.03191757574677467,
        0.08617112040519714,
        -0.9756887555122375
      ],
      [
        0.033459462225437164,
        0.02242925763130188,
        0.34053826332092285,
        0.08512651175260544,
        -0.03588898107409477,
        -0.3186657428741455
      ],
      [
        -0.027789728716015816,
        -0.030081549659371376,
        -0.5882534980773926,
        0.04594682529568672,
        0.047501493245363235,
        0.8203967213630676
      ],
      [
        0.08592328429222107,
        -0.006646703463047743,
        -0.1446719765663147,
        0.006711703259497881,
        -0.00925485510379076,
        0.30237337946891785
      ],
      [
        -0.023819105699658394,
        -0.011570322327315807,
        -0.21354429423809052,
        0.018948525190353394,
        0.024978606030344963,
        0.8102378249168396
      ],
      [
        -1.0651602324464637e-21,
        -1.5033795587339955e-21,
        -0.17346739768981934,
        -1.2742085237913256e-21,
        5.326058141560803e-23,
        -0.22778551280498505
      ],
      [
        0.009020011872053146,
        0.00794845912605524,
        0.9824756979942322,
        -0.013320022262632847,
        -0.018855057656764984,
        -1.0164661407470703
      ],
      [
        -0.020371481776237488,
        0.04088372364640236,
        0.7211300730705261,
        0.020935457199811935,
        -0.0338212251663208,
        -0.7130836844444275
      ],
      [
        0.007837626151740551,
        0.010195962153375149,
        0.15259334444999695,
        -0.000462891097413376,
        -0.0007111543091014028,
        0.0036130223888903856
      ],
      [
        -0.0029678044375032187,
        -0.0032325033098459244,
        -0.09182433784008026,
        0.00021565498900599778,
        0.0001735047553665936,
        -0.13398951292037964
      ],
      [
        1.9555125663157707e-15,
        -2.990769363460659e-15,
        -0.23940689861774445,
        1.1878164306704524e-15,
        -1.2197044682774982e-15,
        -0.09759175777435303
      ],
      [
        0.0127929812297225,
        0.012829279527068138,
        0.40570971369743347,
        0.005762811750173569,
        0.008419596590101719,
        -0.1564808338880539
      ],
      [
        0.00887609925121069,
        0.0077336737886071205,
        0.9509245753288269,
        -0.013935204595327377,
        -0.023276006802916527,
        -1.1243594884872437
      ],
      [
        0.000998851377516985,
        0.0015104658668860793,
        0.08660253137350082,
        -0.00047193924547173083,
        -0.0002862263936549425,
        -0.3537788689136505
      ],
      [
        0.00894006434828043,
        0.012975097633898258,
        0.7847663164138794,
        0.00016942046931944788,
        0.00356711121276021,
        -0.7840827107429504
      ],
      [
        0.043132804334163666,
        0.057243119925260544,
        0.7853224873542786,
        0.001562632853165269,
        0.00015875280951149762,
        -0.3231682777404785
      ],
      [
        0.010403377935290337,
        0.009697153232991695,
        0.9525110721588135,
        -0.002229111036285758,
        0.005996459163725376,
        -0.6278478503227234
      ],
      [
        -7.23908328836842e-07,
        7.09981691215944e-07,
        0.11485344171524048,
        -5.596082885972464e-08,
        2.398129339553634e-08,
        0.14315617084503174
      ],
      [
        -0.010442482307553291,
        -0.013047192245721817,
        0.21848614513874054,
        -0.004449268337339163,
        -0.006403888110071421,
        0.6317223906517029
      ],
      [
        4.5639550080522895e-05,
        -4.9174406740348786e-05,
        -0.019353820011019707,
        1.3018144784382457e-07,
        1.0392492413302534e-06,
        -0.11745123565196991
      ],
      [
        0.02275741472840309,
        0.02040022239089012,
        1.1602379083633423,
        0.01836046762764454,
        0.018094193190336227,
        -1.119762897491455
      ],
      [
        -0.032435111701488495,
        0.1031966358423233,
        -0.14370088279247284,
        -0.04773978888988495,
        0.0761205330491066,
        0.27631571888923645
      ],
      [
        0.02828821912407875,
        0.0025997471529990435,
        0.9822638630867004,
        0.036610815674066544,
        -0.012407501228153706,
        -0.3221394717693329
      ],
      [
        -0.010211579501628876,
        -0.013086505234241486,
        -0.13012905418872833,
        -0.0016017837915569544,
        -0.001176722813397646,
        -0.35755711793899536
      ],
      [
        0.026992997154593468,
        0.00244135526008904,
        0.6632117629051208,
        0.020188502967357635,
        0.007481487933546305,
        -0.6797581911087036
      ],
      [
        0.02160542458295822,
        0.004125267267227173,
        -0.4603254497051239,
        0.055185094475746155,
        -0.03394795209169388,
        -0.07434667646884918
      ],
      [
        -0.12122505903244019,
        0.10935603827238083,
        -0.16409114003181458,
        0.03853584825992584,
        0.003997161518782377,
        0.6452662944793701
      ],
      [
        -2.083958965160573e-17,
        1.2721465412081679e-17,
        0.06553512811660767,
        1.984399672069813e-17,
        -4.1127400203801835e-17,
        -0.20049680769443512
      ],
      [
        -0.007400567177683115,
        0.022803178057074547,
        1.0299313068389893,
        -0.06477552652359009,
        0.01810520328581333,
        -0.869927704334259
      ],
      [
        0.025150304660201073,
        0.015053491108119488,
        -0.3697957396507263,
        0.04882458969950676,
        -0.02820958010852337,
        0.2299453765153885
      ],
      [
        -0.002280403394252062,
        0.0031943684443831444,
        -0.26194268465042114,
        0.0019451475236564875,
        -0.0012257806956768036,
        -0.34905874729156494
      ],
      [
        0.05454471707344055,
        0.08482415229082108,
        1.0891705751419067,
        -0.005152223631739616,
        0.025331998243927956,
        -0.21658360958099365
      ],
      [
        0.018068017438054085,
        7.095016189850867e-05,
        1.182803988456726,
        -0.03832833841443062,
        0.004385328385978937,
        -1.1177562475204468
      ],
      [
        0.02744172513484955,
        0.0026319504249840975,
        0.013668553903698921,
        0.011717351153492928,
        0.0015002071158960462,
        -0.04962373152375221
      ],
      [
        -0.000576227146666497,
        0.0007199773681350052,
        -0.11213941872119904,
        -0.024246687069535255,
        0.025711754336953163,
        0.28142592310905457
      ],
      [
        0.03643904626369476,
        0.050427187234163284,
        -0.1533694714307785,
        0.018004287034273148,
        0.022549685090780258,
        -0.4522656202316284
      ]
    ],
    "fc1.bias": [
      0.22316402196884155,
      -0.10811679810285568,
      0.04426233842968941,
      0.24852167069911957,
      0.03098311275243759,
      -0.02998584881424904,
      -0.2621181905269623,
      0.4102834463119507,
      0.3566771447658539,
      0.281718909740448,
      0.06275927275419235,
      0.36367353796958923,
      0.25759872794151306,
      0.5234110355377197,
      0.2503417134284973,
      0.1662158966064453,
      0.35339298844337463,
      -0.1699649840593338,
      -0.24709485471248627,
      0.17663121223449707,
      -0.12292631715536118,
      -0.35755059123039246,
      -0.28948742151260376,
      -0.19797375798225403,
      0.15881343185901642,
      -0.1398317813873291,
      -0.03270117565989494,
      -0.391805499792099,
      0.41353023052215576,
      -0.16377276182174683,
      -0.2676204741001129,
      0.05932314693927765,
      -0.27181726694107056,
      0.26529961824417114,
      0.22799627482891083,
      -0.3680424392223358,
      0.04301181435585022,
      -0.22256438434123993,
      -0.026402181014418602,
      0.10412722826004028,
      -0.4036991000175476,
      -0.5998299717903137,
      0.24642732739448547,
      0.018450051546096802,
      -0.1923179030418396,
      -0.2915894091129303,
      0.3344896733760834,
      0.006310388911515474,
      0.10205288976430893,
      -0.24997399747371674,
      0.1630704253911972,
      0.014934136532247066,
      0.023239025846123695,
      0.15033002197742462,
      -0.0281931534409523,
      -0.3064243793487549,
      0.3287951350212097,
      0.17280861735343933,
      -0.03573538735508919,
      0.31053414940834045,
      -0.03307744488120079,
      -0.3208543658256531,
      -0.15964196622371674,
      -0.05448051542043686,
      -0.14944367110729218,
      0.20093388855457306,
      -0.10137071460485458,
      0.4553842544555664,
      -0.10971014946699142,
      0.22587692737579346,
      0.16168177127838135,
      -0.17954395711421967,
      0.3849792182445526,
      -0.2830161154270172,
      -0.20253092050552368,
      0.147366464138031,
      0.08711057156324387,
      -0.01422960590571165,
      -0.2680313289165497,
      -0.17768751084804535
    ],
    "fc2.weight": [
      [
        0.012796720489859581,
        -0.008772722445428371,
        -0.01265267189592123,
        -0.021255118772387505,
        0.014869367703795433,
        -0.01812312752008438,
        -0.01586257293820381,
        -0.0023446925915777683,
        0.026604613289237022,
        0.001689814031124115,
        -0.007656163070350885,
        0.014462943188846111,
        -0.016963906586170197,
        0.020608874037861824,
        0.028937963768839836,
        -0.00574336526915431,
        0.036490730941295624,
        -2.4393701034824966e-12,
        -1.304386205447372e-05,
        -0.02532416395843029,
        -0.024308696389198303,
        -0.02228555455803871,
        -0.018364574760198593,
        -8.982323156322077e-43,
        0.020569492131471634,
        5.693639769555226e-19,
        -0.017231712117791176,
        1.4449695056759774e-28,
        0.020379476249217987,
        -0.020144019275903702,
        1.928761317326888e-10,
        0.0014293028507381678,
        0.012743878178298473,
        -0.0013152045430615544,
        -0.011601337231695652,
        0.011119675822556019,
        0.02849031612277031,
        0.018825283274054527,
        -0.02076333947479725,
        0.011077825911343098,
        -1.8090763174433388e-42,
        -0.009678096510469913,
        0.009698986075818539,
        0.011541096493601799,
        -0.02700377069413662,
        -0.0088412556797266,
        0.030947765335440636,
        -0.010968256741762161,
        0.018574174493551254,
        -1.0215465804927916e-42,
        -0.025332553312182426,
        -0.019176136702299118,
        -0.004868173040449619,
        0.0023914799094200134,
        3.461207206882298e-43,
        -0.005646387580782175,
        -0.025164233520627022,
        -0.0025619955267757177,
        -0.019704757258296013,
        -0.023317858576774597,
        -0.02096186764538288,
        -7.875297369505472e-43,
        0.009988590143620968,
        -8.509885765173382e-29,
        -0.030301127582788467,
        -0.0026100086979568005,
        -0.018901396542787552,
        0.005611684173345566,
        -0.017736496403813362,
        0.0034720352850854397,
        0.013481196016073227,
        1.9323905823039227e-42,
        -0.023993564769625664,
        -0.004602908156812191,
        -2.2874503167566403e-30,
        -0.03087884746491909,
        -0.030254492536187172,
        -0.003841617377474904,
        -8.100485138129443e-05,
        -0.0008160534780472517
      ]
    ],
    "fc2.bias": [
      -0.021327342838048935
    ]
  },
  "example": "ex2",
  "method": "NCC",
  "certificate_type": "neural_closure_certificate",
  "backend": {
    "train": "pytorch",
    "certify": "lipschitz_bound"
  },
  "automaton": {
    "states": [
      0,
      1
    ],
    "initial_state": 1,
    "accepting_states": [
      0
    ]
  },
  "seed": 1,
  "elapsed_sec": 121.60955929756165
}