{
  "arch": "6-80-1",
  "xi": 0.1,
  "xi_effective": 0.1,
  "transition_guard": "x in X and f(x) in X",
  "num_grid_points": 841,
  "num_transition_grid_points": 144,
  "eta": 0.05,
  "eta_train": 0.05,
  "eta_cert": 0.0465,
  "lambda1": 0.1,
  "lambda2": 0.1,
  "lip_reg": 0.05,
  "L_T": 0.09863417471934977,
  "L_f": 1.00012,
  "L1": 0.19728018553966584,
  "L2": 0.3945603710793317,
  "L3": 0.2169951843825695,
  "L": 0.3945603710793317,
  "max_lprime_sampled": 0.0,
  "max_lprime_grid": 0.0,
  "max_lprime_grid_train_eta": 0.003345869481563568,
  "min_g1_grid": 0.05629929155111313,
  "min_g2_grid": 0.0502360463142395,
  "min_g3_grid": 0.04665413126349449,
  "certification_sample_check": "exhaustive_grid",
  "theorem_margin": -0.026771981446033415,
  "certified": true,
  "state_dict": {
    "fc1.weight": [
      [
        0.026794644072651863,
        -0.024500951170921326,
        -0.07187820971012115,
        -0.0228749830275774,
        0.0695747658610344,
        0.3281235992908478
      ],
      [
        0.0027479780837893486,
        0.007410756777971983,
        0.11048328876495361,
        -0.011207669042050838,
        0.0031717957463115454,
        -0.12022034078836441
      ],
      [
        -0.07062797248363495,
        0.16097159683704376,
        -0.06173365190625191,
        0.044321440160274506,
        0.06877247244119644,
        -0.14253631234169006
      ],
      [
        -0.07343684881925583,
        0.2053147405385971,
        -0.47471916675567627,
        -0.03362850099802017,
        -0.04263538867235184,
        0.22831638157367706
      ],
      [
        6.68339055209799e-07,
        -9.007796393234457e-07,
        -0.019597411155700684,
        5.826147742027388e-08,
        -6.534101970601114e-08,
        -0.19834081828594208
      ],
      [
        0.018128197640180588,
        0.029752878472208977,
        0.32966455817222595,
        0.024965133517980576,
        -0.031760022044181824,
        -0.31660330295562744
      ],
      [
        0.09789710491895676,
        0.08976149559020996,
        0.7742852568626404,
        -0.012883800081908703,
        -0.003788328729569912,
        -1.440080165863037
      ],
      [
        0.026777205988764763,
        0.014562455005943775,
        -0.20573565363883972,
        0.04210767149925232,
        0.025727583095431328,
        0.25068309903144836
      ],
      [
        0.07722943276166916,
        0.10180050879716873,
        0.5016301274299622,
        0.06501636654138565,
        0.07145171612501144,
        0.00014997462858445942
      ],
      [
        -0.0734344869852066,
        -0.03662563115358353,
        -0.49758395552635193,
        0.1161312609910965,
        0.007322386372834444,
        0.8969888091087341
      ],
      [
        0.21298865973949432,
        -0.05905497074127197,
        0.3595357835292816,
        0.13683980703353882,
        0.10293693095445633,
        -0.21167656779289246
      ],
      [
        0.018476122990250587,
        -0.04853956401348114,
        -0.2922918498516083,
        0.1256241649389267,
        -0.0438719317317009,
        0.6857694387435913
      ],
      [
        -8.409061225123082e-10,
        9.172454462635926e-10,
        -0.05244620144367218,
        -1.266724086734783e-10,
        1.948465867818161e-11,
        -0.38164377212524414
      ],
      [
        -0.061826545745134354,
        -0.04982130974531174,
        1.4920939207077026,
        0.0644410252571106,
        0.04894416034221649,
        -1.0416544675827026
      ],
      [
        1.9238182602521192e-08,
        -1.563432583395752e-08,
        -0.05559086054563522,
        2.205888360862218e-09,
        -6.416842612821938e-10,
        -0.2158067673444748
      ],
      [
        0.056867294013500214,
        -0.024329744279384613,
        0.16873370110988617,
        -0.01922713965177536,
        0.1350933015346527,
        0.30400216579437256
      ],
      [
        -6.656831601503654e-07,
        5.140678922543884e-07,
        -0.27923452854156494,
        -6.602030566682515e-08,
        2.51773446535708e-08,
        -0.06578126549720764
      ],
      [
        -0.023551883175969124,
        0.05578942969441414,
        0.08517654985189438,
        0.0016310601495206356,
        0.08632802963256836,
        0.46024760603904724
      ],
      [
        -0.0274957325309515,
        -0.024142345413565636,
        0.812577486038208,
        0.020884517580270767,
        0.015898970887064934,
        -0.5267429351806641
      ],
      [
        -0.009781514294445515,
        0.02543538622558117,
        -0.31070178747177124,
        0.1501459777355194,
        -0.018897265195846558,
        0.5152826309204102
      ],
      [
        0.06581250578165054,
        0.020066458731889725,
        -0.5317820906639099,
        0.06914227455854416,
        0.03154390677809715,
        -0.012950930744409561
      ],
      [
        0.0030725139658898115,
        -0.012379434891045094,
        -0.6622570753097534,
        -0.025086157023906708,
        -0.01500378642231226,
        0.10785682499408722
      ],
      [
        -0.12116609513759613,
        -0.10719772428274155,
        0.5236081480979919,
        0.026962410658597946,
        0.007819822989404202,
        -0.5028479099273682
      ],
      [
        0.0081982696428895,
        -0.02618035487830639,
        -0.9805551767349243,
        0.14693564176559448,
        0.21398547291755676,
        1.064696192741394
      ],
      [
        -0.03649761900305748,
        0.13191230595111847,
        -0.6243550777435303,
        0.08267541229724884,
        0.1838226318359375,
        -0.00042003774433396757
      ],
      [
        0.01549800019711256,
        -0.010805855505168438,
        -0.36033251881599426,
        0.003376866690814495,
        0.01074319425970316,
        -0.33325859904289246
      ],
      [
        0.0006529393140226603,
        0.0028002657927572727,
        0.31009289622306824,
        -0.00019275234080851078,
        0.0010443574283272028,
        0.4789784550666809
      ],
      [
        -0.1174711361527443,
        0.029833270236849785,
        0.6785856485366821,
        0.15601475536823273,
        -0.03287152573466301,
        -0.6540917754173279
      ],
      [
        -0.01080980896949768,
        0.010237615555524826,
        0.30202850699424744,
        -0.019936291500926018,
        0.0856185108423233,
        -0.3120170533657074
      ],
      [
        -0.09139055013656616,
        0.050099410116672516,
        -0.36312535405158997,
        -0.033257514238357544,
        0.14050129055976868,
        0.1832348108291626
      ],
      [
        0.08513686805963516,
        0.05824894830584526,
        0.9406281113624573,
        -0.002274167723953724,
        -0.0568712018430233,
        -1.0310289859771729
      ],
      [
        -0.07587407529354095,
        0.05981752648949623,
        0.5794432163238525,
        0.06699667125940323,
        0.061389461159706116,
        -0.4578615128993988
      ],
      [
        0.15170933306217194,
        0.07096852362155914,
        -0.07433096319437027,
        -0.1769055873155594,
        0.05857754126191139,
        -0.2397826761007309
      ],
      [
        0.03526579588651657,
        0.09536384791135788,
        -0.2914009094238281,
        0.010558727197349072,
        0.012159925885498524,
        -0.37237048149108887
      ],
      [
        -0.04963989183306694,
        0.08352396637201309,
        0.19291867315769196,
        0.011877857148647308,
        0.022316504269838333,
        -0.20249620079994202
      ],
      [
        -1.508176836750863e-07,
        -2.015466407101485e-07,
        0.028174638748168945,
        -4.7915833079059666e-08,
        -1.5251545804062516e-08,
        0.11925101280212402
      ],
      [
        0.059661682695150375,
        -0.054904013872146606,
        -0.09251873195171356,
        0.18569105863571167,
        -0.04487172141671181,
        -0.0999554693698883
      ],
      [
        0.00017577367543708533,
        -0.030116461217403412,
        -0.36329185962677,
        0.027408504858613014,
        0.0033156212884932756,
        0.6109931468963623
      ],
      [
        0.019008103758096695,
        -0.06601738184690475,
        -0.4608374536037445,
        0.022656172513961792,
        0.019910678267478943,
        0.44689053297042847
      ],
      [
        0.12496498227119446,
        0.11663927137851715,
        1.400454044342041,
        -0.05741105601191521,
        -0.03694195672869682,
        -1.449576735496521
      ],
      [
        -0.0002634687116369605,
        0.00018975640705320984,
        -0.290506511926651,
        -3.43484862241894e-05,
        2.3533470084657893e-05,
        0.13334369659423828
      ],
      [
        0.10173299908638,
        0.04563898965716362,
        -0.14872728288173676,
        -0.01661158725619316,
        -0.03702478110790253,
        -0.0488521046936512
      ],
      [
        0.011597673408687115,
        -0.050178900361061096,
        -1.0520426034927368,
        0.233371764421463,
        0.1350318342447281,
        1.0049021244049072
      ],
      [
        0.17104694247245789,
        0.08094405382871628,
        0.04114861413836479,
        0.011749387718737125,
        0.026329563930630684,
        0.4187808930873871
      ],
      [
        -7.07973085809499e-05,
        5.0816517614293844e-05,
        -0.2845377027988434,
        -7.043633559078444e-06,
        3.4547856557765044e-06,
        0.23265370726585388
      ],
      [
        0.08778439462184906,
        0.05773678421974182,
        -0.13774782419204712,
        0.013266360387206078,
        -0.07517290860414505,
        -0.24138759076595306
      ],
      [
        0.01657143421471119,
        0.013148964382708073,
        -0.3147869110107422,
        0.043443020433187485,
        0.012357502244412899,
        0.05521221458911896
      ],
      [
        -1.5837152886888362e-06,
        1.2021420161545393e-06,
        0.18890270590782166,
        -1.7981754751872359e-07,
        9.149684387921297e-08,
        -0.0742243230342865
      ],
      [
        0.09467867016792297,
        -0.131794273853302,
        -0.5415626168251038,
        0.04076055809855461,
        0.013589424081146717,
        -0.18398109078407288
      ],
      [
        0.04367292299866676,
        -0.02140169031918049,
        0.13827794790267944,
        0.021628541871905327,
        -0.013159233145415783,
        0.2851291298866272
      ],
      [
        -0.012080426327884197,
        -0.0579262338578701,
        0.22126875817775726,
        -0.036677680909633636,
        -0.027459509670734406,
        0.3730275630950928
      ],
      [
        0.30176156759262085,
        -0.09300294518470764,
        0.15657024085521698,
        0.07589913159608841,
        0.06858805567026138,
        -0.5176964998245239
      ],
      [
        0.02135644294321537,
        0.04422244057059288,
        0.5431197285652161,
        0.07486849278211594,
        -0.06655017286539078,
        -0.6290282607078552
      ],
      [
        -0.005652017425745726,
        0.004689537454396486,
        -0.19968026876449585,
        0.0016299282433465123,
        0.03163078799843788,
        0.5839120149612427
      ],
      [
        -0.022200174629688263,
        -0.02264430746436119,
        -0.297280490398407,
        0.025845328345894814,
        0.02496233768761158,
        0.46113425493240356
      ],
      [
        -0.00742398202419281,
        -0.0017832586308941245,
        0.23344996571540833,
        0.1230274960398674,
        -0.1423136442899704,
        0.010879360139369965
      ],
      [
        0.04832513630390167,
        -0.14233806729316711,
        1.008069634437561,
        -0.052054308354854584,
        0.177971750497818,
        -0.8952838778495789
      ],
      [
        0.06228214129805565,
        0.16308477520942688,
        0.2787857949733734,
        0.004660528153181076,
        -0.017247825860977173,
        -0.21979108452796936
      ],
      [
        -0.0008009203593246639,
        0.0011337874457240105,
        -0.3740816116333008,
        0.0008115683449432254,
        -0.0005755965830758214,
        -0.01820310391485691
      ],
      [
        0.12185840308666229,
        0.06373152881860733,
        0.4084658622741699,
        -0.11420567333698273,
        0.19457335770130157,
        -0.431578665971756
      ],
      [
        0.1635294407606125,
        -0.1260235458612442,
        -0.26560521125793457,
        0.0027342273388057947,
        -0.005545125808566809,
        0.15354034304618835
      ],
      [
        0.01011907123029232,
        -0.019687727093696594,
        -0.29469695687294006,
        -0.0531601645052433,
        -0.007533116266131401,
        -0.22169287502765656
      ],
      [
        0.03644042834639549,
        -0.016412287950515747,
        -0.2458997219800949,
        0.004945860244333744,
        -0.0019084913656115532,
        -0.2577148377895355
      ],
      [
        -0.01571468450129032,
        0.02068711258471012,
        0.15192511677742004,
        -4.669642657972872e-05,
        0.0003277552896179259,
        0.31925201416015625
      ],
      [
        -3.582695251580503e-11,
        3.8538932461973374e-11,
        0.01162630319595337,
        -4.71838974142047e-12,
        1.5675531619269156e-12,
        -0.13045883178710938
      ],
      [
        -0.03602299466729164,
        0.21488340198993683,
        -0.23350262641906738,
        -0.045554764568805695,
        0.21281659603118896,
        -0.5314886569976807
      ],
      [
        0.11180667579174042,
        0.26187634468078613,
        0.5322926640510559,
        0.17455443739891052,
        -0.12497401982545853,
        -0.09095411002635956
      ],
      [
        -0.029986431822180748,
        0.1797397881746292,
        -0.5722240209579468,
        0.11307038366794586,
        -0.02471979521214962,
        -0.38924655318260193
      ],
      [
        0.18928712606430054,
        -0.010459290817379951,
        -0.35398250818252563,
        -0.06768407672643661,
        0.008044247515499592,
        -0.10821051150560379
      ],
      [
        0.05070898309350014,
        -0.01713615655899048,
        0.173794224858284,
        0.1577422022819519,
        -0.16283874213695526,
        -0.1752406805753708
      ],
      [
        0.019823553040623665,
        -0.025912079960107803,
        0.3853682279586792,
        -0.021563492715358734,
        0.04525132477283478,
        -0.20733585953712463
      ],
      [
        0.027896489948034286,
        -0.036325812339782715,
        -0.41157612204551697,
        0.12423431128263474,
        -0.025035914033651352,
        0.6467407941818237
      ],
      [
        0.14388661086559296,
        0.049906518310308456,
        0.5320854783058167,
        0.07746989279985428,
        -0.03209172561764717,
        -0.8632331490516663
      ],
      [
        -0.03921114280819893,
        -0.0542696975171566,
        -0.4681374132633209,
        -0.016239391639828682,
        0.07147441804409027,
        0.5443203449249268
      ],
      [
        -0.00042881452827714384,
        0.0003477968566585332,
        0.16616718471050262,
        -2.9371167329372838e-05,
        2.0896277419524267e-05,
        -0.26711419224739075
      ],
      [
        -0.008932859636843204,
        0.12665250897407532,
        -0.15897436439990997,
        -0.01696198433637619,
        0.009988284669816494,
        -0.014594638720154762
      ],
      [
        -0.07086588442325592,
        -0.045804303139448166,
        -0.9394403696060181,
        0.19144390523433685,
        0.05108704790472984,
        1.1397783756256104
      ],
      [
        0.035872459411621094,
        0.042823586612939835,
        0.2681461274623871,
        0.00149616040289402,
        0.016177687793970108,
        -0.5277814269065857
      ],
      [
        -0.028860919177532196,
        -0.005909656640142202,
        -0.6721101403236389,
        0.06640393286943436,
        0.12810148298740387,
        -0.31501784920692444
      ],
      [
        -0.049766287207603455,
        -0.0024447436444461346,
        -1.008007287979126,
        0.09841658920049667,
        0.22065120935440063,
        0.7618893980979919
      ]
    ],
    "fc1.bias": [
      0.07768286764621735,
      0.3414907455444336,
      0.14132346212863922,
      0.262695848941803,
      -0.3226681351661682,
      0.24759992957115173,
      0.5951870679855347,
      0.20488695800304413,
      -0.08219222724437714,
      0.494997501373291,
      -0.23941121995449066,
      0.37483668327331543,
      -0.4678645133972168,
      -0.1957315057516098,
      -0.3792111575603485,
      -0.259326308965683,
      -0.16132961213588715,
      -0.28427085280418396,
      -0.07331539690494537,
      -0.06840846687555313,
      0.2879803776741028,
      0.49230265617370605,
      0.07420944422483444,
      0.004342496860772371,
      -0.23448646068572998,
      0.2265908569097519,
      -0.3082907199859619,
      -0.24119976162910461,
      -0.17974252998828888,
      0.38079825043678284,
      0.37754571437835693,
      -0.3330215513706207,
      0.34429219365119934,
      -0.22905558347702026,
      -0.16301026940345764,
      -0.3768942058086395,
      0.3610577881336212,
      0.36481162905693054,
      0.45791786909103394,
      0.42375749349594116,
      -0.21562063694000244,
      0.20903679728507996,
      0.05932295322418213,
      -0.5417329668998718,
      -0.17653727531433105,
      0.22685763239860535,
      -0.14420680701732635,
      -0.42666998505592346,
      0.3851775825023651,
      -0.34240877628326416,
      0.0449887290596962,
      0.3717266917228699,
      0.007295466028153896,
      0.19460025429725647,
      0.1779058426618576,
      0.4039568603038788,
      -0.24274075031280518,
      0.2484973520040512,
      -0.008743085898458958,
      -0.17832453548908234,
      0.04564720019698143,
      0.5598568916320801,
      -0.3470439314842224,
      -0.15842972695827484,
      -0.10250401496887207,
      0.20319025218486786,
      0.1280623823404312,
      0.1604112833738327,
      0.23419731855392456,
      0.2281535267829895,
      -0.10725920647382736,
      0.15125279128551483,
      0.2917371392250061,
      0.3737475275993347,
      -0.2710777819156647,
      0.030158022418618202,
      0.31794631481170654,
      0.1304946392774582,
      0.03852338716387749,
      0.15286867320537567
    ],
    "fc2.weight": [
      [
        0.006378354504704475,
        -0.003020029515028,
        0.00023268656514119357,
        -0.004239448346197605,
        -6.3618950280346695e-43,
        -0.010194137692451477,
        -0.03403005748987198,
        0.00769142247736454,
        -0.009681761264801025,
        0.02563575841486454,
        -0.006480964832007885,
        0.01648717001080513,
        -3.965674654039232e-43,
        -0.043610334396362305,
        -4.435109639588046e-42,
        -0.0017504201969131827,
        -1.1478035721284577e-41,
        0.0025450363755226135,
        -0.022726327180862427,
        0.011941712349653244,
        0.008153514005243778,
        0.006398889236152172,
        -0.01708945259451866,
        0.03626451641321182,
        0.010708312503993511,
        0.004707605578005314,
        0.008078016340732574,
        -0.023899972438812256,
        -0.009534302167594433,
        0.011807180009782314,
        -0.032860226929187775,
        -0.01639670319855213,
        -0.007296042516827583,
        -0.0006751907058060169,
        -0.005210299510508776,
        -1.6353153078670615e-42,
        0.004613334313035011,
        0.015426011756062508,
        0.016502205282449722,
        -0.048803046345710754,
        -1.401298464324817e-42,
        -0.0040592532604932785,
        0.037666577845811844,
        0.0009044574107974768,
        9.373677585244877e-07,
        -0.006120983511209488,
        0.0003785587032325566,
        2.14398665041697e-43,
        0.012618379667401314,
        0.0022670687176287174,
        0.00570416497066617,
        -0.008607150055468082,
        -0.018722955137491226,
        0.01197721529752016,
        0.014503546059131622,
        -0.0034040980972349644,
        -0.032811958342790604,
        -0.012009171769022942,
        -1.9314288016158976e-11,
        -0.01425781100988388,
        -0.0007599526434205472,
        0.0036285673268139362,
        -5.408583701033709e-25,
        0.00661133136600256,
        1.831497092872536e-42,
        -0.0023439086508005857,
        -0.01668531820178032,
        0.005225230474025011,
        -0.004620172083377838,
        -0.006002597976475954,
        -0.008715558797121048,
        0.016232194378972054,
        -0.02124079316854477,
        0.016710299998521805,
        -2.205643782847262e-42,
        -0.003770840587094426,
        0.03755125030875206,
        -0.012652800418436527,
        0.014685348607599735,
        0.03336776793003082
      ]
    ],
    "fc2.bias": [
      -0.0649791732430458
    ]
  },
  "example": "ex2",
  "method": "NCC",
  "certificate_type": "neural_closure_certificate",
  "backend": {
    "train": "pytorch",
    "certify": "lipschitz_bound"
  },
  "automaton": {
    "states": [
      0,
      1
    ],
    "initial_state": 1,
    "accepting_states": [
      0
    ]
  },
  "seed": 2,
  "elapsed_sec": 119.96723532676697
}