{
  "W1": [
    [
      0.36882099509239197,
      0.2142641693353653,
      -0.2706308364868164
    ],
    [
      0.38767242431640625,
      -0.3427780568599701,
      -0.5663848519325256
    ],
    [
      -0.10614192485809326,
      0.10177649557590485,
      0.3530804514884949
    ],
    [
      0.3956669569015503,
      0.027454685419797897,
      0.22107358276844025
    ],
    [
      -0.34837445616722107,
      0.1480560600757599,
      0.24267028272151947
    ],
    [
      0.522834837436676,
      -0.4039755165576935,
      -0.2974638044834137
    ],
    [
      -0.2687430679798126,
      -0.3585364818572998,
      -0.08454622328281403
    ],
    [
      0.3288383483886719,
      -0.03116677701473236,
      0.2731132507324219
    ],
    [
      -0.23449835181236267,
      0.28364118933677673,
      -0.02363346889615059
    ],
    [
      0.3424919843673706,
      0.48593875765800476,
      0.4091225266456604
    ],
    [
      0.1556439846754074,
      0.24776263535022736,
      -0.0535113587975502
    ],
    [
      -0.4205928444862366,
      -0.40223410725593567,
      0.4730992913246155
    ],
    [
      -0.29187172651290894,
      0.4086581766605377,
      -0.3203618824481964
    ],
    [
      0.3040095567703247,
      -0.29551807045936584,
      0.37481173872947693
    ],
    [
      -0.2186117023229599,
      -0.6543934941291809,
      0.37306588888168335
    ]
  ],
  "b1": [
    -0.5578632950782776,
    -0.45127832889556885,
    0.21094147861003876,
    -0.06365761160850525,
    -0.0668223574757576,
    0.137533038854599,
    -0.25970661640167236,
    -0.09199592471122742,
    -0.16152161359786987,
    -0.14885900914669037,
    -0.5595611333847046,
    -0.25026842951774597,
    0.2966662645339966,
    0.24203597009181976,
    0.10353520512580872
  ],
  "W2": [
    [
      0.005549213383346796,
      -0.26194778084754944,
      0.030866213142871857,
      -0.1675862967967987,
      0.07771984487771988,
      -0.2487223595380783,
      0.2134743183851242,
      0.2566359043121338,
      -0.2519572973251343,
      0.11465921998023987,
      -0.17329399287700653,
      0.0606578029692173,
      -0.15579141676425934,
      0.031524959951639175,
      0.12440839409828186
    ]
  ],
  "b2": [
    -0.021768886595964432
  ],
  "architecture": "3 -> 15 -> 1",
  "activation": "ReLU",
  "save_time": "2026-01-30 23:41:10"
}