{
  "W1": [
    [
      0.16947323083877563,
      -0.21574872732162476,
      0.1316409856081009
    ],
    [
      -0.08310825377702713,
      -0.012746267020702362,
      -0.04113036021590233
    ],
    [
      -0.06397207826375961,
      -0.5429314374923706,
      -0.029446307569742203
    ],
    [
      -0.3107915222644806,
      0.0634632483124733,
      -0.08720846474170685
    ],
    [
      -0.08576902002096176,
      0.09323276579380035,
      0.05105818435549736
    ],
    [
      0.3797034025192261,
      -0.6118730902671814,
      0.029129378497600555
    ],
    [
      -0.1249094307422638,
      -0.05650123953819275,
      -0.19199097156524658
    ],
    [
      -1.1089447736740112,
      0.6380021572113037,
      -0.06427222490310669
    ],
    [
      -0.17578183114528656,
      0.6446198225021362,
      -0.031904350966215134
    ],
    [
      0.14327500760555267,
      0.08219447731971741,
      -0.22752806544303894
    ],
    [
      -0.08726891875267029,
      0.6330069303512573,
      0.09936900436878204
    ],
    [
      -0.01736208237707615,
      0.027086935937404633,
      0.010392725467681885
    ],
    [
      0.7779748439788818,
      -0.3705436885356903,
      -0.06284359842538834
    ],
    [
      0.49392858147621155,
      0.17566357553005219,
      0.6906794905662537
    ],
    [
      -0.6560496687889099,
      -0.7597172856330872,
      0.6556886434555054
    ]
  ],
  "b1": [
    -0.3937956988811493,
    -0.06559433043003082,
    -0.04345877096056938,
    -0.3020031154155731,
    -0.190637469291687,
    -0.08473464846611023,
    -0.09027797728776932,
    -0.34024080634117126,
    -1.0315663814544678,
    -0.5757263898849487,
    -1.028087854385376,
    -0.050991080701351166,
    -0.7655194997787476,
    -0.6736446022987366,
    0.2615988254547119
  ],
  "W2": [
    [
      0.007674291729927063,
      -0.019551411271095276,
      -0.2171829640865326,
      0.17923115193843842,
      0.00531027652323246,
      -0.35746994614601135,
      0.008762912824749947,
      -1.0855320692062378,
      -1.4935373067855835,
      -0.13878154754638672,
      -0.4477531611919403,
      -0.0007706616306677461,
      -0.7271978259086609,
      0.21761929988861084,
      0.21799223124980927
    ]
  ],
  "b2": [
    -0.1402006894350052
  ],
  "architecture": "3 -> 15 -> 1",
  "activation": "ReLU",
  "save_time": "2026-01-31 00:59:03"
}