{
  "arch": "4-80-1",
  "xi": 0.02,
  "transition_guard": "paper: x in X only",
  "num_grid_points": 316,
  "num_transition_grid_points": 316,
  "eta": 0.01,
  "lambda1": 0.1,
  "lambda2": 0.1,
  "lip_reg": 0.01,
  "L_T": 0.3464968363637322,
  "L_f": 5.685370052800001,
  "L1": 2.3164595732160373,
  "L2": 4.632919146432075,
  "L3": 0.7622930400002109,
  "L": 4.632919146432075,
  "max_lprime_sampled": 0.07145631313323975,
  "max_lprime_grid": 0.07145631313323975,
  "min_g1_grid": -0.020133089274168015,
  "min_g2_grid": -0.061456311494112015,
  "min_g3_grid": 0.005039369687438011,
  "certification_sample_check": "exhaustive_grid",
  "theorem_margin": 0.036329191464320745,
  "certified": false,
  "state_dict": {
    "fc1.weight": [
      [
        -0.04566376283764839,
        0.1122012808918953,
        -0.31181102991104126,
        -0.34383484721183777
      ],
      [
        0.005793798249214888,
        -0.8271045088768005,
        -0.1870114505290985,
        0.6882132291793823
      ],
      [
        -0.029626047238707542,
        0.11214017122983932,
        -0.07239117473363876,
        -0.11860032379627228
      ],
      [
        -0.3162817060947418,
        -0.3575575649738312,
        -0.15426668524742126,
        -0.00612530205398798
      ],
      [
        0.13802655041217804,
        0.23948390781879425,
        -0.13669626414775848,
        -0.07716634124517441
      ],
      [
        0.10993190109729767,
        0.3894251585006714,
        -0.07010004669427872,
        0.3435150384902954
      ],
      [
        -0.03422432392835617,
        -0.07473718374967575,
        0.36112433671951294,
        -0.27576741576194763
      ],
      [
        -0.2090417593717575,
        -0.19606450200080872,
        -0.1835978627204895,
        0.3415643870830536
      ],
      [
        -0.2142476588487625,
        -0.2243066132068634,
        -0.21842296421527863,
        -0.4347290098667145
      ],
      [
        -0.29552868008613586,
        0.7276344895362854,
        0.072707898914814,
        0.44842445850372314
      ],
      [
        0.09588625282049179,
        -1.9042117595672607,
        0.42439478635787964,
        -0.2580331265926361
      ],
      [
        -0.1429639458656311,
        -0.41902631521224976,
        0.24129214882850647,
        0.4640112519264221
      ],
      [
        -0.10029168426990509,
        -0.003770063165575266,
        0.2253909558057785,
        0.529606282711029
      ],
      [
        0.1456710547208786,
        0.09992289543151855,
        0.21389207243919373,
        -0.21303832530975342
      ],
      [
        0.0029959033709019423,
        -0.4088438153266907,
        -0.21489474177360535,
        -0.2794828414916992
      ],
      [
        0.032301999628543854,
        0.1757286936044693,
        -0.10265364497900009,
        0.05857546254992485
      ],
      [
        0.1081889420747757,
        -0.07734803855419159,
        0.06433731317520142,
        0.10638847202062607
      ],
      [
        0.043563034385442734,
        0.7899627089500427,
        -0.18729469180107117,
        -0.4882688522338867
      ],
      [
        0.18672651052474976,
        0.4504094421863556,
        0.29806020855903625,
        0.5271911025047302
      ],
      [
        0.10964652895927429,
        -0.4210284650325775,
        0.021771268919110298,
        -0.24960957467556
      ],
      [
        -0.27756771445274353,
        0.707952618598938,
        0.20442140102386475,
        -0.549697756767273
      ],
      [
        0.21066008508205414,
        -0.4341936707496643,
        0.03311949595808983,
        -0.46086937189102173
      ],
      [
        0.11819015443325043,
        -0.2613847553730011,
        0.12879562377929688,
        0.31444984674453735
      ],
      [
        0.2507704198360443,
        -0.005820625461637974,
        -0.28056836128234863,
        -0.07103893905878067
      ],
      [
        0.2610761821269989,
        0.21738754212856293,
        -0.11275103688240051,
        -0.09861480444669724
      ],
      [
        0.3682447075843811,
        0.26371636986732483,
        -0.15686945617198944,
        -0.14409571886062622
      ],
      [
        -0.24213141202926636,
        -0.3942960798740387,
        -0.1350061446428299,
        -0.24218431115150452
      ],
      [
        -0.041263993829488754,
        -0.16703714430332184,
        -0.21744947135448456,
        0.2914731800556183
      ],
      [
        -0.2778831124305725,
        0.7989911437034607,
        0.3983749747276306,
        -0.27982479333877563
      ],
      [
        -0.37210148572921753,
        -0.012240162119269371,
        0.02434525266289711,
        0.026027226820588112
      ],
      [
        0.16176046431064606,
        -0.26107853651046753,
        -0.093168243765831,
        0.10962755978107452
      ],
      [
        -0.2650649845600128,
        -0.33560988306999207,
        -0.042076364159584045,
        -0.10774032026529312
      ],
      [
        -0.10092729330062866,
        -0.43430808186531067,
        -0.09585680067539215,
        0.07974561303853989
      ],
      [
        -0.010882267728447914,
        -0.07557863742113113,
        0.13176609575748444,
        0.3088087737560272
      ],
      [
        -0.0032486733980476856,
        -0.043659310787916183,
        0.03689819946885109,
        0.2938101887702942
      ],
      [
        0.2611742615699768,
        0.31061074137687683,
        0.2761979103088379,
        -0.0402161106467247
      ],
      [
        -0.15585152804851532,
        -0.7258107662200928,
        0.19409982860088348,
        0.270499587059021
      ],
      [
        -0.20279647409915924,
        -0.3963538408279419,
        -0.34838932752609253,
        -0.4334475100040436
      ],
      [
        -0.01304635126143694,
        0.25709396600723267,
        0.1617744415998459,
        -0.5879618525505066
      ],
      [
        0.24778945744037628,
        -0.269126296043396,
        0.004963437095284462,
        -0.1930633932352066
      ],
      [
        -0.10259778797626495,
        -0.11897002905607224,
        -0.32707861065864563,
        -0.4525011479854584
      ],
      [
        -0.0750555768609047,
        -0.013449186459183693,
        -0.15913677215576172,
        0.16940292716026306
      ],
      [
        -0.10119646787643433,
        -0.1972179263830185,
        0.34053996205329895,
        -0.15067227184772491
      ],
      [
        0.3592032194137573,
        0.13549044728279114,
        -0.2821800112724304,
        0.411268949508667
      ],
      [
        -0.011239997111260891,
        -0.3492511212825775,
        0.3757796585559845,
        0.03297122195363045
      ],
      [
        0.0906270444393158,
        -0.08618593961000443,
        0.29335853457450867,
        0.18077987432479858
      ],
      [
        0.10853033512830734,
        0.1530630737543106,
        -0.0059220874682068825,
        -0.11264237016439438
      ],
      [
        -0.08634219318628311,
        0.4372132122516632,
        0.18510198593139648,
        0.31629112362861633
      ],
      [
        -0.00099661061540246,
        0.030012181028723717,
        -0.0023090040776878595,
        -0.26637202501296997
      ],
      [
        -0.25145837664604187,
        0.20200447738170624,
        -0.23818479478359222,
        0.09090922027826309
      ],
      [
        -0.006990984547883272,
        0.2878424823284149,
        -0.3009432852268219,
        -0.3198740482330322
      ],
      [
        -0.26075634360313416,
        0.3755843937397003,
        -0.0922565907239914,
        0.48687103390693665
      ],
      [
        0.36721473932266235,
        0.06436388939619064,
        -0.016888033598661423,
        -0.011541209183633327
      ],
      [
        0.040538057684898376,
        0.00322448811493814,
        0.002571703167632222,
        0.15984314680099487
      ],
      [
        -0.27767735719680786,
        -0.2984634339809418,
        0.33016493916511536,
        -0.29565006494522095
      ],
      [
        0.10170954465866089,
        0.5347273945808411,
        0.12829558551311493,
        0.4719688594341278
      ],
      [
        -0.1098545640707016,
        -0.42565301060676575,
        -0.1085900366306305,
        0.1993589997291565
      ],
      [
        -0.1525658667087555,
        -0.3603222072124481,
        0.02189815044403076,
        0.5138067603111267
      ],
      [
        0.03940507024526596,
        0.43549275398254395,
        0.21795545518398285,
        -0.34324911236763
      ],
      [
        0.19840675592422485,
        -0.5202836990356445,
        -0.08998977392911911,
        -0.05728507041931152
      ],
      [
        0.11043937504291534,
        0.49831393361091614,
        -0.1654524803161621,
        0.05723227560520172
      ],
      [
        0.1543644517660141,
        -0.457557737827301,
        0.2589511275291443,
        -0.4263469874858856
      ],
      [
        -0.03216225653886795,
        -0.16167862713336945,
        -0.13359451293945312,
        0.023434650152921677
      ],
      [
        0.2596689760684967,
        -0.07801980525255203,
        -0.19945961236953735,
        -0.27958589792251587
      ],
      [
        -0.2077873796224594,
        0.3574250638484955,
        -0.13982032239437103,
        -0.4343951940536499
      ],
      [
        -0.2775175869464874,
        0.24446213245391846,
        0.05388578400015831,
        0.35474374890327454
      ],
      [
        0.09856178611516953,
        -0.19255584478378296,
        -0.10081913322210312,
        0.2573409676551819
      ],
      [
        0.2849343717098236,
        0.23183389008045197,
        -0.1472960263490677,
        -0.350619912147522
      ],
      [
        -0.347072035074234,
        0.13610632717609406,
        -0.18749365210533142,
        -0.4084594249725342
      ],
      [
        0.18469567596912384,
        -0.3260948359966278,
        0.0011289159301668406,
        -0.026770157739520073
      ],
      [
        -0.01667718030512333,
        -0.19609734416007996,
        -0.2746039927005768,
        0.40483778715133667
      ],
      [
        0.07667452096939087,
        0.4066636562347412,
        -0.18695120513439178,
        0.4056536555290222
      ],
      [
        -0.0764932632446289,
        -0.001100016525015235,
        -0.2266836166381836,
        0.1887589544057846
      ],
      [
        0.3064626157283783,
        -0.45280420780181885,
        -0.06226297840476036,
        -0.6593363285064697
      ],
      [
        0.44673439860343933,
        -0.4893356263637543,
        0.08375740796327591,
        -0.1662074327468872
      ],
      [
        -0.2212028205394745,
        0.15200671553611755,
        -0.24420689046382904,
        0.08086962252855301
      ],
      [
        0.06036342680454254,
        -0.3783065676689148,
        0.07111252099275589,
        0.1898563951253891
      ],
      [
        0.1702248454093933,
        0.09201816469430923,
        -0.13821735978126526,
        -0.0913071557879448
      ],
      [
        0.1579635888338089,
        -0.9305261969566345,
        0.1985091269016266,
        0.3402775824069977
      ],
      [
        -0.43967851996421814,
        -0.02056652307510376,
        0.028162745758891106,
        0.030601806938648224
      ]
    ],
    "fc1.bias": [
      -0.029709002003073692,
      0.35499411821365356,
      -0.4141921401023865,
      0.027942700311541557,
      0.4094126522541046,
      0.42190757393836975,
      0.2533797323703766,
      0.006565333344042301,
      0.35481786727905273,
      -0.2682414948940277,
      -0.9062502980232239,
      -0.35547301173210144,
      0.6060739755630493,
      0.3131369948387146,
      -0.35175344347953796,
      0.15812070667743683,
      0.3533540666103363,
      0.30477175116539,
      0.43255266547203064,
      0.402132511138916,
      -0.045603156089782715,
      -0.254298597574234,
      0.4086204469203949,
      0.24028240144252777,
      -0.5507304072380066,
      0.3741728365421295,
      0.5177650451660156,
      0.4395339787006378,
      -0.18412095308303833,
      0.6424129009246826,
      -0.15546569228172302,
      0.4033978581428528,
      -0.11541281640529633,
      0.018707511946558952,
      0.05590014532208443,
      0.19439935684204102,
      -0.2422560751438141,
      0.22478197515010834,
      -0.6143501400947571,
      0.1439102441072464,
      -0.3558944761753082,
      -0.514167308807373,
      -0.4473586678504944,
      0.42238321900367737,
      0.1223798617720604,
      0.465900719165802,
      0.37948259711265564,
      -0.6186842322349548,
      -0.3329240381717682,
      -0.039751965552568436,
      -0.31250208616256714,
      0.12108755111694336,
      -0.6912210583686829,
      -0.24878719449043274,
      -0.4762434661388397,
      -0.739224910736084,
      0.3738448917865753,
      0.6117802262306213,
      0.3433499336242676,
      0.3081783056259155,
      0.36423438787460327,
      -0.142917200922966,
      0.0992487221956253,
      0.38117682933807373,
      0.07966917753219604,
      0.49847936630249023,
      0.338956743478775,
      0.24385514855384827,
      -0.11559181660413742,
      0.19596566259860992,
      0.06378883123397827,
      -0.1893434226512909,
      -0.2549947202205658,
      -0.38835644721984863,
      -0.3429218530654907,
      0.6108172535896301,
      0.3373899757862091,
      -0.21620771288871765,
      -0.5934940576553345,
      0.7661130428314209
    ],
    "fc2.weight": [
      [
        0.007988214492797852,
        -0.01352437399327755,
        -5.465064010866787e-44,
        -0.008891117759048939,
        -0.005800153128802776,
        0.0011696807341650128,
        0.011911671608686447,
        -0.0024385633878409863,
        -0.003328904276713729,
        0.028684338554739952,
        -0.07357922196388245,
        -0.011340216733515263,
        0.003361591836437583,
        0.008602027781307697,
        0.0036440743133425713,
        -0.0010672872886061668,
        0.005030520260334015,
        -0.02362823858857155,
        0.013632304966449738,
        0.003386938711628318,
        -0.03433388099074364,
        -0.02898668684065342,
        0.00678459694609046,
        0.010961172170937061,
        0.03201974183320999,
        -0.017047282308340073,
        -0.016711896285414696,
        -0.022997450083494186,
        -0.04662279412150383,
        0.05600458011031151,
        -0.016450248658657074,
        -0.021075429394841194,
        -0.0005695601576007903,
        -0.0020604555029422045,
        0.0010247101308777928,
        0.010381367057561874,
        -0.03152237832546234,
        0.0038206849712878466,
        0.016887562349438667,
        -0.006652376148849726,
        0.002907991409301758,
        6.34557090986018e-36,
        -0.012807230465114117,
        0.014657780528068542,
        -0.013594701886177063,
        0.010309463366866112,
        0.0021870729979127645,
        0.016250982880592346,
        6.305843089461677e-44,
        -0.0019800839945673943,
        0.0062584346160292625,
        0.015581740066409111,
        0.06887975335121155,
        0.003020785516127944,
        -0.008052440360188484,
        0.026510633528232574,
        -0.009693130850791931,
        0.02388753928244114,
        0.0025144049432128668,
        0.023612044751644135,
        -0.010707596316933632,
        -0.009141170419752598,
        0.003910602070391178,
        0.0033820958342403173,
        0.009269447065889835,
        -0.026344839483499527,
        0.011075709946453571,
        -0.017300022765994072,
        -0.0068978494964540005,
        -0.0031354399397969246,
        0.008790413849055767,
        0.020219797268509865,
        0.001840379904024303,
        -0.028623158112168312,
        0.03929717466235161,
        -0.02166878432035446,
        0.0022665676660835743,
        0.01616901531815529,
        -0.03973650559782982,
        0.0669635534286499
      ]
    ],
    "fc2.bias": [
      -0.0674605444073677
    ]
  },
  "example": "ex1",
  "method": "NCC",
  "certificate_type": "neural_closure_certificate",
  "backend": {
    "train": "pytorch",
    "certify": "lipschitz_bound"
  },
  "automaton": {
    "states": [
      0,
      1
    ],
    "initial_state": 1,
    "accepting_states": [
      0
    ]
  },
  "seed": 0,
  "elapsed_sec": 88.49337005615234
}