{
  "W1": [
    [
      -0.017978008836507797,
      0.6406944394111633,
      -0.03856681287288666
    ],
    [
      -0.5729965567588806,
      -0.14924462139606476,
      -0.043293245136737823
    ],
    [
      -0.5660426616668701,
      -0.2565310001373291,
      0.10918396711349487
    ],
    [
      -0.12088224291801453,
      0.6219276785850525,
      -0.9516218304634094
    ],
    [
      -0.5492688417434692,
      -0.4527278244495392,
      0.2669191062450409
    ],
    [
      -0.3572467267513275,
      0.10176215320825577,
      -0.2604440450668335
    ],
    [
      -0.6215685606002808,
      0.4530791640281677,
      -0.636301577091217
    ],
    [
      -0.5046539902687073,
      -0.0016143012326210737,
      0.04746519774198532
    ],
    [
      -0.21175090968608856,
      0.12297604978084564,
      -0.5237511992454529
    ],
    [
      0.6063219308853149,
      0.14016705751419067,
      -2.3412678241729736
    ],
    [
      -0.0786895900964737,
      -0.15929390490055084,
      -0.10671024024486542
    ],
    [
      0.6868988275527954,
      -0.5882328748703003,
      -0.651290774345398
    ],
    [
      -0.7519702315330505,
      0.13900414109230042,
      -0.018297474831342697
    ],
    [
      -0.551321804523468,
      0.1751272827386856,
      -0.04693244770169258
    ],
    [
      -0.18292713165283203,
      0.10734313726425171,
      -0.20697620511054993
    ]
  ],
  "b1": [
    -0.23332440853118896,
    -0.2526431083679199,
    -0.20304657518863678,
    0.004985474515706301,
    -0.4151919186115265,
    -0.18106091022491455,
    -0.32431474328041077,
    0.8322128057479858,
    -0.5451726317405701,
    0.0707450658082962,
    -0.18164202570915222,
    0.44940027594566345,
    0.6089276075363159,
    -0.6383590698242188,
    0.3688134551048279
  ],
  "W2": [
    [
      -0.2210632711648941,
      0.12717370688915253,
      -0.049974024295806885,
      -0.5093038082122803,
      -0.1825152486562729,
      0.08938224613666534,
      0.4823448359966278,
      -0.43327656388282776,
      -0.12058054655790329,
      0.4247071146965027,
      0.11804953217506409,
      -0.6537949442863464,
      0.25955432653427124,
      0.05265373736619949,
      0.011966556310653687
    ]
  ],
  "b2": [
    0.3641239106655121
  ],
  "architecture": "3 -> 15 -> 1",
  "activation": "ReLU",
  "save_time": "2026-04-08 01:41:34"
}