{
  "arch": "6-80-1",
  "xi": 0.1,
  "xi_effective": 0.1,
  "transition_guard": "paper: x in X only",
  "num_grid_points": 841,
  "num_transition_grid_points": 841,
  "eta": 0.05,
  "eta_train": 0.05,
  "eta_cert": 0.05,
  "lambda1": 0.1,
  "lambda2": 0.1,
  "lip_reg": 0.01,
  "L_T": 0.2731371483200107,
  "L_f": 1.00012,
  "L1": 0.5463070730978198,
  "L2": 1.0926141461956396,
  "L3": 0.6009017263040235,
  "L": 1.0926141461956396,
  "max_lprime_sampled": 0.14969976544380187,
  "max_lprime_grid": 0.14969976544380187,
  "max_lprime_grid_train_eta": 0.14969976246356964,
  "min_g1_grid": 0.04552251100540161,
  "min_g2_grid": -0.09969976544380188,
  "min_g3_grid": 0.03646252304315567,
  "certification_sample_check": "exhaustive_grid",
  "theorem_margin": 0.004630707309781976,
  "certified": false,
  "state_dict": {
    "fc1.weight": [
      [
        -0.004646881949156523,
        0.0052859424613416195,
        -0.32952699065208435,
        0.007431218400597572,
        -0.006298292428255081,
        0.12060792744159698
      ],
      [
        0.07671812176704407,
        0.20466278493404388,
        -0.36275970935821533,
        0.02887859009206295,
        -0.14313364028930664,
        -0.08902079612016678
      ],
      [
        -8.405931112065446e-06,
        9.408934602106456e-06,
        -0.16828937828540802,
        1.4547190403391141e-05,
        -1.2743063962261658e-05,
        0.24037346243858337
      ],
      [
        -0.032808732241392136,
        0.0443754643201828,
        0.10526598989963531,
        0.1018371433019638,
        -0.0803099051117897,
        0.35990211367607117
      ],
      [
        -0.1590297967195511,
        0.14646628499031067,
        0.7318488955497742,
        -0.16012117266654968,
        -0.008814752101898193,
        0.46082571148872375
      ],
      [
        -0.13287977874279022,
        0.10495886951684952,
        -0.37649157643318176,
        0.04385725408792496,
        -0.1314450204372406,
        -0.3938275873661041
      ],
      [
        -0.023294953629374504,
        0.023127194494009018,
        0.2818019986152649,
        0.039102695882320404,
        -0.03876015543937683,
        -0.3379969596862793
      ],
      [
        0.22611893713474274,
        0.10292670875787735,
        -0.4124886393547058,
        -0.16739311814308167,
        0.02313370630145073,
        0.1659305840730667
      ],
      [
        -0.0051804836839437485,
        0.10470560193061829,
        0.1340516209602356,
        0.1849876046180725,
        0.0072652483358979225,
        0.19039179384708405
      ],
      [
        5.267520919005619e-06,
        -6.0510965340654366e-06,
        0.08752433955669403,
        -9.936328751791734e-06,
        8.484968930133618e-06,
        -0.2108943611383438
      ],
      [
        0.087537981569767,
        0.09271598607301712,
        -0.6833502054214478,
        0.15396210551261902,
        0.21641288697719574,
        0.02187171019613743
      ],
      [
        -0.06241965293884277,
        0.07676535099744797,
        0.22371885180473328,
        0.17933307588100433,
        -0.15224802494049072,
        -0.05552705004811287
      ],
      [
        -0.012930715456604958,
        0.06014729663729668,
        0.5002899169921875,
        0.12658238410949707,
        -0.03748997673392296,
        -0.5249770879745483
      ],
      [
        0.06672604382038116,
        0.05839134380221367,
        -0.4183775782585144,
        0.11479226499795914,
        0.1349199265241623,
        -0.4674764573574066
      ],
      [
        0.05637168884277344,
        -0.05811571329832077,
        -0.06917262822389603,
        -0.08510763198137283,
        0.05291222035884857,
        -0.252878874540329
      ],
      [
        -0.0012117427540943027,
        0.004298071376979351,
        0.34132105112075806,
        0.10196900367736816,
        -0.1499597579240799,
        -0.274406373500824
      ],
      [
        0.1621255874633789,
        -0.020996538922190666,
        -0.536180853843689,
        -0.141630157828331,
        0.22178661823272705,
        0.2597406804561615
      ],
      [
        -3.49611381511572e-11,
        3.893536187904445e-11,
        -0.38889655470848083,
        6.416336906234221e-11,
        -5.4738699684087067e-11,
        -0.3149050772190094
      ],
      [
        0.010757235810160637,
        -0.028230613097548485,
        -0.38494163751602173,
        0.1393030285835266,
        -0.11659359186887741,
        0.5361974239349365
      ],
      [
        0.1939593106508255,
        -0.22520969808101654,
        -0.4354957044124603,
        -0.021920975297689438,
        0.035044990479946136,
        0.26213374733924866
      ],
      [
        0.09723859280347824,
        -0.04206382483243942,
        -0.5966196656227112,
        0.2230699360370636,
        0.012738375924527645,
        -0.2269149273633957
      ],
      [
        -0.002017904771491885,
        -0.022263256832957268,
        -0.12322511523962021,
        -0.07612617313861847,
        -0.027771158143877983,
        0.056945234537124634
      ],
      [
        -0.07488302141427994,
        -0.09205245971679688,
        0.4847719371318817,
        -0.010964897461235523,
        -0.02036472037434578,
        -0.20178256928920746
      ],
      [
        0.023592542856931686,
        0.004939558450132608,
        0.23796957731246948,
        0.008142892271280289,
        0.04644789546728134,
        0.11821841448545456
      ],
      [
        -0.14194156229496002,
        -0.06991386413574219,
        0.7016669511795044,
        0.037331145256757736,
        -0.0866430401802063,
        -0.706505537033081
      ],
      [
        -0.09511996805667877,
        -0.11718553304672241,
        0.4614553451538086,
        0.04563431441783905,
        0.032146044075489044,
        -0.6241793036460876
      ],
      [
        0.05480271577835083,
        -0.033395860344171524,
        -0.1795685887336731,
        -0.07179534435272217,
        0.03166472911834717,
        -0.014304705895483494
      ],
      [
        0.00013737654080614448,
        -0.013324393890798092,
        -0.07473258674144745,
        -0.029746005311608315,
        -0.04969842731952667,
        0.016917577013373375
      ],
      [
        -0.014516549184918404,
        -0.008816519752144814,
        0.4410569965839386,
        -0.15423063933849335,
        0.18537385761737823,
        0.2089208960533142
      ],
      [
        -0.07302211970090866,
        0.06277794390916824,
        -0.2932281494140625,
        -0.12449747323989868,
        0.15422935783863068,
        -0.2244357317686081
      ],
      [
        0.012788218446075916,
        -0.017244955524802208,
        0.4071284532546997,
        -0.028906576335430145,
        0.028474068269133568,
        0.0027820474933832884
      ],
      [
        0.04776541516184807,
        0.021958542987704277,
        -0.27190977334976196,
        0.028515245765447617,
        0.10287339240312576,
        0.19487762451171875
      ],
      [
        -4.5982741919692316e-11,
        5.180482778865958e-11,
        -0.28778815269470215,
        8.404138496231894e-11,
        -7.006855512470267e-11,
        0.13951683044433594
      ],
      [
        -0.04191603511571884,
        0.0630863606929779,
        -0.0390729159116745,
        0.11791197955608368,
        -0.07907514274120331,
        -0.27042239904403687
      ],
      [
        -0.037355631589889526,
        0.09692715108394623,
        -0.16489872336387634,
        0.14471741020679474,
        -0.029732150956988335,
        0.213926300406456
      ],
      [
        -0.040123101323843,
        -0.05051993578672409,
        0.3556375503540039,
        -0.09945596009492874,
        -0.08645279705524445,
        0.27623164653778076
      ],
      [
        -0.10441724210977554,
        0.10957358032464981,
        0.4313293397426605,
        -0.06752695888280869,
        -0.005503685213625431,
        0.2014540284872055
      ],
      [
        0.06019379198551178,
        0.022719981148838997,
        -0.45427441596984863,
        0.11922314018011093,
        -0.10285019129514694,
        -0.12741820514202118
      ],
      [
        -0.01574842259287834,
        0.08821392804384232,
        -0.10790539532899857,
        0.17004656791687012,
        -0.031201591715216637,
        0.49122247099876404
      ],
      [
        0.09519202262163162,
        -0.09573385119438171,
        0.5128012299537659,
        -0.0010816128924489021,
        -0.12224964797496796,
        0.870908260345459
      ],
      [
        0.03850319981575012,
        0.008814609609544277,
        -0.04789246246218681,
        -0.0141042061150074,
        0.1025666743516922,
        -0.49190154671669006
      ],
      [
        0.003077687928453088,
        -0.0026164890732616186,
        -0.22803185880184174,
        -0.005452614743262529,
        0.004305425565689802,
        0.044811930507421494
      ],
      [
        0.31274569034576416,
        0.20662669837474823,
        -0.6641687750816345,
        -0.1559101790189743,
        -0.07911209762096405,
        0.20026645064353943
      ],
      [
        0.09050972014665604,
        0.07178381085395813,
        -0.5537240505218506,
        0.14849194884300232,
        0.17625771462917328,
        0.4321078360080719
      ],
      [
        0.05864691734313965,
        0.010773373767733574,
        -0.175489142537117,
        0.02348245121538639,
        0.1067485436797142,
        0.05519011244177818
      ],
      [
        -3.801000833525414e-11,
        4.175586265642295e-11,
        -0.3859861195087433,
        6.895544552021349e-11,
        -5.873866670835781e-11,
        -0.3639843165874481
      ],
      [
        0.12150848656892776,
        -0.17921632528305054,
        -0.29574787616729736,
        -0.0032852920703589916,
        -0.05126463621854782,
        -0.17344678938388824
      ],
      [
        -0.21162797510623932,
        0.16334319114685059,
        0.11996851861476898,
        0.23525655269622803,
        -0.24446435272693634,
        -0.05957106500864029
      ],
      [
        0.024728253483772278,
        0.03924645110964775,
        -0.33288347721099854,
        0.07624123990535736,
        0.0706808865070343,
        -0.044966354966163635
      ],
      [
        -0.08207236975431442,
        0.23201076686382294,
        0.27718350291252136,
        0.013922729529440403,
        0.17297545075416565,
        -0.13727493584156036
      ],
      [
        0.0003573191643226892,
        -0.005825905594974756,
        -0.0903364047408104,
        -0.010385418310761452,
        -0.0007399681489914656,
        -0.3826245963573456
      ],
      [
        -0.038882747292518616,
        0.10793464630842209,
        -0.1874457150697708,
        0.03761208429932594,
        -0.13548675179481506,
        -0.03458448871970177
      ],
      [
        0.12389479577541351,
        -0.04494970664381981,
        0.13653235137462616,
        0.1265636384487152,
        -0.0026932077016681433,
        0.01310812495648861
      ],
      [
        0.19295643270015717,
        -0.06890958547592163,
        0.26251670718193054,
        0.14877238869667053,
        0.0064003365114331245,
        0.04441935569047928
      ],
      [
        0.04068750888109207,
        0.003138141240924597,
        0.20070648193359375,
        -0.014761900529265404,
        0.04748162254691124,
        -0.09747212380170822
      ],
      [
        0.013527744449675083,
        -0.04570753127336502,
        0.5409927368164062,
        0.04206855967640877,
        -0.19856290519237518,
        0.38409504294395447
      ],
      [
        -0.014191755093634129,
        0.0624421164393425,
        0.2491200566291809,
        0.12998653948307037,
        -0.04704241454601288,
        -0.037744227796792984
      ],
      [
        0.047185465693473816,
        0.0733979269862175,
        -0.4879862368106842,
        0.14000679552555084,
        0.11468067020177841,
        0.45178085565567017
      ],
      [
        -0.05139009281992912,
        0.1307382583618164,
        -0.27816078066825867,
        0.20440669357776642,
        -0.0544668547809124,
        0.2709955871105194
      ],
      [
        0.1526414304971695,
        0.2508586645126343,
        -0.5169193744659424,
        -0.020051805302500725,
        -0.16145402193069458,
        0.22009599208831787
      ],
      [
        0.03928887099027634,
        0.057340819388628006,
        -0.01961745321750641,
        0.0729222223162651,
        0.058491092175245285,
        0.25502288341522217
      ],
      [
        0.03164012357592583,
        -0.01737593300640583,
        -0.4678317904472351,
        -0.037321917712688446,
        0.03727937117218971,
        0.2916489541530609
      ],
      [
        -0.15905988216400146,
        0.28415894508361816,
        -1.3738343715667725,
        0.0786055475473404,
        0.4506073296070099,
        1.1505173444747925
      ],
      [
        0.07067227363586426,
        -0.030116666108369827,
        0.45046406984329224,
        -0.05798637866973877,
        0.13905932009220123,
        0.26005735993385315
      ],
      [
        -0.04017059504985809,
        0.057662252336740494,
        0.31478115916252136,
        0.10841234028339386,
        -0.07579096406698227,
        0.07095115631818771
      ],
      [
        0.41882747411727905,
        0.38672685623168945,
        -0.9459881782531738,
        -0.21245691180229187,
        -0.165741428732872,
        0.4255503714084625
      ],
      [
        0.10865091532468796,
        0.06599517911672592,
        -0.5203428268432617,
        0.1514948606491089,
        0.18086956441402435,
        0.15545125305652618
      ],
      [
        0.008905980736017227,
        -0.0845782458782196,
        0.25623175501823425,
        -0.11474421620368958,
        0.07142636924982071,
        0.19631777703762054
      ],
      [
        0.011856871657073498,
        0.02133147418498993,
        -0.15718744695186615,
        -0.07519370317459106,
        0.15971696376800537,
        -0.07001025229692459
      ],
      [
        -0.1806713044643402,
        -0.13719752430915833,
        -0.4916192293167114,
        -0.11199074983596802,
        -0.13837358355522156,
        1.1271296739578247
      ],
      [
        0.15483087301254272,
        -0.0730636939406395,
        0.0697113424539566,
        0.11290179193019867,
        0.04440198838710785,
        -0.34004274010658264
      ],
      [
        -1.9861380096131143e-08,
        2.2496212892519907e-08,
        -0.17419366538524628,
        3.70140682548481e-08,
        -3.1719867621404774e-08,
        0.1517568677663803
      ],
      [
        0.028929242864251137,
        -0.03072534129023552,
        -0.2771381437778473,
        -0.04969770461320877,
        0.04472978040575981,
        -0.29219526052474976
      ],
      [
        2.1075766198919155e-05,
        -2.4887669496820308e-05,
        -0.392446368932724,
        -4.061880099470727e-05,
        3.37136589223519e-05,
        0.27451959252357483
      ],
      [
        -0.25336968898773193,
        0.3119659125804901,
        -0.9465931057929993,
        0.1077907532453537,
        0.23401764035224915,
        -0.35097241401672363
      ],
      [
        -0.044454798102378845,
        0.013079057447612286,
        0.5188809633255005,
        0.1275450885295868,
        -0.12624609470367432,
        0.16034480929374695
      ],
      [
        0.21788832545280457,
        0.3086814880371094,
        -0.644250750541687,
        -0.061043452471494675,
        -0.17614834010601044,
        -0.120564304292202
      ],
      [
        -0.10872519016265869,
        -0.1385096162557602,
        0.5223449468612671,
        0.04642725735902786,
        0.041294340044260025,
        -0.49519509077072144
      ],
      [
        0.013485420495271683,
        0.055503975600004196,
        0.2606150209903717,
        0.11144980788230896,
        0.02346954122185707,
        -0.14031481742858887
      ],
      [
        0.37668102979660034,
        -0.2447366714477539,
        -1.5075056552886963,
        0.46314671635627747,
        0.113867849111557,
        1.4191577434539795
      ]
    ],
    "fc1.bias": [
      -0.24171970784664154,
      0.20574653148651123,
      -0.334968626499176,
      0.24613209068775177,
      -0.2462041825056076,
      0.17586201429367065,
      0.26284360885620117,
      0.26561811566352844,
      -0.01647845469415188,
      -0.15978385508060455,
      -0.3338582515716553,
      0.05403940752148628,
      0.260385662317276,
      -0.26861685514450073,
      0.16884756088256836,
      -0.18631374835968018,
      -0.1514958143234253,
      -0.22088594734668732,
      0.3273245394229889,
      0.4057731330394745,
      -0.06610096246004105,
      0.19652815163135529,
      -0.030234428122639656,
      0.1539953351020813,
      -0.08690875768661499,
      -0.32551366090774536,
      0.2662758529186249,
      0.1483040153980255,
      -0.054875697940588,
      0.20647823810577393,
      -0.016606390476226807,
      0.2807510197162628,
      -0.07602738589048386,
      -0.19281844794750214,
      0.14176219701766968,
      0.15594510734081268,
      -0.21834313869476318,
      -0.02051166072487831,
      0.19228361546993256,
      -0.16132321953773499,
      0.15842518210411072,
      0.002268746728077531,
      0.49275028705596924,
      -0.3390832245349884,
      -0.18155315518379211,
      -0.16145698726177216,
      0.4845193028450012,
      0.015856226906180382,
      -0.07008545845746994,
      -0.836778461933136,
      0.41852259635925293,
      0.3727755844593048,
      -0.5094225406646729,
      -0.7317147850990295,
      -0.2813430428504944,
      -0.05538288503885269,
      -0.11441101133823395,
      -0.2078949362039566,
      -0.1445235013961792,
      0.36443787813186646,
      -0.35202905535697937,
      0.00040956877637654543,
      -0.09948292374610901,
      -0.1680668592453003,
      0.09886311739683151,
      0.6859261989593506,
      -0.39453864097595215,
      0.08204061537981033,
      -0.10069533437490463,
      1.2125979661941528,
      -0.5263850688934326,
      -0.3826844394207001,
      0.3869677484035492,
      -0.24727176129817963,
      -0.007222370710223913,
      -0.01594391092658043,
      0.4493394196033478,
      -0.3628343641757965,
      0.23906829953193665,
      -0.10088606178760529
    ],
    "fc2.weight": [
      [
        -2.4905538742459044e-10,
        -0.04403267428278923,
        -9.388699710976274e-44,
        0.0005155170219950378,
        0.031922925263643265,
        -0.006554156541824341,
        -1.922844057844486e-05,
        -0.05228666588664055,
        0.005315415561199188,
        8.828180325246348e-44,
        0.028005195781588554,
        -0.0024787960574030876,
        0.00260505941696465,
        0.018120884895324707,
        -0.0032334355637431145,
        0.01072594616562128,
        -0.018497271463274956,
        9.10844001811131e-44,
        0.011424767784774303,
        0.022125890478491783,
        0.028193596750497818,
        -0.007866686210036278,
        -0.020435722544789314,
        0.0015743612311780453,
        -0.025456972420215607,
        -0.03103955090045929,
        -0.0057125575840473175,
        -0.0065758973360061646,
        -0.010342837311327457,
        0.01583418995141983,
        -0.0006691389135085046,
        0.00187597272451967,
        -9.668959403841238e-44,
        -0.0009186523384414613,
        0.003134006867185235,
        0.010447976179420948,
        0.018962521106004715,
        -0.013545570895075798,
        0.0031201818492263556,
        0.022174028679728508,
        0.0012918721185997128,
        -0.00038301548920571804,
        -0.08267102390527725,
        0.023765679448843002,
        0.00840666238218546,
        8.96831017167883e-44,
        0.020808739587664604,
        -0.013319669291377068,
        0.01140578743070364,
        0.03898346424102783,
        -0.0015920880250632763,
        -0.013854797929525375,
        0.02282252162694931,
        0.03302118927240372,
        0.004334849771112204,
        0.015155143104493618,
        0.0009604820515960455,
        0.019241150468587875,
        0.004513947293162346,
        -0.06417321413755417,
        0.012254070490598679,
        -0.0028496384620666504,
        0.06703360378742218,
        -0.0022152403835207224,
        0.0013056701282039285,
        -0.12853260338306427,
        0.023433469235897064,
        -0.01078900694847107,
        0.004990277346223593,
        0.03924351558089256,
        0.023214247077703476,
        9.248569864543793e-44,
        -0.0016813266556710005,
        -1.0229478789571165e-43,
        0.0503363236784935,
        -0.0067574274726212025,
        -0.08366315066814423,
        -0.03565993532538414,
        0.0031083717476576567,
        0.07404676079750061
      ]
    ],
    "fc2.bias": [
      -0.17516624927520752
    ]
  },
  "example": "ex2",
  "method": "NCC",
  "certificate_type": "neural_closure_certificate",
  "backend": {
    "train": "pytorch",
    "certify": "lipschitz_bound"
  },
  "automaton": {
    "states": [
      0,
      1
    ],
    "initial_state": 1,
    "accepting_states": [
      0
    ]
  },
  "seed": 0,
  "elapsed_sec": 213.03166222572327
}