{
  "arch": "6-80-1",
  "xi": 0.1,
  "xi_effective": 0.1,
  "transition_guard": "paper: x in X only",
  "num_grid_points": 841,
  "num_transition_grid_points": 841,
  "eta": 0.08,
  "eta_train": 0.08,
  "eta_cert": 0.08,
  "lambda1": 0.1,
  "lambda2": 0.1,
  "lip_reg": 0.01,
  "L_T": 0.39659119215431815,
  "L_f": 1.00012,
  "L1": 0.7932299752516948,
  "L2": 1.5864599505033896,
  "L3": 0.8725006227395,
  "L": 1.5864599505033896,
  "max_lprime_sampled": 0.20466710805892946,
  "max_lprime_grid": 0.20466710805892946,
  "max_lprime_grid_train_eta": 0.2046671062707901,
  "min_g1_grid": 0.07749593257904053,
  "min_g2_grid": -0.12466710805892944,
  "min_g3_grid": 0.057205140590667725,
  "certification_sample_check": "exhaustive_grid",
  "theorem_margin": -0.0006770024748305181,
  "certified": false,
  "state_dict": {
    "fc1.weight": [
      [
        -0.12615184485912323,
        0.15002542734146118,
        -0.4875793159008026,
        0.15905435383319855,
        -0.16524341702461243,
        0.2318573296070099
      ],
      [
        -0.00038444134406745434,
        -0.0008135613752529025,
        0.03698152303695679,
        -0.0011720104375854135,
        0.0007940463256090879,
        -0.11310775578022003
      ],
      [
        0.18255721032619476,
        -0.1796075403690338,
        -1.2940173149108887,
        0.3263612985610962,
        0.02578011155128479,
        1.1203892230987549
      ],
      [
        0.3206420838832855,
        0.2519972026348114,
        -0.8367538452148438,
        -0.1757497787475586,
        -0.08808477967977524,
        -0.045084089040756226
      ],
      [
        0.04405694082379341,
        -0.045259635895490646,
        0.45904070138931274,
        -0.0026375369634479284,
        -0.07456226646900177,
        0.47379961609840393
      ],
      [
        0.22333213686943054,
        0.2906845510005951,
        -0.7464351058006287,
        -0.07708665728569031,
        -0.16005060076713562,
        0.3470296859741211
      ],
      [
        -8.093156793620437e-06,
        5.4564193305850495e-06,
        -0.03442937508225441,
        7.373919288511388e-06,
        -6.160453722259263e-06,
        -0.22701889276504517
      ],
      [
        0.0005095910164527595,
        -0.000558629515580833,
        -0.28834855556488037,
        -0.0007576286443509161,
        0.0004688474000431597,
        -0.17750409245491028
      ],
      [
        -0.1577931046485901,
        0.20419570803642273,
        -1.6792601346969604,
        0.043549276888370514,
        0.480927973985672,
        -0.1331854909658432
      ],
      [
        0.00036343871033750474,
        -0.00028304659645073116,
        -0.2642631232738495,
        -0.0003093075647484511,
        0.0002024986024480313,
        -0.0832032635807991
      ],
      [
        -0.0007861111662350595,
        0.0008543521980755031,
        -0.004385859705507755,
        0.000928905385080725,
        -0.0008455097558908165,
        -0.023277893662452698
      ],
      [
        0.35397398471832275,
        0.2802106440067291,
        -0.8870788812637329,
        -0.19382356107234955,
        -0.09942909330129623,
        0.41889187693595886
      ],
      [
        -0.0026741332840174437,
        0.0025305442977696657,
        -0.08983901143074036,
        0.0031662487890571356,
        -0.002338196150958538,
        -0.045578550547361374
      ],
      [
        0.0133347874507308,
        0.0034167091362178326,
        -1.254441738128662,
        -0.006926363334059715,
        0.00523789320141077,
        -0.07995575666427612
      ],
      [
        0.1593276858329773,
        -0.16229553520679474,
        -1.094346046447754,
        0.24932141602039337,
        0.02602020651102066,
        0.900993287563324
      ],
      [
        0.11100254952907562,
        -0.11611814796924591,
        0.8693304657936096,
        -0.01527536753565073,
        -0.16470861434936523,
        0.5040181279182434
      ],
      [
        0.02668597362935543,
        -0.004274345468729734,
        -0.2782864570617676,
        0.017485853284597397,
        0.05778707191348076,
        1.4172991514205933
      ],
      [
        0.09685894846916199,
        -0.00052951171528548,
        -0.42858561873435974,
        -0.06465819478034973,
        0.055494170635938644,
        0.10719719529151917
      ],
      [
        0.0015057396376505494,
        -0.00127419491764158,
        0.1657000333070755,
        -0.0017847674898803234,
        0.0010685871820896864,
        0.13411672413349152
      ],
      [
        -3.5319142625667155e-05,
        -0.00014601471775677055,
        0.012896445579826832,
        -0.0002082382416119799,
        0.00014392915181815624,
        -0.715671181678772
      ],
      [
        -0.004953477997332811,
        0.11686113476753235,
        0.5101555585861206,
        0.015943162143230438,
        0.12236446142196655,
        -0.18709047138690948
      ],
      [
        0.0016280607087537646,
        -0.0010375443380326033,
        0.6292542815208435,
        0.0011864160187542439,
        0.0038825063966214657,
        -0.5769920349121094
      ],
      [
        -0.0007550810696557164,
        0.00045764236710965633,
        0.24321624636650085,
        0.000818699540104717,
        -0.0004987107240594923,
        -0.10830535739660263
      ],
      [
        0.0009012375958263874,
        -0.0005565178580582142,
        -0.18706777691841125,
        -0.0008879252127371728,
        0.0005190212978050113,
        0.14935913681983948
      ],
      [
        -0.0036848157178610563,
        0.0055394102819263935,
        0.058286163955926895,
        0.004701155237853527,
        -0.003134801285341382,
        0.7454938292503357
      ],
      [
        0.04810080677270889,
        0.16814588010311127,
        -0.39089810848236084,
        0.03003961406648159,
        -0.1147373840212822,
        -0.2312517613172531
      ],
      [
        0.017855029553174973,
        -0.016729721799492836,
        0.4779180884361267,
        0.007011840119957924,
        -0.04077973961830139,
        1.0289310216903687
      ],
      [
        0.15429887175559998,
        0.1616956740617752,
        0.6590278744697571,
        0.14621292054653168,
        0.14205685257911682,
        -0.1227613240480423
      ],
      [
        -0.14920704066753387,
        0.1397523432970047,
        -0.8838440179824829,
        0.026824474334716797,
        0.18201465904712677,
        0.11830870062112808
      ],
      [
        0.00010465882951393723,
        6.563917850144207e-05,
        0.47741132974624634,
        -1.1705266445005691e-07,
        -8.149532368406653e-05,
        0.6370294094085693
      ],
      [
        -0.0009068408980965614,
        0.0006095047574490309,
        -0.35170549154281616,
        0.0009758802480064332,
        -0.0005774625460617244,
        0.3639727830886841
      ],
      [
        -0.0016152899479493499,
        0.0022366838529706,
        -0.0712326243519783,
        0.0019115408649668097,
        -0.002799157751724124,
        -0.05551094934344292
      ],
      [
        0.08449351787567139,
        0.08106337487697601,
        0.3471631407737732,
        0.07142264395952225,
        0.07886616140604019,
        0.5771444439888
      ],
      [
        -0.0006565696676261723,
        0.003461855463683605,
        -0.1725223958492279,
        0.004135053139179945,
        -0.00255808443762362,
        0.07504550367593765
      ],
      [
        -0.002114697825163603,
        0.0015760245732963085,
        -0.13281980156898499,
        0.002422418911010027,
        -0.0015129868406802416,
        -0.13110795617103577
      ],
      [
        0.03475259616971016,
        0.01991850696504116,
        -0.4654919505119324,
        0.0851690024137497,
        0.109017014503479,
        0.8332865238189697
      ],
      [
        0.14432379603385925,
        -0.0991533175110817,
        -1.2916573286056519,
        0.38425326347351074,
        0.04539308324456215,
        1.0790269374847412
      ],
      [
        -0.09810173511505127,
        0.094222791492939,
        0.5564146637916565,
        -0.10282371193170547,
        -0.022375378757715225,
        0.9457295536994934
      ],
      [
        0.1730545461177826,
        -0.14340735971927643,
        -0.5593200922012329,
        -0.1918727308511734,
        0.18446575105190277,
        0.11033637821674347
      ],
      [
        -0.0014269071398302913,
        0.006682304199784994,
        -0.11777302622795105,
        0.013537252321839333,
        0.004295710474252701,
        -0.07158364355564117
      ],
      [
        0.00047241291031241417,
        -0.0001817452721297741,
        0.17147468030452728,
        -0.0003149296098854393,
        0.00021372217452153563,
        0.009333549998700619
      ],
      [
        0.15427778661251068,
        0.15656673908233643,
        0.6482581496238708,
        0.14056134223937988,
        0.143002450466156,
        -0.4712648391723633
      ],
      [
        0.029196109622716904,
        -0.05724971368908882,
        -0.1881936937570572,
        -0.057263292372226715,
        0.05228541046380997,
        0.5001136064529419
      ],
      [
        -0.05503537878394127,
        0.0499345064163208,
        0.30533191561698914,
        0.06217507645487785,
        -0.06132816523313522,
        0.5320349931716919
      ],
      [
        0.027696877717971802,
        -0.029386641457676888,
        0.34259170293807983,
        -0.03630152344703674,
        0.03510530665516853,
        -0.5888412594795227
      ],
      [
        -0.004022195469588041,
        0.0041996329091489315,
        0.14710476994514465,
        0.005029138643294573,
        -0.004930709954351187,
        -0.1858217418193817
      ],
      [
        -0.1855049580335617,
        0.1731748878955841,
        -1.0774141550064087,
        0.03508074954152107,
        0.21643349528312683,
        0.7218311429023743
      ],
      [
        0.09344195574522018,
        -0.07924479246139526,
        -0.3346353769302368,
        -0.10436832904815674,
        0.10069581121206284,
        0.28472891449928284
      ],
      [
        0.11388913542032242,
        0.1143793985247612,
        0.47768330574035645,
        0.10202819854021072,
        0.10568051040172577,
        0.33741533756256104
      ],
      [
        -0.0006082537001930177,
        0.00037117511965334415,
        -0.17346739768981934,
        0.0007180254906415939,
        -0.0004731584049295634,
        -0.22778551280498505
      ],
      [
        -0.007403441239148378,
        -0.0011679806048050523,
        0.3340723216533661,
        -0.008843490853905678,
        -0.016226986423134804,
        0.6671108603477478
      ],
      [
        -0.16331787407398224,
        0.14507919549942017,
        0.5698057413101196,
        0.1816696971654892,
        -0.17955651879310608,
        -0.5542733073234558
      ],
      [
        -0.10483719408512115,
        0.09983854740858078,
        0.5964993238449097,
        -0.11419150978326797,
        -0.022996872663497925,
        0.8778716325759888
      ],
      [
        -0.0007272657239809632,
        0.0007780308951623738,
        -0.09464926272630692,
        0.0009344035643152893,
        -0.0007609550375491381,
        -0.20722293853759766
      ],
      [
        0.26147162914276123,
        -0.025484610348939896,
        0.5225560069084167,
        0.2850348651409149,
        0.024620139971375465,
        -0.2416514754295349
      ],
      [
        0.007119042333215475,
        -0.007230738643556833,
        0.33791375160217285,
        -0.008738605305552483,
        0.008748087100684643,
        -0.141776442527771
      ],
      [
        -3.570949411368929e-05,
        3.185918103554286e-05,
        0.23118244111537933,
        3.80225719709415e-05,
        -3.8726284401491284e-05,
        1.2318203449249268
      ],
      [
        -0.0625639334321022,
        0.07228096574544907,
        -0.678428590297699,
        0.0782959833741188,
        -0.07996980100870132,
        -0.2175939828157425
      ],
      [
        -0.025329839438199997,
        0.22362856566905975,
        0.41809529066085815,
        0.02240537852048874,
        0.2551599144935608,
        -0.309874951839447
      ],
      [
        0.0006180999334901571,
        -0.00028582382947206497,
        -0.050371307879686356,
        -0.0005997883854433894,
        0.0003755191864911467,
        0.14130111038684845
      ],
      [
        0.0011286867083981633,
        -0.0006820712587796152,
        0.46521440148353577,
        -0.0010219080140814185,
        0.0008649101946502924,
        -0.4921094477176666
      ],
      [
        0.006696509197354317,
        -0.006972410250455141,
        0.11485341936349869,
        -0.008274372667074203,
        0.0070858485996723175,
        0.14315614104270935
      ],
      [
        -0.01673932932317257,
        0.016297606751322746,
        0.3342928886413574,
        0.01945931278169155,
        -0.0218490157276392,
        0.5634827613830566
      ],
      [
        0.0838940292596817,
        0.07112608850002289,
        -0.37032628059387207,
        -0.044484592974185944,
        -0.02799905091524124,
        -0.10787008702754974
      ],
      [
        -0.00048690414405427873,
        0.0004948527785018086,
        0.5304193496704102,
        0.0005323606892488897,
        -0.0005185689660720527,
        -0.10836216062307358
      ],
      [
        -0.00046443150495179,
        -0.0009913193061947823,
        -0.11647994816303253,
        -0.0010453612776473165,
        0.0007991415332071483,
        0.24447143077850342
      ],
      [
        -0.06383653730154037,
        0.05797106400132179,
        0.4536669850349426,
        0.07211639732122421,
        -0.07119458168745041,
        -0.07417292892932892
      ],
      [
        -0.1302187293767929,
        -0.11591009050607681,
        -0.45694324374198914,
        -0.09098924696445465,
        -0.10581141710281372,
        -0.2817038297653198
      ],
      [
        0.05418320372700691,
        0.05643787980079651,
        0.23279757797718048,
        0.05069410800933838,
        0.04971857741475105,
        -0.3394225835800171
      ],
      [
        0.06884563714265823,
        -0.0717829242348671,
        -0.4543292820453644,
        0.09654058516025543,
        0.013417670503258705,
        -0.14648938179016113
      ],
      [
        3.0107825295999646e-05,
        -2.8269241738598794e-05,
        -0.06688804924488068,
        -3.092565748374909e-05,
        1.9782175513682887e-05,
        0.45919862389564514
      ],
      [
        0.0021290357690304518,
        -0.002196761779487133,
        0.06553511321544647,
        -0.002680740784853697,
        0.0018126937793567777,
        -0.20049680769443512
      ],
      [
        -0.0028781683649867773,
        0.002577617997303605,
        -0.003641619347035885,
        0.0029135176446288824,
        -0.003580318996682763,
        -0.5929135084152222
      ],
      [
        -0.013023086823523045,
        0.13919635117053986,
        -0.26337823271751404,
        0.09529297053813934,
        -0.09159153699874878,
        0.31069302558898926
      ],
      [
        -0.20056258141994476,
        0.242051362991333,
        -0.7746889591217041,
        0.2560308575630188,
        -0.26716285943984985,
        -0.34369558095932007
      ],
      [
        -0.005623767618089914,
        0.007473348639905453,
        0.0715017020702362,
        0.005353044252842665,
        -0.0039572822861373425,
        -0.030052993446588516
      ],
      [
        0.00028831540839746594,
        -0.00031384991598315537,
        0.3115466833114624,
        -0.0003462489112280309,
        0.00035149574978277087,
        -0.715296745300293
      ],
      [
        0.06436527520418167,
        0.14295445382595062,
        -0.3962599039077759,
        -0.0007593699265271425,
        -0.09720826894044876,
        -0.020749377086758614
      ],
      [
        0.0002542288275435567,
        0.0023889343719929457,
        0.041459422558546066,
        0.0027259287890046835,
        -0.001629559090360999,
        0.2383703589439392
      ],
      [
        -2.1222379018581705e-06,
        1.52857728608069e-06,
        -0.03254059702157974,
        1.9453839286143193e-06,
        -1.5795341141711106e-06,
        -0.29439452290534973
      ]
    ],
    "fc1.bias": [
      0.010770270600914955,
      -0.10686426609754562,
      0.3127022385597229,
      0.6879177093505859,
      -0.2416146844625473,
      0.6165043711662292,
      -0.04653714969754219,
      0.06411340087652206,
      0.22349978983402252,
      -0.0032960388343781233,
      -0.043118949979543686,
      0.7203853726387024,
      -0.009466337040066719,
      0.5103832483291626,
      0.32651522755622864,
      -0.3629671335220337,
      0.07407885789871216,
      0.26626503467559814,
      -0.2203792929649353,
      -0.013852371834218502,
      -0.9152593016624451,
      -0.643834114074707,
      -0.319809228181839,
      -0.19797375798225403,
      -0.1351260393857956,
      0.2630466818809509,
      -0.38232678174972534,
      -1.493399977684021,
      0.3007258176803589,
      -0.5116667747497559,
      -0.2687514126300812,
      0.060713883489370346,
      -0.7831118702888489,
      -0.038025181740522385,
      -0.0263995211571455,
      -0.0641707107424736,
      0.1064169704914093,
      -0.2060271054506302,
      0.011278390884399414,
      0.06988344341516495,
      -0.4036991000175476,
      -1.4693794250488281,
      0.19140328466892242,
      -0.002389762317761779,
      -0.04588327184319496,
      -0.22783343493938446,
      0.3760339915752411,
      0.005026340018957853,
      -1.079444169998169,
      -0.2497701644897461,
      -0.26478490233421326,
      -0.00427900580689311,
      -0.21283142268657684,
      -0.06938084959983826,
      -1.433026671409607,
      -0.378826767206192,
      -0.23485106229782104,
      0.004369779489934444,
      -1.2322261333465576,
      -0.011516829952597618,
      -0.47911784052848816,
      -0.3208543658256531,
      -0.34050875902175903,
      0.3303910791873932,
      -0.5714901089668274,
      -0.02233320102095604,
      -0.0027608764357864857,
      1.0337028503417969,
      -0.5234090685844421,
      0.15148745477199554,
      -0.045076027512550354,
      -0.17954395711421967,
      0.27240079641342163,
      -0.009289676323533058,
      0.01876017637550831,
      -0.11675279587507248,
      -0.31421372294425964,
      0.3398222327232361,
      -0.13954338431358337,
      -1.9881839762092568e-05
    ],
    "fc2.weight": [
      [
        -0.008760178461670876,
        1.2104810123639216e-18,
        0.10586874186992645,
        -0.16206523776054382,
        0.024279924109578133,
        -0.14554762840270996,
        2.4802982818549262e-43,
        -0.00015025699394755065,
        0.1376667022705078,
        4.093810446192947e-08,
        1.8443514839454803e-38,
        -0.17954950034618378,
        1.2449133919290034e-06,
        -0.004443199839442968,
        0.08599656075239182,
        0.057232245802879333,
        0.012609235011041164,
        -0.02251264452934265,
        1.3427568164828253e-26,
        1.5035359865578357e-05,
        0.03874163702130318,
        0.0009451538207940757,
        -2.382207389352189e-43,
        -1.1630777253895982e-43,
        -7.941942828676463e-26,
        -0.0585138201713562,
        0.011682553216814995,
        0.07627751678228378,
        0.06903481483459473,
        6.621981319015405e-26,
        1.4293244336113134e-43,
        -0.00025923585053533316,
        0.039862047880887985,
        -1.7830302102469627e-35,
        -2.559256417900002e-10,
        0.03346206620335579,
        0.10613258928060532,
        0.041722070425748825,
        -0.012078676372766495,
        0.002879927633330226,
        1.1630777253895982e-43,
        0.07504844665527344,
        0.007075026165693998,
        -0.0021032204385846853,
        -0.00025844661286100745,
        2.4102333586386854e-43,
        0.08380123972892761,
        -0.0063685220666229725,
        0.05504284054040909,
        1.2751816025355835e-43,
        0.004306626506149769,
        -0.008429326117038727,
        0.045375607907772064,
        1.457118043488831e-18,
        0.08373911678791046,
        -1.6597037980070617e-11,
        2.4940054763460015e-26,
        -0.003671966725960374,
        0.07611995935440063,
        -7.658907286156591e-09,
        1.036265257425839e-05,
        1.233142648605839e-43,
        0.0018671839497983456,
        -0.04416331648826599,
        2.620428128287408e-43,
        3.904840680800609e-27,
        -0.0024636019952595234,
        0.05975896492600441,
        0.026564031839370728,
        0.03507770225405693,
        2.3302904917910023e-27,
        -1.2471556332490872e-43,
        -8.507444727001712e-05,
        -0.026801513507962227,
        -0.015399440191686153,
        -2.5327093680971302e-05,
        -3.1886246421031217e-10,
        -0.05909406766295433,
        -2.1611659552082083e-26,
        4.409938993837903e-12
      ]
    ],
    "fc2.bias": [
      -0.36345261335372925
    ]
  },
  "example": "ex2",
  "method": "NCC",
  "certificate_type": "neural_closure_certificate",
  "backend": {
    "train": "pytorch",
    "certify": "lipschitz_bound"
  },
  "automaton": {
    "states": [
      0,
      1
    ],
    "initial_state": 1,
    "accepting_states": [
      0
    ]
  },
  "seed": 1,
  "elapsed_sec": 654.6435990333557
}